{"learner":{"attributes":{"best_iteration":"99","best_ntree_limit":"100","scikit_learn":"{\"n_estimators\": 100, \"objective\": \"reg:squarederror\", \"max_depth\": null, \"learning_rate\": null, \"verbosity\": null, \"booster\": null, \"tree_method\": null, \"gamma\": null, \"min_child_weight\": null, \"max_delta_step\": null, \"subsample\": null, \"colsample_bytree\": null, \"colsample_bylevel\": null, \"colsample_bynode\": null, \"reg_alpha\": null, \"reg_lambda\": null, \"scale_pos_weight\": null, \"base_score\": null, \"missing\": NaN, \"num_parallel_tree\": null, \"random_state\": null, \"n_jobs\": null, \"monotone_constraints\": null, \"interaction_constraints\": null, \"importance_type\": null, \"gpu_id\": null, \"validate_parameters\": null, \"predictor\": null, \"enable_categorical\": false, \"kwargs\": {\"eval_metric\": \"mape\"}, \"_estimator_type\": \"regressor\"}"},"feature_names":[],"feature_types":[],"gradient_booster":{"model":{"gbtree_model_param":{"num_trees":"100","size_leaf_vector":"0"},"tree_info":[0,0,0,0,0,0,0,0,0,0,0,0,0,0,0,0,0,0,0,0,0,0,0,0,0,0,0,0,0,0,0,0,0,0,0,0,0,0,0,0,0,0,0,0,0,0,0,0,0,0,0,0,0,0,0,0,0,0,0,0,0,0,0,0,0,0,0,0,0,0,0,0,0,0,0,0,0,0,0,0,0,0,0,0,0,0,0,0,0,0,0,0,0,0,0,0,0,0,0,0],"trees":[{"base_weights":[-4.8604554E-1,-4.8841745E-1,-2.692659E-1,-4.892148E-1,-4.7344494E-1,-3.0037963E-1,-2.0508131E-1,-4.8936164E-1,-4.7959167E-1,-4.8652077E-1,-4.245668E-1,-3.1888634E-1,-2.807548E-1,-4.3548918E-1,-4.0135276E-1],"categories":[],"categories_nodes":[],"categories_segments":[],"categories_sizes":[],"default_left":[true,true,true,true,true,true,false,false,false,false,true,false,false,false,false],"id":0,"left_children":[1,3,5,7,9,11,-1,-1,-1,-1,13,-1,-1,-1,-1],"loss_changes":[1.0028516E2,2.0742188E0,4.1641083E0,2.34375E-2,6.0561523E0,4.2729187E-1,0E0,0E0,0E0,0E0,3.5159302E-1,0E0,0E0,0E0,0E0],"parents":[2147483647,0,0,1,1,2,2,3,3,4,4,5,5,10,10],"right_children":[2,4,6,8,10,12,-1,-1,-1,-1,14,-1,-1,-1,-1],"split_conditions":[2.15E1,1.05E1,4.35E1,2.688E3,1.92E2,1.28E2,-6.1524395E-2,-1.468085E-1,-1.438775E-1,-1.4595623E-1,3.2E2,-9.566591E-2,-8.4226444E-2,-1.3064677E-1,-1.2040583E-1],"split_indices":[1,1,1,0,0,0,0,0,0,0,0,0,0,0,0],"split_type":[0,0,0,0,0,0,0,0,0,0,0,0,0,0,0],"sum_hessian":[1.953E5,1.93185E5,2.115E3,1.83387E5,9.798E3,1.422E3,6.93E2,1.80582E5,2.805E3,7.723E3,2.075E3,7.24E2,6.98E2,1.399E3,6.76E2],"tree_param":{"num_deleted":"0","num_feature":"3","num_nodes":"15","size_leaf_vector":"0"}},{"base_weights":[-3.402366E-1,-3.4189576E-1,-1.8860023E-1,-3.4245193E-1,-3.3145198E-1,-2.1039216E-1,-1.4364558E-1,-3.4255394E-1,-3.3576542E-1,-3.4058344E-1,-2.9731768E-1,-2.233524E-1,-1.9664887E-1,-3.0493575E-1,-2.811248E-1],"categories":[],"categories_nodes":[],"categories_segments":[],"categories_sizes":[],"default_left":[true,true,true,true,true,true,false,false,false,false,true,false,false,false,false],"id":1,"left_children":[1,3,5,7,9,11,-1,-1,-1,-1,13,-1,-1,-1,-1],"loss_changes":[4.9070312E1,1.0078125E0,2.042717E0,9.765625E-3,2.953125E0,2.095375E-1,0E0,0E0,0E0,0E0,1.7036438E-1,0E0,0E0,0E0,0E0],"parents":[2147483647,0,0,1,1,2,2,3,3,4,4,5,5,10,10],"right_children":[2,4,6,8,10,12,-1,-1,-1,-1,14,-1,-1,-1,-1],"split_conditions":[2.15E1,1.05E1,4.35E1,2.688E3,1.92E2,1.28E2,-4.3093678E-2,-1.02766186E-1,-1.0072963E-1,-1.02175035E-1,3.2E2,-6.700572E-2,-5.8994662E-2,-9.148073E-2,-8.433744E-2],"split_indices":[1,1,1,0,0,0,0,0,0,0,0,0,0,0,0],"split_type":[0,0,0,0,0,0,0,0,0,0,0,0,0,0,0],"sum_hessian":[1.953E5,1.93185E5,2.115E3,1.83387E5,9.798E3,1.422E3,6.93E2,1.80582E5,2.805E3,7.723E3,2.075E3,7.24E2,6.98E2,1.399E3,6.76E2],"tree_param":{"num_deleted":"0","num_feature":"3","num_nodes":"15","size_leaf_vector":"0"}},{"base_weights":[-2.3816895E-1,-2.3932952E-1,-1.3210006E-1,-2.3971745E-1,-2.3204476E-1,-1.4736305E-1,-1.0061399E-1,-2.3978832E-1,-2.3507169E-1,-2.3842165E-1,-2.0820707E-1,-1.564391E-1,-1.377386E-1,-2.1352035E-1,-1.9691193E-1],"categories":[],"categories_nodes":[],"categories_segments":[],"categories_sizes":[],"default_left":[true,true,true,true,true,true,false,false,false,false,true,false,false,false,false],"id":2,"left_children":[1,3,5,7,9,11,-1,-1,-1,-1,13,-1,-1,-1,-1],"loss_changes":[2.400879E1,4.9121094E-1,1.0020599E0,2.9296875E-3,1.4398804E0,1.02752686E-1,0E0,0E0,0E0,0E0,8.254242E-2,0E0,0E0,0E0,0E0],"parents":[2147483647,0,0,1,1,2,2,3,3,4,4,5,5,10,10],"right_children":[2,4,6,8,10,12,-1,-1,-1,-1,14,-1,-1,-1,-1],"split_conditions":[2.15E1,1.05E1,4.35E1,2.688E3,1.92E2,1.28E2,-3.0184198E-2,-7.19365E-2,-7.052151E-2,-7.15265E-2,3.2E2,-4.6931732E-2,-4.1321583E-2,-6.4056106E-2,-5.9073582E-2],"split_indices":[1,1,1,0,0,0,0,0,0,0,0,0,0,0,0],"split_type":[0,0,0,0,0,0,0,0,0,0,0,0,0,0,0],"sum_hessian":[1.953E5,1.93185E5,2.115E3,1.83387E5,9.798E3,1.422E3,6.93E2,1.80582E5,2.805E3,7.723E3,2.075E3,7.24E2,6.98E2,1.399E3,6.76E2],"tree_param":{"num_deleted":"0","num_feature":"3","num_nodes":"15","size_leaf_vector":"0"}},{"base_weights":[-1.667206E-1,-1.675324E-1,-9.252601E-2,-1.6780299E-1,-1.624512E-1,-1.0321616E-1,-7.0473276E-2,-1.6785222E-1,-1.6457531E-1,-1.669044E-1,-1.4580426E-1,-1.0957208E-1,-9.6476145E-2,-1.4951001E-1,-1.379256E-1],"categories":[],"categories_nodes":[],"categories_segments":[],"categories_sizes":[],"default_left":[true,true,true,true,true,true,false,false,false,false,true,false,false,false,false],"id":3,"left_children":[1,3,5,7,9,11,-1,-1,-1,-1,13,-1,-1,-1,-1],"loss_changes":[1.1747559E1,2.3876953E-1,4.915657E-1,9.765625E-4,7.020569E-1,5.038929E-2,0E0,0E0,0E0,0E0,3.998947E-2,0E0,0E0,0E0,0E0],"parents":[2147483647,0,0,1,1,2,2,3,3,4,4,5,5,10,10],"right_children":[2,4,6,8,10,12,-1,-1,-1,-1,14,-1,-1,-1,-1],"split_conditions":[2.15E1,1.05E1,4.35E1,2.688E3,1.92E2,1.28E2,-2.1141984E-2,-5.035567E-2,-4.9372595E-2,-5.0071325E-2,3.2E2,-3.2871626E-2,-2.8942844E-2,-4.4853006E-2,-4.137768E-2],"split_indices":[1,1,1,0,0,0,0,0,0,0,0,0,0,0,0],"split_type":[0,0,0,0,0,0,0,0,0,0,0,0,0,0,0],"sum_hessian":[1.953E5,1.93185E5,2.115E3,1.83387E5,9.798E3,1.422E3,6.93E2,1.80582E5,2.805E3,7.723E3,2.075E3,7.24E2,6.98E2,1.399E3,6.76E2],"tree_param":{"num_deleted":"0","num_feature":"3","num_nodes":"15","size_leaf_vector":"0"}},{"base_weights":[-1.1670604E-1,-1.172739E-1,-6.480741E-2,-1.17462635E-1,-1.13729745E-1,-7.229474E-2,-4.9361765E-2,-1.1774926E-1,-1.17183246E-1,-1.1683956E-1,-1.02104515E-1,-7.674579E-2,-6.75747E-2,-1.0468905E-1,-9.660904E-2],"categories":[],"categories_nodes":[],"categories_segments":[],"categories_sizes":[],"default_left":[true,true,true,true,true,true,false,false,false,false,true,false,false,false,false],"id":4,"left_children":[1,3,5,7,9,11,-1,-1,-1,-1,13,-1,-1,-1,-1],"loss_changes":[5.748047E0,1.159668E-1,2.4114037E-1,7.324219E-4,3.423233E-1,2.4709702E-2,0E0,0E0,0E0,0E0,1.9371033E-2,0E0,0E0,0E0,0E0],"parents":[2147483647,0,0,1,1,2,2,3,3,4,4,5,5,10,10],"right_children":[2,4,6,8,10,12,-1,-1,-1,-1,14,-1,-1,-1,-1],"split_conditions":[2.15E1,1.05E1,4.35E1,1.36E2,1.92E2,1.28E2,-1.480853E-2,-3.532478E-2,-3.5154976E-2,-3.5051867E-2,3.2E2,-2.302374E-2,-2.0272411E-2,-3.1406716E-2,-2.8982714E-2],"split_indices":[1,1,1,0,0,0,0,0,0,0,0,0,0,0,0],"split_type":[0,0,0,0,0,0,0,0,0,0,0,0,0,0,0],"sum_hessian":[1.953E5,1.93185E5,2.115E3,1.83387E5,9.798E3,1.422E3,6.93E2,9.0312E4,9.3075E4,7.723E3,2.075E3,7.24E2,6.98E2,1.399E3,6.76E2],"tree_param":{"num_deleted":"0","num_feature":"3","num_nodes":"15","size_leaf_vector":"0"}},{"base_weights":[-8.169538E-2,-8.209258E-2,-4.5392644E-2,-8.222423E-2,-7.962056E-2,-5.0636746E-2,-3.457457E-2,-8.225712E-2,-8.0077864E-2,-8.1792235E-2,-7.150225E-2,-5.375381E-2,-4.73313E-2,-8.234604E-2,-8.152967E-2,-8.298692E-2,-8.033049E-2,-7.330476E-2,-6.766914E-2,-8.194195E-2,-8.065123E-2],"categories":[],"categories_nodes":[],"categories_segments":[],"categories_sizes":[],"default_left":[true,true,true,true,true,true,false,true,false,true,true,false,false,false,true,false,false,false,false,false,false],"id":5,"left_children":[1,3,5,7,9,11,-1,13,-1,15,17,-1,-1,-1,19,-1,-1,-1,-1,-1,-1],"loss_changes":[2.812378E0,5.6274414E-2,1.1829233E-1,6.4697266E-3,1.6690826E-1,1.2117147E-2,0E0,4.8828125E-3,0E0,6.8244934E-3,9.383202E-3,0E0,0E0,0E0,5.493164E-4,0E0,0E0,0E0,0E0,0E0,0E0],"parents":[2147483647,0,0,1,1,2,2,3,3,4,4,5,5,7,7,9,9,10,10,14,14],"right_children":[2,4,6,8,10,12,-1,14,-1,16,18,-1,-1,-1,20,-1,-1,-1,-1,-1,-1],"split_conditions":[2.15E1,1.05E1,4.35E1,2.688E3,1.92E2,1.28E2,-1.03723705E-2,7E0,-2.402336E-2,4.8E1,3.2E2,-1.6126143E-2,-1.419939E-2,-2.4703812E-2,1.36E2,-2.4896078E-2,-2.4099149E-2,-2.1991428E-2,-2.0300742E-2,-2.4582585E-2,-2.4195371E-2],"split_indices":[1,1,1,0,0,0,0,1,0,0,0,0,0,0,0,0,0,0,0,0,0],"split_type":[0,0,0,0,0,0,0,0,0,0,0,0,0,0,0,0,0,0,0,0,0],"sum_hessian":[1.953E5,1.93185E5,2.115E3,1.83387E5,9.798E3,1.422E3,6.93E2,1.80582E5,2.805E3,7.723E3,2.075E3,7.24E2,6.98E2,1.60814E5,1.9768E4,4.219E3,3.504E3,1.399E3,6.76E2,1.3391E4,6.377E3],"tree_param":{"num_deleted":"0","num_feature":"3","num_nodes":"21","size_leaf_vector":"0"}},{"base_weights":[-5.7187937E-2,-5.7465784E-2,-3.179409E-2,-5.7557486E-2,-5.5743705E-2,-3.546704E-2,-2.4217142E-2,-5.758039E-2,-5.6063063E-2,-5.76059E-2,-5.100466E-2,-3.764991E-2,-3.3152234E-2,-5.771102E-2,-5.7323217E-2,-5.8598697E-2,-5.6934003E-2,-5.21446E-2,-4.7398377E-2,-5.787832E-2,-5.7485413E-2,-5.7560507E-2,-5.686842E-2,-5.6758232E-2,-5.758657E-2],"categories":[],"categories_nodes":[],"categories_segments":[],"categories_sizes":[],"default_left":[true,true,true,true,true,true,false,true,false,true,true,false,false,true,true,false,false,false,false,false,true,false,false,false,false],"id":6,"left_children":[1,3,5,7,9,11,-1,13,-1,15,17,-1,-1,19,21,-1,-1,-1,-1,-1,23,-1,-1,-1,-1],"loss_changes":[1.3760986E0,2.734375E-2,5.8028936E-2,3.0517578E-3,8.3538055E-2,5.9421062E-3,0E0,2.746582E-3,0E0,1.3523102E-3,8.927822E-3,0E0,0E0,1.159668E-3,3.3111572E-3,0E0,0E0,0E0,0E0,0E0,4.8828125E-4,0E0,0E0,0E0,0E0],"parents":[2147483647,0,0,1,1,2,2,3,3,4,4,5,5,7,7,9,9,10,10,13,13,14,14,20,20],"right_children":[2,4,6,8,10,12,-1,14,-1,16,18,-1,-1,20,22,-1,-1,-1,-1,-1,24,-1,-1,-1,-1],"split_conditions":[2.15E1,1.05E1,4.35E1,2.688E3,1.12E2,1.28E2,-7.2651426E-3,3.5E0,-1.681892E-2,2.8E1,3.2E2,-1.1294974E-2,-9.94567E-3,3.68E2,1.36E2,-1.757961E-2,-1.70802E-2,-1.564338E-2,-1.4219514E-2,-1.7363496E-2,4E2,-1.7268153E-2,-1.7060526E-2,-1.7027471E-2,-1.7275972E-2],"split_indices":[1,1,1,0,0,0,0,1,0,0,0,0,0,0,0,0,0,0,0,0,0,0,0,0,0],"split_type":[0,0,0,0,0,0,0,0,0,0,0,0,0,0,0,0,0,0,0,0,0,0,0,0,0],"sum_hessian":[1.953E5,1.93185E5,2.115E3,1.83387E5,9.798E3,1.422E3,6.93E2,1.80582E5,2.805E3,7.026E3,2.772E3,7.24E2,6.98E2,1.19605E5,6.0977E4,2.801E3,4.225E3,2.096E3,6.76E2,6.853E4,5.1075E4,3.9988E4,2.0989E4,6.306E3,4.4769E4],"tree_param":{"num_deleted":"0","num_feature":"3","num_nodes":"25","size_leaf_vector":"0"}},{"base_weights":[-4.003256E-2,-4.0226914E-2,-2.2269329E-2,-4.02908E-2,-3.9027177E-2,-2.4841849E-2,-1.696246E-2,-4.0341042E-2,-3.987293E-2,-4.0131465E-2,-3.489975E-2,-2.6370514E-2,-2.3220787E-2,-4.039079E-2,-3.9779272E-2,-4.0465333E-2,-3.9544575E-2,-4.1025363E-2,-3.961454E-2,-3.569683E-2,-3.3199873E-2,-4.0637165E-2,-4.030988E-2,-3.9857842E-2,-3.808472E-2,-4.040797E-2,-4.000925E-2],"categories":[],"categories_nodes":[],"categories_segments":[],"categories_sizes":[],"default_left":[true,true,true,true,true,true,false,true,true,true,true,false,false,true,false,false,false,false,true,false,false,false,true,false,false,false,false],"id":7,"left_children":[1,3,5,7,9,11,-1,13,15,17,19,-1,-1,21,-1,-1,-1,-1,23,-1,-1,-1,25,-1,-1,-1,-1],"loss_changes":[6.7337036E-1,1.3244629E-2,2.8466344E-2,2.2277832E-3,4.3261528E-2,2.9138923E-3,0E0,2.960205E-3,2.2449493E-3,1.9445419E-3,1.6276836E-3,0E0,0E0,1.3427734E-3,0E0,0E0,0E0,0E0,3.142357E-4,0E0,0E0,0E0,1.7242432E-3,0E0,0E0,0E0,0E0],"parents":[2147483647,0,0,1,1,2,2,3,3,4,4,5,5,7,7,8,8,9,9,10,10,13,13,18,18,22,22],"right_children":[2,4,6,8,10,12,-1,14,16,18,20,-1,-1,22,-1,-1,-1,-1,24,-1,-1,-1,26,-1,-1,-1,-1],"split_conditions":[2.15E1,1.05E1,4.35E1,7E0,1.92E2,1.28E2,-5.088738E-3,9.44E2,8E1,2.8E1,3.2E2,-7.911155E-3,-6.9662365E-3,1.5E0,-1.1933782E-2,-1.2139601E-2,-1.1863373E-2,-1.2307609E-2,1.12E2,-1.0709049E-2,-9.959962E-3,-1.219115E-2,3.68E2,-1.1957353E-2,-1.1425416E-2,-1.2122392E-2,-1.2002775E-2],"split_indices":[1,1,1,1,0,0,0,0,0,0,0,0,0,1,0,0,0,0,0,0,0,0,0,0,0,0,0],"split_type":[0,0,0,0,0,0,0,0,0,0,0,0,0,0,0,0,0,0,0,0,0,0,0,0,0,0,0],"sum_hessian":[1.953E5,1.93185E5,2.115E3,1.83387E5,9.798E3,1.422E3,6.93E2,1.63619E5,1.9768E4,7.723E3,2.075E3,7.24E2,6.98E2,1.50243E5,1.3376E4,7.006E3,1.2762E4,2.801E3,4.922E3,1.399E3,6.76E2,3.7019E4,1.13224E5,4.225E3,6.97E2,8.5269E4,2.7955E4],"tree_param":{"num_deleted":"0","num_feature":"3","num_nodes":"27","size_leaf_vector":"0"}},{"base_weights":[-2.802355E-2,-2.8159505E-2,-1.5597962E-2,-2.8203953E-2,-2.7324775E-2,-1.7399747E-2,-1.1881046E-2,-2.8217522E-2,-2.732061E-2,-2.8096646E-2,-2.443978E-2,-1.8470265E-2,-1.6264519E-2,-2.8263748E-2,-2.7943065E-2,-2.8722147E-2,-2.7734924E-2,-2.4995433E-2,-2.3254618E-2,-2.8365504E-2,-2.8171418E-2,-2.8019505E-2,-2.7059136E-2,-2.7903317E-2,-2.6675673E-2,-2.8157752E-2,-2.851431E-2,-2.8232126E-2,-2.7837178E-2,-2.8329853E-2,-2.788964E-2],"categories":[],"categories_nodes":[],"categories_segments":[],"categories_sizes":[],"default_left":[true,true,true,true,true,true,false,true,false,true,true,false,false,true,true,false,true,false,false,true,true,true,false,false,false,false,false,false,false,false,false],"id":8,"left_children":[1,3,5,7,9,11,-1,13,-1,15,17,-1,-1,19,21,-1,23,-1,-1,25,27,29,-1,-1,-1,-1,-1,-1,-1,-1,-1],"loss_changes":[3.2948303E-1,6.4086914E-3,1.3964355E-2,1.4190674E-3,2.1134377E-2,1.428932E-3,0E0,1.4953613E-3,0E0,9.5033646E-4,7.8582764E-4,0E0,0E0,6.4849854E-4,1.0051727E-3,0E0,1.3375282E-4,0E0,0E0,1.461029E-3,8.621216E-4,1.7738342E-4,0E0,0E0,0E0,0E0,0E0,0E0,0E0,0E0,0E0],"parents":[2147483647,0,0,1,1,2,2,3,3,4,4,5,5,7,7,9,9,10,10,13,13,14,14,16,16,19,19,20,20,21,21],"right_children":[2,4,6,8,10,12,-1,14,-1,16,18,-1,-1,20,22,-1,24,-1,-1,26,28,30,-1,-1,-1,-1,-1,-1,-1,-1,-1],"split_conditions":[2.15E1,1.05E1,4.35E1,2.688E3,1.92E2,1.28E2,-3.564314E-3,5E0,-8.1961835E-3,2.8E1,3.2E2,-5.5410797E-3,-4.879356E-3,1.76E2,2.4E2,-8.616644E-3,1.12E2,-7.4986303E-3,-6.9763856E-3,1.12E2,3.5E0,5.6E1,-8.117741E-3,-8.3709955E-3,-8.002702E-3,-8.447326E-3,-8.554294E-3,-8.469638E-3,-8.351154E-3,-8.498956E-3,-8.366892E-3],"split_indices":[1,1,1,0,0,0,0,1,0,0,0,0,0,0,0,0,0,0,0,0,1,0,0,0,0,0,0,0,0,0,0],"split_type":[0,0,0,0,0,0,0,0,0,0,0,0,0,0,0,0,0,0,0,0,0,0,0,0,0,0,0,0,0,0,0],"sum_hessian":[1.953E5,1.93185E5,2.115E3,1.83387E5,9.798E3,1.422E3,6.93E2,1.80582E5,2.805E3,7.723E3,2.075E3,7.24E2,6.98E2,1.54465E5,2.6117E4,2.801E3,4.922E3,1.399E3,6.76E2,7.3335E4,8.113E4,2.401E4,2.107E3,4.225E3,6.97E2,3.0685E4,4.265E4,6.8589E4,1.2541E4,7.019E3,1.6991E4],"tree_param":{"num_deleted":"0","num_feature":"3","num_nodes":"31","size_leaf_vector":"0"}},{"base_weights":[-1.9617101E-2,-1.9712204E-2,-1.0925174E-2,-1.9743131E-2,-1.913137E-2,-1.2187143E-2,-8.321851E-3,-1.9767283E-2,-1.9434718E-2,-1.9670887E-2,-1.7114818E-2,-1.2936821E-2,-1.1392144E-2,-1.9955283E-2,-1.9714803E-2,-1.9334478E-2,-1.99629E-2,-2.0492874E-2,-1.9487265E-2,-1.7502159E-2,-1.6288536E-2,-1.957513E-2,-2.0032324E-2,-1.9799888E-2,-1.9611232E-2,-1.9095156E-2,-1.9516889E-2,-1.958322E-2,-1.8684436E-2,-1.9852066E-2,-1.9658357E-2,-1.9563392E-2,-1.99361E-2,-1.9819463E-2,-1.9127348E-2],"categories":[],"categories_nodes":[],"categories_segments":[],"categories_sizes":[],"default_left":[true,true,true,true,true,true,false,true,true,true,true,false,false,true,true,true,false,false,true,false,false,false,false,true,true,false,true,false,false,false,false,false,false,false,false],"id":9,"left_children":[1,3,5,7,9,11,-1,13,15,17,19,-1,-1,21,23,25,-1,-1,27,-1,-1,-1,-1,29,31,-1,33,-1,-1,-1,-1,-1,-1,-1,-1],"loss_changes":[1.6122437E-1,3.0899048E-3,6.850302E-3,9.841919E-4,1.032424E-2,7.007122E-4,0E0,1.2893677E-3,3.2281876E-4,7.662773E-4,3.7932396E-4,0E0,0E0,6.914139E-4,7.8582764E-4,1.1920929E-4,0E0,0E0,1.21831894E-4,0E0,0E0,0E0,0E0,1.4686584E-4,5.4359436E-4,0E0,3.6978722E-4,0E0,0E0,0E0,0E0,0E0,0E0,0E0,0E0],"parents":[2147483647,0,0,1,1,2,2,3,3,4,4,5,5,7,7,8,8,9,9,10,10,13,13,14,14,15,15,18,18,23,23,24,24,26,26],"right_children":[2,4,6,8,10,12,-1,14,16,18,20,-1,-1,22,24,26,-1,-1,28,-1,-1,-1,-1,30,32,-1,34,-1,-1,-1,-1,-1,-1,-1,-1],"split_conditions":[2.15E1,1.05E1,4.35E1,9.44E2,1.92E2,1.28E2,-2.4965552E-3,1.5E0,1.5E0,2E1,3.2E2,-3.8810465E-3,-3.4176433E-3,1.12E2,1.36E2,9.76E2,-5.9888703E-3,-6.1478624E-3,1.12E2,-5.2506477E-3,-4.886561E-3,-5.8725392E-3,-6.0096974E-3,5E0,5.92E2,-5.728547E-3,2.688E3,-5.8749663E-3,-5.6053307E-3,-5.95562E-3,-5.8975075E-3,-5.869018E-3,-5.98083E-3,-5.945839E-3,-5.738205E-3],"split_indices":[1,1,1,0,0,0,0,1,1,0,0,0,0,0,0,0,0,0,0,0,0,0,0,1,0,0,0,0,0,0,0,0,0,0,0],"split_type":[0,0,0,0,0,0,0,0,0,0,0,0,0,0,0,0,0,0,0,0,0,0,0,0,0,0,0,0,0,0,0,0,0,0,0],"sum_hessian":[1.953E5,1.93185E5,2.115E3,1.83387E5,9.798E3,1.422E3,6.93E2,1.70011E5,1.3376E4,7.723E3,2.075E3,7.24E2,6.98E2,3.7019E4,1.32992E5,1.1274E4,2.102E3,1.39E3,6.333E3,1.399E3,6.76E2,6.281E3,3.0738E4,7.2907E4,6.0085E4,4.922E3,6.352E3,5.636E3,6.97E2,5.3167E4,1.974E4,5.2426E4,7.659E3,3.547E3,2.805E3],"tree_param":{"num_deleted":"0","num_feature":"3","num_nodes":"35","size_leaf_vector":"0"}},{"base_weights":[-1.3732465E-2,-1.3798991E-2,-7.652258E-3,-1.3840835E-2,-1.3566974E-2,-8.536129E-3,-5.8289138E-3,-1.3861646E-2,-1.3606052E-2,-1.373578E-2,-1.2539312E-2,-9.061122E-3,-7.979397E-3,-1.3969017E-2,-1.3826418E-2,-1.3535678E-2,-1.39768785E-2,-1.4034624E-2,-1.3567522E-2,-1.307901E-2,-1.1985256E-2,-1.3703524E-2,-1.4022821E-2,-1.3881158E-2,-1.3658954E-2,-1.3367773E-2,-1.366366E-2,-1.2255263E-2,-1.1409193E-2,-1.3735845E-2,-1.3944299E-2,-1.3546159E-2,-1.3956049E-2,-1.3875299E-2,-1.3391187E-2],"categories":[],"categories_nodes":[],"categories_segments":[],"categories_sizes":[],"default_left":[true,true,true,true,true,true,false,true,true,true,true,false,false,true,true,true,false,false,false,false,true,false,false,true,true,false,true,false,false,false,false,false,false,false,false],"id":10,"left_children":[1,3,5,7,9,11,-1,13,15,17,19,-1,-1,21,23,25,-1,-1,-1,-1,27,-1,-1,29,31,-1,33,-1,-1,-1,-1,-1,-1,-1,-1],"loss_changes":[7.8891754E-2,1.6860962E-3,3.360398E-3,6.1035156E-4,4.957199E-3,3.4361333E-4,0E0,3.7574768E-4,1.5997887E-4,1.086235E-3,1.0940433E-3,0E0,0E0,3.3712387E-4,8.4877014E-4,5.9604645E-5,0E0,0E0,0E0,0E0,1.8307567E-4,0E0,0E0,5.893707E-4,7.481575E-4,0E0,1.8060207E-4,0E0,0E0,0E0,0E0,0E0,0E0,0E0,0E0],"parents":[2147483647,0,0,1,1,2,2,3,3,4,4,5,5,7,7,8,8,9,9,10,10,13,13,14,14,15,15,20,20,23,23,24,24,26,26],"right_children":[2,4,6,8,10,12,-1,14,16,18,20,-1,-1,22,24,26,-1,-1,-1,-1,28,-1,-1,30,32,-1,34,-1,-1,-1,-1,-1,-1,-1,-1],"split_conditions":[2.15E1,7E0,4.35E1,9.44E2,2.4E2,1.28E2,-1.7486742E-3,1.5E0,1.5E0,5.6E1,1.05E1,-2.7183369E-3,-2.3938192E-3,1.12E2,3.68E2,9.76E2,-4.193064E-3,-4.2103874E-3,-4.070257E-3,-3.923703E-3,3.2E2,-4.1110576E-3,-4.2068465E-3,6.8E1,5.92E2,-4.0103323E-3,2.688E3,-3.6765789E-3,-3.422758E-3,-4.1207536E-3,-4.18329E-3,-4.063848E-3,-4.186815E-3,-4.16259E-3,-4.0173563E-3],"split_indices":[1,1,1,0,0,0,0,1,1,0,1,0,0,0,0,0,0,0,0,0,0,0,0,0,0,0,0,0,0,0,0,0,0,0,0],"split_type":[0,0,0,0,0,0,0,0,0,0,0,0,0,0,0,0,0,0,0,0,0,0,0,0,0,0,0,0,0,0,0,0,0,0,0],"sum_hessian":[1.953E5,1.93185E5,2.115E3,1.63619E5,2.9566E4,1.422E3,6.93E2,1.50243E5,1.3376E4,2.5384E4,4.182E3,7.24E2,6.98E2,3.7019E4,1.13224E5,1.1274E4,2.102E3,9.114E3,1.627E4,2.107E3,2.075E3,6.281E3,3.0738E4,8.5269E4,2.7955E4,4.922E3,6.352E3,1.399E3,6.76E2,2.5894E4,5.9375E4,2.0296E4,7.659E3,3.547E3,2.805E3],"tree_param":{"num_deleted":"0","num_feature":"3","num_nodes":"35","size_leaf_vector":"0"}},{"base_weights":[-9.61307E-3,-9.659607E-3,-5.359819E-3,-9.69259E-3,-9.514909E-3,-5.9788805E-3,-4.0827524E-3,-9.70806E-3,-9.52546E-3,-9.61146E-3,-8.7801535E-3,-6.3465275E-3,-5.589005E-3,-9.731576E-3,-9.634232E-3,-9.476055E-3,-9.785809E-3,-9.7703235E-3,-9.523879E-3,-9.157168E-3,-8.393099E-3,-9.606294E-3,-9.761205E-3,-9.675317E-3,-8.994188E-3,-9.358254E-3,-9.565849E-3,-9.532483E-3,-9.8247E-3,-9.55399E-3,-9.331511E-3,-8.5813105E-3,-7.99149E-3,-9.856346E-3,-9.671536E-3,-9.61869E-3,-9.912655E-3,-1.0120422E-2,-9.495055E-3,-1.0142072E-2,-9.76628E-3,-9.693139E-3,-9.499365E-3],"categories":[],"categories_nodes":[],"categories_segments":[],"categories_sizes":[],"default_left":[true,true,true,true,true,true,false,true,true,true,true,false,false,true,true,true,false,true,true,false,true,false,true,true,false,false,true,false,true,true,false,false,false,false,false,false,false,false,false,false,false,false,false],"id":11,"left_children":[1,3,5,7,9,11,-1,13,15,17,19,-1,-1,21,23,25,-1,27,29,-1,31,-1,33,35,-1,-1,37,-1,39,41,-1,-1,-1,-1,-1,-1,-1,-1,-1,-1,-1,-1,-1],"loss_changes":[3.8604736E-2,8.2969666E-4,1.6484633E-3,3.1375885E-4,2.4635792E-3,1.684986E-4,0E0,1.5735626E-4,7.939339E-5,3.4880638E-4,5.33551E-4,0E0,0E0,3.1089783E-4,8.2969666E-4,2.9802322E-5,0E0,5.1617622E-5,2.9563904E-5,0E0,8.8348985E-5,0E0,6.570816E-4,3.4451485E-4,0E0,0E0,1.5330315E-4,0E0,6.991625E-5,4.220009E-5,0E0,0E0,0E0,0E0,0E0,0E0,0E0,0E0,0E0,0E0,0E0,0E0,0E0],"parents":[2147483647,0,0,1,1,2,2,3,3,4,4,5,5,7,7,8,8,9,9,10,10,13,13,14,14,15,15,17,17,18,18,20,20,22,22,23,23,26,26,28,28,29,29],"right_children":[2,4,6,8,10,12,-1,14,16,18,20,-1,-1,22,24,26,-1,28,30,-1,32,-1,34,36,-1,-1,38,-1,40,42,-1,-1,-1,-1,-1,-1,-1,-1,-1,-1,-1,-1,-1],"split_conditions":[2.15E1,5E0,4.35E1,9.44E2,2.4E2,1.28E2,-1.2248257E-3,3.5E0,1.5E0,5.6E1,1.05E1,-1.9039583E-3,-1.6767016E-3,1.12E2,4.96E2,9.76E2,-2.9357427E-3,7E0,1.45E1,-2.7471504E-3,3.2E2,-2.8818883E-3,2.72E2,2.08E2,-2.6982566E-3,-2.8074763E-3,9.96E2,-2.8597452E-3,2E1,8E1,-2.7994534E-3,-2.5743933E-3,-2.3974471E-3,-2.956904E-3,-2.901461E-3,-2.885607E-3,-2.9737966E-3,-3.0361267E-3,-2.8485167E-3,-3.0426218E-3,-2.929884E-3,-2.9079418E-3,-2.8498098E-3],"split_indices":[1,1,1,0,0,0,0,1,1,0,1,0,0,0,0,0,0,1,1,0,0,0,0,0,0,0,0,0,0,0,0,0,0,0,0,0,0,0,0,0,0,0,0],"split_type":[0,0,0,0,0,0,0,0,0,0,0,0,0,0,0,0,0,0,0,0,0,0,0,0,0,0,0,0,0,0,0,0,0,0,0,0,0,0,0,0,0,0,0],"sum_hessian":[1.953E5,1.93185E5,2.115E3,1.5727E5,3.5915E4,1.422E3,6.93E2,1.43894E5,1.3376E4,3.1733E4,4.182E3,7.24E2,6.98E2,1.09034E5,3.486E4,1.1274E4,2.102E3,1.1238E4,2.0495E4,2.107E3,2.075E3,2.0917E4,8.8117E4,3.2744E4,2.116E3,4.922E3,6.352E3,2.124E3,9.114E3,1.7679E4,2.816E3,1.399E3,6.76E2,4.2701E4,4.5416E4,2.647E4,6.274E3,7.03E2,5.649E3,1.39E3,7.724E3,4.934E3,1.2745E4],"tree_param":{"num_deleted":"0","num_feature":"3","num_nodes":"43","size_leaf_vector":"0"}},{"base_weights":[-6.72945E-3,-6.7620045E-3,-3.7541469E-3,-6.773269E-3,-6.550504E-3,-4.187735E-3,-2.8596947E-3,-6.806908E-3,-6.740555E-3,-6.7795548E-3,-5.967709E-3,-4.4452026E-3,-3.9146994E-3,-6.6514486E-3,-6.8228943E-3,-6.782424E-3,-6.596442E-3,-7.1016382E-3,-6.6988743E-3,-6.084355E-3,-5.597583E-3,-6.839414E-3,-6.7589264E-3,-6.9932183E-3,-6.7546316E-3,-6.4746626E-3,-6.7021083E-3,-6.6062314E-3,-6.977984E-3,-6.816668E-3,-6.9171116E-3,-6.8584653E-3,-6.6417768E-3,-6.820711E-3,-7.1643004E-3,-6.8117725E-3,-6.7006648E-3,-6.6324784E-3,-6.3126455E-3,-6.795629E-3,-6.2972065E-3,-6.69538E-3,-6.4241667E-3],"categories":[],"categories_nodes":[],"categories_segments":[],"categories_sizes":[],"default_left":[true,true,true,true,true,true,false,true,true,true,true,false,false,false,true,true,true,false,true,false,false,true,true,true,true,true,true,true,false,false,false,false,false,false,false,false,false,false,false,false,false,false,false],"id":12,"left_children":[1,3,5,7,9,11,-1,13,15,17,19,-1,-1,-1,21,23,25,-1,27,-1,-1,29,31,33,35,37,39,41,-1,-1,-1,-1,-1,-1,-1,-1,-1,-1,-1,-1,-1,-1,-1],"loss_changes":[1.8891335E-2,4.15802E-4,8.0865994E-4,1.5640259E-4,1.267612E-3,8.263253E-5,0E0,1.7929077E-4,5.168915E-4,1.3503432E-4,8.5659325E-5,0E0,0E0,0E0,4.029274E-5,3.7503242E-4,2.2667646E-4,0E0,9.9658966E-5,0E0,0E0,6.771088E-5,1.513362E-4,1.9812584E-4,1.5091896E-4,2.0819902E-4,3.8170815E-4,2.5987625E-5,0E0,0E0,0E0,0E0,0E0,0E0,0E0,0E0,0E0,0E0,0E0,0E0,0E0,0E0,0E0],"parents":[2147483647,0,0,1,1,2,2,3,3,4,4,5,5,7,7,8,8,9,9,10,10,14,14,15,15,16,16,18,18,21,21,22,22,23,23,24,24,25,25,26,26,27,27],"right_children":[2,4,6,8,10,12,-1,14,16,18,20,-1,-1,-1,22,24,26,-1,28,-1,-1,30,32,34,36,38,40,42,-1,-1,-1,-1,-1,-1,-1,-1,-1,-1,-1,-1,-1,-1,-1],"split_conditions":[2.15E1,1.05E1,4.35E1,1.36E2,1.12E2,1.28E2,-8.5790845E-4,2.8E1,3.5E0,2E1,3.2E2,-1.3335608E-3,-1.1744099E-3,-1.9954348E-3,5E0,2.48E2,2.08E2,-2.1304917E-3,8E1,-1.8253066E-3,-1.679275E-3,3.5E0,8E1,2.16E2,1.5E0,1.76E2,4.96E2,4.8E1,-2.0933955E-3,-2.0450004E-3,-2.0751336E-3,-2.0575398E-3,-1.9925332E-3,-2.0462133E-3,-2.1492902E-3,-2.0435317E-3,-2.0101995E-3,-1.9897437E-3,-1.8937937E-3,-2.0386889E-3,-1.889162E-3,-2.0086141E-3,-1.9272501E-3],"split_indices":[1,1,1,0,0,0,0,0,1,0,0,0,0,0,1,0,0,0,0,0,0,1,0,0,1,0,0,0,0,0,0,0,0,0,0,0,0,0,0,0,0,0,0],"split_type":[0,0,0,0,0,0,0,0,0,0,0,0,0,0,0,0,0,0,0,0,0,0,0,0,0,0,0,0,0,0,0,0,0,0,0,0,0,0,0,0,0,0,0],"sum_hessian":[1.953E5,1.93185E5,2.115E3,1.83387E5,9.798E3,1.422E3,6.93E2,9.0312E4,9.3075E4,7.026E3,2.772E3,7.24E2,6.98E2,8.46E3,8.1852E4,7.2086E4,2.0989E4,1.39E3,5.636E3,2.096E3,6.76E2,6.4968E4,1.6884E4,8.368E3,6.3718E4,9.78E3,1.1209E4,4.25E3,1.386E3,5.0324E4,1.4644E4,9.097E3,7.787E3,4.187E3,4.181E3,3.0888E4,3.283E4,4.934E3,4.846E3,9.093E3,2.116E3,2.829E3,1.421E3],"tree_param":{"num_deleted":"0","num_feature":"3","num_nodes":"43","size_leaf_vector":"0"}},{"base_weights":[-4.710826E-3,-4.7335993E-3,-2.6294906E-3,-4.7507854E-3,-4.658212E-3,-2.9331762E-3,-2.0030148E-3,-4.7619296E-3,-4.6305493E-3,-4.713297E-3,-4.2392E-3,-3.1134773E-3,-2.7419722E-3,-4.7476077E-3,-4.882164E-3,-4.5906585E-3,-4.842218E-3,-4.8017297E-3,-4.6645743E-3,-4.2994577E-3,-3.920792E-3,-4.7679166E-3,-4.6297233E-3,-4.9054665E-3,-4.7753784E-3,-4.5082318E-3,-4.653809E-3,-4.753741E-3,-4.9084704E-3,-4.6352083E-3,-4.9170633E-3,-4.373599E-3,-4.184751E-3,-4.751976E-3,-5.1663304E-3,-4.83119E-3,-4.4111544E-3,-4.620835E-3,-4.9273637E-3,-4.786038E-3,-4.4849566E-3,-4.658867E-3,-4.7885147E-3,-4.6711587E-3,-4.3621184E-3,-5.0680363E-3,-4.612245E-3],"categories":[],"categories_nodes":[],"categories_segments":[],"categories_sizes":[],"default_left":[true,true,true,true,true,true,false,true,true,true,true,false,false,true,true,true,false,true,true,true,false,true,true,false,true,false,true,true,false,true,true,false,false,false,false,false,false,false,false,false,false,false,false,false,false,false,false],"id":13,"left_children":[1,3,5,7,9,11,-1,13,15,17,19,-1,-1,21,23,25,-1,27,29,31,-1,33,35,-1,37,-1,39,41,-1,43,45,-1,-1,-1,-1,-1,-1,-1,-1,-1,-1,-1,-1,-1,-1,-1,-1],"loss_changes":[9.243965E-3,2.28405E-4,3.9669685E-4,1.885891E-4,8.0901384E-4,4.0519983E-5,0E0,2.245903E-4,9.071827E-5,1.1432171E-4,6.339699E-5,0E0,0E0,2.8586388E-4,1.463294E-5,3.771484E-5,0E0,3.424287E-5,1.2919307E-4,1.1526048E-5,0E0,6.72102E-4,8.125305E-4,0E0,4.2408705E-5,0E0,1.2038648E-4,3.3676624E-6,0E0,1.6006827E-4,7.414073E-5,0E0,0E0,0E0,0E0,0E0,0E0,0E0,0E0,0E0,0E0,0E0,0E0,0E0,0E0,0E0,0E0],"parents":[2147483647,0,0,1,1,2,2,3,3,4,4,5,5,7,7,8,8,9,9,10,10,13,13,14,14,15,15,17,17,18,18,19,19,21,21,22,22,24,24,26,26,27,27,29,29,30,30],"right_children":[2,4,6,8,10,12,-1,14,16,18,20,-1,-1,22,24,26,-1,28,30,32,-1,34,36,-1,38,-1,40,42,-1,44,46,-1,-1,-1,-1,-1,-1,-1,-1,-1,-1,-1,-1,-1,-1,-1,-1],"split_conditions":[2.15E1,5E0,4.35E1,9.44E2,2.4E2,1.28E2,-6.0090446E-4,5.92E2,1.5E0,5.6E1,3.2E2,-9.340432E-4,-8.225917E-4,4.96E2,8.8E2,9.76E2,-1.4526654E-3,4E1,1.52E2,1.05E1,-1.1762377E-3,4E2,1.5E0,-1.47164E-3,9.12E2,-1.3524696E-3,2.688E3,7E0,-1.4725412E-3,1.36E2,2.08E2,-1.3120797E-3,-1.2554253E-3,-1.4255929E-3,-1.5498992E-3,-1.4493571E-3,-1.3233464E-3,-1.3862506E-3,-1.4782092E-3,-1.4358114E-3,-1.3454871E-3,-1.3976602E-3,-1.4365545E-3,-1.4013477E-3,-1.3086356E-3,-1.520411E-3,-1.3836736E-3],"split_indices":[1,1,1,0,0,0,0,0,1,0,0,0,0,0,0,0,0,0,0,1,0,0,1,0,0,0,0,1,0,0,0,0,0,0,0,0,0,0,0,0,0,0,0,0,0,0,0],"split_type":[0,0,0,0,0,0,0,0,0,0,0,0,0,0,0,0,0,0,0,0,0,0,0,0,0,0,0,0,0,0,0,0,0,0,0,0,0,0,0,0,0,0,0,0,0,0,0],"sum_hessian":[1.953E5,1.93185E5,2.115E3,1.5727E5,3.5915E4,1.422E3,6.93E2,1.43894E5,1.3376E4,3.1733E4,4.182E3,7.24E2,6.98E2,1.28614E5,1.528E4,1.1274E4,2.102E3,1.1238E4,2.0495E4,3.506E3,6.76E2,1.09679E5,1.8935E4,1.2506E4,2.774E3,4.922E3,6.352E3,7.784E3,3.454E3,1.8377E4,2.118E3,2.107E3,1.399E3,1.05472E5,4.207E3,9.842E3,9.093E3,1.391E3,1.383E3,3.547E3,2.805E3,2.124E3,5.66E3,1.6225E4,2.152E3,1.406E3,7.12E2],"tree_param":{"num_deleted":"0","num_feature":"3","num_nodes":"47","size_leaf_vector":"0"}},{"base_weights":[-3.2977406E-3,-3.313671E-3,-1.8417583E-3,-3.3330417E-3,-3.2801218E-3,-2.054457E-3,-1.40298E-3,-3.254117E-3,-3.3492753E-3,-3.3223298E-3,-3.157384E-3,-2.1807163E-3,-1.9205624E-3,-3.4215662E-3,-3.2967126E-3,-3.3612393E-3,-3.2935836E-3,-2.9803475E-3,-3.2217377E-3,-3.4038916E-3,-3.4863828E-3,-3.1417243E-3,-3.3331923E-3,-3.2057688E-3,-3.4131687E-3,-3.361594E-3,-3.2533687E-3,-2.8717401E-3,-3.6239643E-3,-3.3465475E-3,-3.007131E-3,-3.4201797E-3,-3.262681E-3,-3.5902716E-3,-3.3974953E-3,-3.327194E-3,-2.9967497E-3,-3.8792794E-3,-3.3079016E-3,-3.6417025E-3,-3.3370648E-3,-3.3279827E-3,-3.4363556E-3,-3.244793E-3,-3.4701538E-3,-3.4582925E-3,-3.1231393E-3,-3.1057985E-3,-2.8716542E-3],"categories":[],"categories_nodes":[],"categories_segments":[],"categories_sizes":[],"default_left":[true,true,true,true,true,true,false,false,true,true,true,false,false,true,true,true,true,true,true,true,true,true,true,false,true,true,true,false,false,true,true,false,false,false,false,false,false,false,false,false,false,false,false,false,false,false,false,false,false],"id":14,"left_children":[1,3,5,7,9,11,-1,-1,13,15,17,-1,-1,19,21,23,25,27,29,31,33,35,37,-1,39,41,43,-1,-1,45,47,-1,-1,-1,-1,-1,-1,-1,-1,-1,-1,-1,-1,-1,-1,-1,-1,-1,-1],"loss_changes":[4.523754E-3,1.1467934E-4,1.9459892E-4,1.4603138E-4,3.5613775E-4,1.986837E-5,0E0,0E0,3.7431717E-4,4.786253E-5,1.9697845E-4,0E0,0E0,3.7044287E-5,3.219247E-4,1.6927719E-4,7.203221E-5,3.284067E-4,3.4576654E-4,6.613135E-5,7.190555E-5,2.9169023E-4,6.44207E-4,0E0,2.785772E-4,1.680851E-5,2.4229288E-5,0E0,0E0,1.9867718E-4,5.6512654E-5,0E0,0E0,0E0,0E0,0E0,0E0,0E0,0E0,0E0,0E0,0E0,0E0,0E0,0E0,0E0,0E0,0E0,0E0],"parents":[2147483647,0,0,1,1,2,2,3,3,4,4,5,5,8,8,9,9,10,10,13,13,14,14,15,15,16,16,17,17,18,18,19,19,20,20,21,21,22,22,24,24,25,25,26,26,29,29,30,30],"right_children":[2,4,6,8,10,12,-1,-1,14,16,18,-1,-1,20,22,24,26,28,30,32,34,36,38,-1,40,42,44,-1,-1,46,48,-1,-1,-1,-1,-1,-1,-1,-1,-1,-1,-1,-1,-1,-1,-1,-1,-1,-1],"split_conditions":[2.15E1,3.5E0,4.35E1,1.12E2,1.76E2,1.28E2,-4.20894E-4,-9.7623514E-4,2.72E2,5E0,2.08E2,-6.542149E-4,-5.761687E-4,2.16E2,4E2,3.6E1,5.6E1,6E0,6E0,1.68E2,2.48E2,3.68E2,4.96E2,-9.6173066E-4,1E2,4E1,1.52E2,-8.615221E-4,-1.0871893E-3,4.64E2,1.05E1,-1.0260539E-3,-9.788043E-4,-1.0770815E-3,-1.0192486E-3,-9.981582E-4,-8.9902495E-4,-1.1637838E-3,-9.923705E-4,-1.0925108E-3,-1.0011195E-3,-9.983949E-4,-1.0309067E-3,-9.73438E-4,-1.0410462E-3,-1.0374878E-3,-9.369418E-4,-9.317396E-4,-8.614963E-4],"split_indices":[1,1,1,0,0,0,0,0,0,1,0,0,0,0,0,0,0,1,1,0,0,0,0,0,0,0,0,0,0,0,1,0,0,0,0,0,0,0,0,0,0,0,0,0,0,0,0,0,0],"split_type":[0,0,0,0,0,0,0,0,0,0,0,0,0,0,0,0,0,0,0,0,0,0,0,0,0,0,0,0,0,0,0,0,0,0,0,0,0,0,0,0,0,0,0,0,0,0,0,0,0],"sum_hessian":[1.953E5,1.93185E5,2.115E3,1.2241E5,7.0775E4,1.422E3,6.93E2,2.0917E4,1.01493E5,5.2645E4,1.813E4,7.24E2,6.98E2,4.2701E4,5.8792E4,2.2319E4,3.0326E4,4.846E3,1.3284E4,3.3594E4,9.107E3,1.1218E4,4.7574E4,5.604E3,1.6715E4,1.1238E4,1.9088E4,4.151E3,6.95E2,8.39E3,4.894E3,3.0099E4,3.495E3,4.181E3,4.926E3,4.912E3,6.306E3,2.099E3,4.5475E4,4.164E3,1.2551E4,7.784E3,3.454E3,1.8377E4,7.11E2,5.583E3,2.807E3,2.819E3,2.075E3],"tree_param":{"num_deleted":"0","num_feature":"3","num_nodes":"49","size_leaf_vector":"0"}},{"base_weights":[-2.3085389E-3,-2.319683E-3,-1.2900054E-3,-2.3222025E-3,-2.1479316E-3,-1.4389798E-3,-9.826848E-4,-2.3375305E-3,-2.2962664E-3,-1.5273979E-3,-1.3452142E-3,-2.277928E-3,-2.3501401E-3,-2.3324597E-3,-2.2212975E-3,-2.2923646E-3,-2.243944E-3,-2.3951922E-3,-2.315737E-3,-2.2940952E-3,-2.3473566E-3,-2.2420334E-3,-2.0105734E-3,-2.2567585E-3,-2.1359066E-3,-2.382784E-3,-2.4406977E-3,-2.199376E-3,-2.3448444E-3,-2.249925E-3,-2.3539958E-3,-2.402395E-3,-2.3094492E-3,-2.1746152E-3,-2.300657E-3,-2.0693445E-3,-1.8860681E-3],"categories":[],"categories_nodes":[],"categories_segments":[],"categories_sizes":[],"default_left":[true,true,true,true,false,true,false,true,true,false,false,true,true,true,true,false,true,true,true,true,true,true,true,false,false,false,false,false,false,false,false,false,false,false,false,false,false],"id":15,"left_children":[1,3,5,7,-1,9,-1,11,13,-1,-1,15,17,19,21,-1,23,25,27,29,31,33,35,-1,-1,-1,-1,-1,-1,-1,-1,-1,-1,-1,-1,-1,-1],"loss_changes":[2.2138357E-3,7.855892E-5,9.546243E-5,7.033348E-5,0E0,9.742798E-6,0E0,8.4519386E-5,1.8689036E-4,0E0,0E0,5.118549E-6,1.4746189E-4,2.1874905E-5,9.62764E-5,1.1175871E-7,3.8817525E-6,1.8283725E-5,1.8447638E-4,3.0122697E-5,6.605685E-5,7.7947974E-5,1.128763E-5,0E0,0E0,0E0,0E0,0E0,0E0,0E0,0E0,0E0,0E0,0E0,0E0,0E0,0E0],"parents":[2147483647,0,0,1,1,2,2,3,3,5,5,7,7,8,8,11,11,12,12,13,13,14,14,16,16,17,17,18,18,19,19,20,20,21,21,22,22],"right_children":[2,4,6,8,-1,10,-1,12,14,-1,-1,16,18,20,22,-1,24,26,28,30,32,34,36,-1,-1,-1,-1,-1,-1,-1,-1,-1,-1,-1,-1,-1,-1],"split_conditions":[2.15E1,2.688E3,4.35E1,3.5E0,-6.443795E-4,1.28E2,-2.9480545E-4,1.12E2,1.36E2,-4.5821938E-4,-4.0356428E-4,8E1,2.72E2,4E1,1.05E1,-6.877094E-4,1.5E0,2.16E2,4E2,7E0,8.4E1,2.08E2,3.2E2,-6.7702756E-4,-6.40772E-4,-7.148352E-4,-7.3220936E-4,-6.598128E-4,-7.034533E-4,-6.749775E-4,-7.0619874E-4,-7.207185E-4,-6.928348E-4,-6.523846E-4,-6.9019716E-4,-6.208034E-4,-5.658205E-4],"split_indices":[1,0,1,1,0,0,0,0,0,0,0,0,0,0,1,0,1,0,0,1,0,0,0,0,0,0,0,0,0,0,0,0,0,0,0,0,0],"split_type":[0,0,0,0,0,0,0,0,0,0,0,0,0,0,0,0,0,0,0,0,0,0,0,0,0,0,0,0,0,0,0,0,0,0,0,0,0],"sum_hessian":[1.953E5,1.93185E5,2.115E3,1.9038E5,2.805E3,1.422E3,6.93E2,1.19605E5,7.0775E4,7.24E2,6.98E2,2.0917E4,9.8688E4,4.7711E4,2.3064E4,1.4634E4,6.283E3,4.2701E4,5.5987E4,1.3388E4,3.4323E4,2.0989E4,2.075E3,5.599E3,6.84E2,3.3594E4,9.107E3,1.1218E4,4.4769E4,7.728E3,5.66E3,1.3973E4,2.035E4,9.78E3,1.1209E4,1.399E3,6.76E2],"tree_param":{"num_deleted":"0","num_feature":"3","num_nodes":"37","size_leaf_vector":"0"}},{"base_weights":[-1.6160384E-3,-1.623834E-3,-9.035479E-4,-1.6286861E-3,-1.558492E-3,-1.0078874E-3,-6.88305E-4,-1.6200016E-3,-1.7220858E-3,-1.4873985E-3,-1.6096818E-3,-1.0698044E-3,-9.4222545E-4,-1.6276834E-3,-1.5149926E-3,-1.7696418E-3,-1.6950872E-3,-1.4605579E-3,-1.6764713E-3,-1.7204253E-3,-1.5172553E-3,-1.6251742E-3,-1.89956E-3,-1.7385697E-3,-1.1386389E-3,-1.719781E-3,-1.8190766E-3,-1.7594643E-3,-1.6310202E-3,-1.8144567E-3,-1.6564315E-3,-1.6357693E-3,-1.5909122E-3,-1.5871539E-3,-2.2079134E-3,-1.822076E-3,-1.684637E-3,-1.7288772E-3,-1.940019E-3,-1.6823666E-3,-1.4974839E-3,-1.9207913E-3,-1.70707E-3],"categories":[],"categories_nodes":[],"categories_segments":[],"categories_sizes":[],"default_left":[true,true,true,true,true,true,false,true,true,true,true,false,false,true,true,true,true,false,false,true,false,true,true,false,false,true,false,true,true,true,false,false,false,false,false,false,false,false,false,false,false,false,false],"id":16,"left_children":[1,3,5,7,9,11,-1,13,15,17,19,-1,-1,21,23,25,27,-1,-1,29,-1,31,33,-1,-1,35,-1,37,39,41,-1,-1,-1,-1,-1,-1,-1,-1,-1,-1,-1,-1,-1],"loss_changes":[1.0833144E-3,5.865097E-5,4.6828063E-5,1.4308095E-4,4.6290457E-5,4.7773356E-6,0E0,1.3026595E-4,1.661852E-5,2.6036054E-5,7.686764E-5,0E0,0E0,1.0147691E-4,9.429585E-4,1.0455027E-5,3.7429854E-5,0E0,0E0,1.8205494E-5,0E0,5.2541494E-5,1.3097422E-4,0E0,0E0,6.860122E-6,0E0,2.349168E-5,3.115367E-5,1.2902077E-5,0E0,0E0,0E0,0E0,0E0,0E0,0E0,0E0,0E0,0E0,0E0,0E0,0E0],"parents":[2147483647,0,0,1,1,2,2,3,3,4,4,5,5,7,7,8,8,9,9,10,10,13,13,14,14,15,15,16,16,19,19,21,21,22,22,25,25,27,27,28,28,29,29],"right_children":[2,4,6,8,10,12,-1,14,16,18,20,-1,-1,22,24,26,28,-1,-1,30,-1,32,34,-1,-1,36,-1,38,40,42,-1,-1,-1,-1,-1,-1,-1,-1,-1,-1,-1,-1,-1],"split_conditions":[2.15E1,9.44E2,4.35E1,5.92E2,9.76E2,1.28E2,-2.0649152E-4,5.6E2,7.2E2,1.5E0,1.152E3,-3.2094133E-4,-2.8266764E-4,5.28E2,1.5E0,1.5E0,1.5E0,-4.381674E-4,-5.0294143E-4,9.96E2,-4.551766E-4,5E0,1.5E0,-5.215709E-4,-3.415917E-4,6.24E2,-5.45723E-4,9.12E2,8.8E2,1.5E0,-4.9692945E-4,-4.907308E-4,-4.772737E-4,-4.7614618E-4,-6.623741E-4,-5.4662285E-4,-5.0539116E-4,-5.186632E-4,-5.820057E-4,-5.0471E-4,-4.4924518E-4,-5.7623745E-4,-5.12121E-4],"split_indices":[1,0,1,0,0,0,0,0,0,1,0,0,0,0,1,1,1,0,0,0,0,1,1,0,0,0,0,0,0,1,0,0,0,0,0,0,0,0,0,0,0,0,0],"split_type":[0,0,0,0,0,0,0,0,0,0,0,0,0,0,0,0,0,0,0,0,0,0,0,0,0,0,0,0,0,0,0,0,0,0,0,0,0,0,0,0,0,0,0],"sum_hessian":[1.953E5,1.93185E5,2.115E3,1.79809E5,1.3376E4,1.422E3,6.93E2,1.64529E5,1.528E4,5.612E3,7.764E3,7.24E2,6.98E2,1.533E5,1.1229E4,5.51E3,9.77E3,4.922E3,6.9E2,3.524E3,4.24E3,1.51905E5,1.395E3,7.042E3,4.187E3,2.761E3,2.749E3,4.86E3,4.91E3,1.416E3,2.108E3,1.1599E5,3.5915E4,6.96E2,6.99E2,6.93E2,2.068E3,4.165E3,6.95E2,3.538E3,1.372E3,7.03E2,7.13E2],"tree_param":{"num_deleted":"0","num_feature":"3","num_nodes":"43","size_leaf_vector":"0"}},{"base_weights":[-1.1312802E-3,-1.1367336E-3,-6.3286227E-4,-1.1507006E-3,-1.1205482E-3,-7.0594175E-4,-4.8210574E-4,-1.1484036E-3,-1.3169453E-3,-1.0016478E-3,-1.1327519E-3,-7.493059E-4,-6.599548E-4,-1.1320742E-3,-1.1646716E-3,-1.368391E-4,-1.0778902E-3,-1.1428504E-3,-9.751331E-4,-1.1457311E-3,-1.068736E-3,-1.2017912E-3,-1.117249E-3,-1.3047238E-3,-9.456952E-4,-1.2113202E-3,-1.122456E-3,-1.1342453E-3,-9.4777904E-4,-1.1302301E-3,-1.3644932E-3,-1.0189735E-3,-1.3437581E-3,-1.192993E-3,-1.5556567E-3,-9.1806246E-4,-1.1304179E-3,-8.6758554E-4,-1.4103008E-3,-1.186709E-3,-1.3406189E-3,-9.860995E-4,-1.1408533E-3,-9.674436E-4,-8.445127E-4],"categories":[],"categories_nodes":[],"categories_segments":[],"categories_sizes":[],"default_left":[true,true,true,true,true,true,false,true,false,true,true,false,false,true,true,false,true,true,true,true,true,true,true,false,true,true,true,false,true,false,false,false,false,false,false,false,false,false,false,false,false,false,false,false,false],"id":17,"left_children":[1,3,5,7,9,11,-1,13,-1,15,17,-1,-1,19,21,-1,23,25,27,29,31,33,35,-1,37,39,41,-1,43,-1,-1,-1,-1,-1,-1,-1,-1,-1,-1,-1,-1,-1,-1,-1,-1],"loss_changes":[5.301386E-4,4.2364E-5,2.297206E-5,3.8072467E-5,1.2876838E-4,2.3432076E-6,0E0,2.5838614E-5,0E0,5.498836E-4,1.2810528E-4,0E0,0E0,4.2952597E-5,8.876622E-5,0E0,2.2864062E-4,1.05172396E-4,2.0229723E-5,1.4086813E-4,1.2280233E-4,8.749962E-5,5.795434E-5,0E0,1.7467467E-4,5.4085627E-5,1.4636666E-4,0E0,7.677358E-6,0E0,0E0,0E0,0E0,0E0,0E0,0E0,0E0,0E0,0E0,0E0,0E0,0E0,0E0,0E0,0E0],"parents":[2147483647,0,0,1,1,2,2,3,3,4,4,5,5,7,7,9,9,10,10,13,13,14,14,16,16,17,17,18,18,19,19,20,20,21,21,22,22,24,24,25,25,26,26,28,28],"right_children":[2,4,6,8,10,12,-1,14,-1,16,18,-1,-1,20,22,-1,24,26,28,30,32,34,36,-1,38,40,42,-1,44,-1,-1,-1,-1,-1,-1,-1,-1,-1,-1,-1,-1,-1,-1,-1,-1],"split_conditions":[2.15E1,1.76E2,4.35E1,1.52E2,2.08E2,1.28E2,-1.4463173E-4,1.12E2,-3.950836E-4,2.5E0,6E0,-2.2479177E-4,-1.9798645E-4,8.4E1,2.5E0,-4.105173E-5,3.5E0,3.68E2,2.4E2,6.8E1,1.05E1,1.36E2,3.5E0,-3.9141715E-4,6E0,3.04E2,4E2,-3.402736E-4,3.2E2,-3.3906905E-4,-4.0934797E-4,-3.0569208E-4,-4.0312743E-4,-3.5789792E-4,-4.66697E-4,-2.7541874E-4,-3.391254E-4,-2.6027567E-4,-4.2309027E-4,-3.5601272E-4,-4.021857E-4,-2.9582984E-4,-3.4225598E-4,-2.902331E-4,-2.5335382E-4],"split_indices":[1,0,1,0,0,0,0,0,0,1,1,0,0,0,1,0,1,0,0,0,1,0,1,0,1,0,0,0,0,0,0,0,0,0,0,0,0,0,0,0,0,0,0,0,0],"split_type":[0,0,0,0,0,0,0,0,0,0,0,0,0,0,0,0,0,0,0,0,0,0,0,0,0,0,0,0,0,0,0,0,0,0,0,0,0,0,0,0,0,0,0,0,0],"sum_hessian":[1.953E5,1.93185E5,2.115E3,1.03661E5,8.9524E4,1.422E3,6.93E2,1.02256E5,1.405E3,8.341E3,8.1183E4,7.24E2,6.98E2,5.1067E4,5.1189E4,6.76E2,7.665E3,7.6289E4,4.894E3,4.1995E4,9.072E3,2.87E4,2.2489E4,2.819E3,4.846E3,1.7495E4,5.8794E4,7.12E2,4.182E3,3.9222E4,2.773E3,7.686E3,1.386E3,2.8008E4,6.92E2,1.399E3,2.109E4,4.151E3,6.95E2,1.4706E4,2.789E3,6.996E3,5.1798E4,3.506E3,6.76E2],"tree_param":{"num_deleted":"0","num_feature":"3","num_nodes":"45","size_leaf_vector":"0"}},{"base_weights":[-7.9193304E-4,-7.957479E-4,-4.4326606E-4,-7.9922605E-4,-7.4893655E-4,-4.944491E-4,-3.3768E-4,-7.932549E-4,-8.63465E-4,-7.301475E-4,-8.4931566E-4,-5.2481703E-4,-4.6224426E-4,-8.007404E-4,-7.356587E-4,-8.7605015E-4,-8.0643233E-4,-6.802923E-4,-7.686659E-4,-7.946961E-4,-1.0036362E-3,-8.32394E-4,-6.308752E-4,-8.968445E-4,-8.595469E-4,-9.035952E-4,-7.065591E-4,-1.0036024E-3,-7.392564E-4,-8.01175E-4,-6.8168616E-4,-1.1803416E-3,-8.272089E-4,-7.2530407E-4,-8.748655E-4,-7.808905E-4,-4.549544E-4,-8.620947E-4,-9.314197E-4,-8.8375853E-4,-8.356397E-4,-7.907529E-4,-1.0170847E-3,-6.352231E-4,-7.764555E-4,-7.9661806E-4,-7.2001107E-4],"categories":[],"categories_nodes":[],"categories_segments":[],"categories_sizes":[],"default_left":[true,true,true,true,true,true,false,true,true,true,false,false,false,true,true,true,true,false,true,true,true,true,true,true,true,true,true,false,true,false,false,false,false,false,false,false,false,false,false,false,false,false,false,false,false,false,false],"id":18,"left_children":[1,3,5,7,9,11,-1,13,15,17,-1,-1,-1,19,21,23,25,-1,27,29,31,33,35,37,39,41,43,-1,45,-1,-1,-1,-1,-1,-1,-1,-1,-1,-1,-1,-1,-1,-1,-1,-1,-1,-1],"loss_changes":[2.5942922E-4,3.0860305E-5,1.1268334E-5,6.828457E-5,2.4608802E-5,1.1491065E-6,0E0,7.034093E-5,1.0261312E-5,2.1129381E-5,0E0,0E0,0E0,1.7775595E-4,1.9141473E-4,3.5213307E-6,2.6290072E-5,0E0,4.3153297E-5,1.02974474E-4,1.30211E-4,4.4133514E-5,2.396428E-4,5.818438E-6,3.3113174E-6,1.7163227E-5,6.352726E-6,0E0,5.6636054E-6,0E0,0E0,0E0,0E0,0E0,0E0,0E0,0E0,0E0,0E0,0E0,0E0,0E0,0E0,0E0,0E0,0E0,0E0],"parents":[2147483647,0,0,1,1,2,2,3,3,4,4,5,5,7,7,8,8,9,9,13,13,14,14,15,15,16,16,18,18,19,19,20,20,21,21,22,22,23,23,24,24,25,25,26,26,28,28],"right_children":[2,4,6,8,10,12,-1,14,16,18,-1,-1,-1,20,22,24,26,-1,28,30,32,34,36,38,40,42,44,-1,46,-1,-1,-1,-1,-1,-1,-1,-1,-1,-1,-1,-1,-1,-1,-1,-1,-1,-1],"split_conditions":[2.15E1,9.44E2,4.35E1,5.92E2,1.5E0,1.28E2,-1.01304E-4,4.96E2,8.8E2,9.76E2,-2.5479472E-4,-1.5744512E-4,-1.3867329E-4,4E2,1.5E0,7.2E2,1.5E0,-2.040877E-4,9.96E2,3.68E2,3E0,5.6E2,5.6E2,1.5E0,1.5E0,9.12E2,9.12E2,-3.0108073E-4,1.152E3,-2.4035251E-4,-2.0450585E-4,-3.541025E-4,-2.481627E-4,-2.1759122E-4,-2.6245965E-4,-2.3426717E-4,-1.3648633E-4,-2.5862842E-4,-2.7942593E-4,-2.6512757E-4,-2.5069193E-4,-2.3722588E-4,-3.0512543E-4,-1.9056695E-4,-2.3293665E-4,-2.3898542E-4,-2.1600333E-4],"split_indices":[1,0,1,0,1,0,0,0,0,0,0,0,0,0,1,0,1,0,0,0,1,0,0,1,1,0,0,0,0,0,0,0,0,0,0,0,0,0,0,0,0,0,0,0,0,0,0],"split_type":[0,0,0,0,0,0,0,0,0,0,0,0,0,0,0,0,0,0,0,0,0,0,0,0,0,0,0,0,0,0,0,0,0,0,0,0,0,0,0,0,0,0,0,0,0,0,0],"sum_hessian":[1.953E5,1.93185E5,2.115E3,1.79809E5,1.3376E4,1.422E3,6.93E2,1.64529E5,1.528E4,1.1274E4,2.102E3,7.24E2,6.98E2,1.45594E5,1.8935E4,1.2506E4,2.774E3,4.922E3,6.352E3,1.41387E5,4.207E3,9.842E3,9.093E3,5.51E3,6.996E3,1.402E3,1.372E3,7.03E2,5.649E3,1.33715E5,7.672E3,2.099E3,2.108E3,2.8E3,7.042E3,4.906E3,4.187E3,2.761E3,2.749E3,3.458E3,3.538E3,7.07E2,6.95E2,6.84E2,6.88E2,1.409E3,4.24E3],"tree_param":{"num_deleted":"0","num_feature":"3","num_nodes":"47","size_leaf_vector":"0"}},{"base_weights":[-5.543812E-4,-5.570498E-4,-3.1047934E-4,-5.5943505E-4,-5.123527E-4,-3.4632572E-4,-2.3653137E-4,-5.139372E-4,-5.6163257E-4,-7.7785173E-4,-4.683734E-4,-4.946278E-4,-6.0758344E-4,-5.726933E-4,-5.505617E-4,-5.0701585E-4,-3.8965142E-4,-5.709018E-4,-6.8196055E-4,-4.6096297E-4,-5.6000287E-4,-4.4368856E-4,-7.007414E-4,-2.861104E-4,-4.242767E-4,-5.770531E-4,-5.3946936E-4,1.4414995E-4,-5.143416E-4,-6.5771485E-4,-5.525673E-4,-4.9111585E-4,-3.4898892E-4,-6.3105114E-4,-7.684322E-4,-4.418407E-4,-3.873285E-4],"categories":[],"categories_nodes":[],"categories_segments":[],"categories_sizes":[],"default_left":[true,true,true,true,true,false,false,true,true,false,true,false,false,true,true,true,true,true,false,true,true,true,true,false,true,false,false,false,false,false,false,false,false,false,false,false,false],"id":19,"left_children":[1,3,5,7,9,-1,-1,11,13,-1,15,-1,-1,17,19,21,23,25,-1,27,29,31,33,-1,35,-1,-1,-1,-1,-1,-1,-1,-1,-1,-1,-1,-1],"loss_changes":[1.2694672E-4,2.0314008E-5,5.527094E-6,1.8045306E-5,1.1405302E-4,5.63261E-7,0E0,1.499895E-5,2.1107495E-5,0E0,2.5382731E-5,4.0454324E-7,0E0,1.6735867E-5,7.371791E-5,6.884441E-5,9.8202145E-6,1.632981E-5,0E0,2.695216E-4,5.711429E-5,1.8921332E-5,6.0580787E-6,0E0,1.1760858E-6,0E0,0E0,0E0,0E0,0E0,0E0,0E0,0E0,0E0,0E0,0E0,0E0],"parents":[2147483647,0,0,1,1,2,2,3,3,4,4,7,7,8,8,10,10,13,13,14,14,15,15,16,16,17,17,19,19,20,20,21,21,22,22,24,24],"right_children":[2,4,6,8,10,-1,-1,12,14,-1,16,-1,-1,18,20,22,24,26,-1,28,30,32,34,-1,36,-1,-1,-1,-1,-1,-1,-1,-1,-1,-1,-1,-1],"split_conditions":[2.15E1,1.05E1,4.35E1,2.8E1,2E1,-1.0389772E-4,-7.095942E-5,7E0,1.76E2,-2.3335553E-4,1.12E2,-1.4838835E-4,-1.8227503E-4,1.52E2,2.08E2,8E1,1.92E2,7E0,-2.0458817E-4,2.5E0,2.48E2,4.8E1,1.45E1,-8.583312E-5,3.2E2,-1.7311594E-4,-1.6184081E-4,4.3244985E-5,-1.5430248E-4,-1.9731447E-4,-1.657702E-4,-1.4733477E-4,-1.0469668E-4,-1.8931535E-4,-2.3052968E-4,-1.3255222E-4,-1.1619856E-4],"split_indices":[1,1,1,0,0,0,0,1,0,0,0,0,0,0,0,0,0,1,0,1,0,0,1,0,0,0,0,0,0,0,0,0,0,0,0,0,0],"split_type":[0,0,0,0,0,0,0,0,0,0,0,0,0,0,0,0,0,0,0,0,0,0,0,0,0,0,0,0,0,0,0,0,0,0,0,0,0],"sum_hessian":[1.953E5,1.93185E5,2.115E3,1.83387E5,9.798E3,1.422E3,6.93E2,8.46E3,1.74927E5,1.39E3,8.408E3,7.019E3,1.441E3,8.7478E4,8.7449E4,5.636E3,2.772E3,8.6073E4,1.405E3,8.341E3,7.9108E4,4.25E3,1.386E3,6.97E2,2.075E3,7.1971E4,1.4102E4,6.76E2,7.665E3,5.588E3,7.352E4,2.829E3,1.421E3,6.88E2,6.98E2,1.399E3,6.76E2],"tree_param":{"num_deleted":"0","num_feature":"3","num_nodes":"37","size_leaf_vector":"0"}},{"base_weights":[-3.8808104E-4,-3.899483E-4,-2.1742162E-4,-3.9227915E-4,-3.5858867E-4,-2.4250783E-4,-1.6567076E-4,-3.8795616E-4,-4.3879877E-4,-3.45433E-4,-4.2895085E-4,-3.9298827E-4,-3.49245E-4,-4.475629E-4,-3.9914052E-4,-3.1050944E-4,-3.7244122E-4,-3.8870066E-4,-5.3695764E-4,-4.1697148E-4,-2.7590204E-4,-4.621492E-4,-4.360104E-4,-4.6725164E-4,-3.292505E-4,-5.3741504E-4,-3.5181927E-4,-3.9287948E-4,-3.1582656E-4,-6.6071644E-4,-4.134724E-4,-3.4207967E-4,-4.466967E-4,-3.8093547E-4,-1.5277049E-4,-4.3785025E-4,-4.8638615E-4,-4.5298532E-4,-4.19296E-4,-3.883267E-4,-5.46866E-4,-2.7940626E-4,-3.7832753E-4,-3.781512E-4,-3.2499598E-4],"categories":[],"categories_nodes":[],"categories_segments":[],"categories_sizes":[],"default_left":[true,true,true,true,true,false,false,true,true,true,false,true,true,true,true,false,true,true,true,true,true,true,true,true,true,false,true,false,false,false,false,false,false,false,false,false,false,false,false,false,false,false,false,false,false],"id":20,"left_children":[1,3,5,7,9,-1,-1,11,13,15,-1,17,19,21,23,-1,25,27,29,31,33,35,37,39,41,-1,43,-1,-1,-1,-1,-1,-1,-1,-1,-1,-1,-1,-1,-1,-1,-1,-1,-1,-1],"loss_changes":[6.214902E-5,1.39810145E-5,2.7068818E-6,3.599003E-5,1.2234435E-5,6.241753E-7,0E0,3.19127E-5,5.1325187E-6,1.0519172E-5,8.632196E-8,8.966401E-5,9.394484E-5,1.9059516E-6,1.3055949E-5,0E0,2.142432E-5,4.2932108E-5,6.403506E-5,2.175942E-5,1.1755392E-4,3.0327355E-6,1.7952407E-6,8.603471E-6,3.2529351E-6,0E0,3.8677244E-6,0E0,0E0,0E0,0E0,0E0,0E0,0E0,0E0,0E0,0E0,0E0,0E0,0E0,0E0,0E0,0E0,0E0,0E0],"parents":[2147483647,0,0,1,1,2,2,3,3,4,4,7,7,8,8,9,9,11,11,12,12,13,13,14,14,16,16,17,17,18,18,19,19,20,20,21,21,22,22,23,23,24,24,26,26],"right_children":[2,4,6,8,10,-1,-1,12,14,16,-1,18,20,22,24,-1,26,28,30,32,34,36,38,40,42,-1,44,-1,-1,-1,-1,-1,-1,-1,-1,-1,-1,-1,-1,-1,-1,-1,-1,-1,-1],"split_conditions":[2.15E1,9.44E2,4.35E1,5.92E2,1.5E0,-7.275235E-5,-4.970123E-5,4.96E2,8.8E2,9.76E2,-1.2868526E-4,4E2,1.5E0,7.2E2,1.5E0,-9.3152834E-5,9.96E2,3.68E2,3E0,5.6E2,5.6E2,1.5E0,1.5E0,9.12E2,9.12E2,-1.6122451E-4,2.688E3,-1.1786385E-4,-9.474797E-5,-1.9821494E-4,-1.2404172E-4,-1.02623904E-4,-1.3400902E-4,-1.1428064E-4,-4.5831148E-5,-1.3135507E-4,-1.4591585E-4,-1.358956E-4,-1.257888E-4,-1.1649801E-4,-1.640598E-4,-8.3821884E-5,-1.1349827E-4,-1.1344536E-4,-9.74988E-5],"split_indices":[1,0,1,0,1,0,0,0,0,0,0,0,1,0,1,0,0,0,1,0,0,1,1,0,0,0,0,0,0,0,0,0,0,0,0,0,0,0,0,0,0,0,0,0,0],"split_type":[0,0,0,0,0,0,0,0,0,0,0,0,0,0,0,0,0,0,0,0,0,0,0,0,0,0,0,0,0,0,0,0,0,0,0,0,0,0,0,0,0,0,0,0,0],"sum_hessian":[1.953E5,1.93185E5,2.115E3,1.79809E5,1.3376E4,1.422E3,6.93E2,1.64529E5,1.528E4,1.1274E4,2.102E3,1.45594E5,1.8935E4,1.2506E4,2.774E3,4.922E3,6.352E3,1.41387E5,4.207E3,9.842E3,9.093E3,5.51E3,6.996E3,1.402E3,1.372E3,7.03E2,5.649E3,1.33715E5,7.672E3,2.099E3,2.108E3,2.8E3,7.042E3,4.906E3,4.187E3,2.761E3,2.749E3,3.458E3,3.538E3,7.07E2,6.95E2,6.84E2,6.88E2,2.844E3,2.805E3],"tree_param":{"num_deleted":"0","num_feature":"3","num_nodes":"45","size_leaf_vector":"0"}},{"base_weights":[-2.7167058E-4,-2.729772E-4,-1.5225196E-4,-2.766528E-4,-2.568746E-4,-1.6980946E-4,-1.1603212E-4,-2.4845317E-4,-2.808188E-4,-2.7572332E-4,-1.9560431E-4,-2.3338104E-4,-2.6690942E-4,-3.8441742E-4,-2.7757933E-4,-3.0548594E-4,-2.5509112E-4,-9.31872E-5,-2.3056834E-4,-2.3279167E-4,-3.4411123E-4,-3.0420895E-4,-4.2415177E-4,-2.830859E-4,-2.5391695E-4,-2.8603603E-4,-3.4922318E-4,-2.2090045E-4,-2.9920557E-4,-4.1054742E-4,-1.7878876E-4,-2.727804E-4,-4.1534862E-4,-2.9852678E-4,-2.7240472E-4,-2.6687304E-4,-1.1317729E-4,-3.1726778E-4,-2.6838094E-4,-2.5442362E-4,-1.4445094E-4,-3.2282624E-4,-8.270519E-5,-3.4595418E-4,-4.760357E-4,-2.3969698E-4,-1.6836409E-4],"categories":[],"categories_nodes":[],"categories_segments":[],"categories_sizes":[],"default_left":[true,true,true,true,true,false,false,true,true,true,true,false,true,true,true,true,true,false,true,false,true,false,false,true,true,true,false,true,true,true,true,false,false,false,false,false,false,false,false,false,false,false,false,false,false,false,false],"id":21,"left_children":[1,3,5,7,9,-1,-1,11,13,15,17,-1,19,21,23,25,27,-1,29,-1,31,-1,-1,33,35,37,-1,39,41,43,45,-1,-1,-1,-1,-1,-1,-1,-1,-1,-1,-1,-1,-1,-1,-1,-1],"loss_changes":[3.0430965E-5,1.1363067E-5,1.3259232E-6,1.840666E-5,4.1424297E-5,6.5414133E-7,0E0,5.571288E-6,4.587788E-5,1.6786857E-5,3.024799E-5,0E0,2.3880973E-5,1.3103534E-5,1.7240644E-5,9.460957E-6,2.4407636E-5,0E0,5.8647158E-5,0E0,1.4043559E-5,2.248853E-7,0E0,1.7694198E-5,4.572526E-5,4.2074826E-6,0E0,2.3400295E-5,3.6189856E-5,5.787064E-6,3.0677184E-6,0E0,0E0,0E0,0E0,0E0,0E0,0E0,0E0,0E0,0E0,0E0,0E0,0E0,0E0,0E0,0E0],"parents":[2147483647,0,0,1,1,2,2,3,3,4,4,7,7,8,8,9,9,10,10,12,12,13,13,14,14,15,15,16,16,18,18,20,20,23,23,24,24,25,25,27,27,28,28,29,29,30,30],"right_children":[2,4,6,8,10,-1,-1,12,14,16,18,-1,20,22,24,26,28,-1,30,-1,32,-1,-1,34,36,38,-1,40,42,44,46,-1,-1,-1,-1,-1,-1,-1,-1,-1,-1,-1,-1,-1,-1,-1,-1],"split_conditions":[2.15E1,5E0,4.35E1,5.6E1,1.36E2,-5.094284E-5,-3.4809636E-5,2.5E0,8.4E1,5.6E1,1.52E2,-7.0014314E-5,4E1,6.8E1,3.5E0,4E1,1.12E2,-2.7956161E-5,2.08E2,-6.983751E-5,3.5E0,-9.1262686E-5,-1.2724554E-4,2.48E2,4.96E2,2E1,-1.0476696E-4,8E1,1.2E1,1.76E2,2.4E2,-8.183412E-5,-1.2460459E-4,-8.955804E-5,-8.172142E-5,-8.006192E-5,-3.3953187E-5,-9.518034E-5,-8.0514284E-5,-7.632709E-5,-4.3335283E-5,-9.684788E-5,-2.481156E-5,-1.0378626E-4,-1.4281072E-4,-7.19091E-5,-5.050923E-5],"split_indices":[1,1,1,0,0,0,0,1,0,0,0,0,0,0,1,0,0,0,0,0,1,0,0,0,0,0,0,0,1,0,0,0,0,0,0,0,0,0,0,0,0,0,0,0,0,0,0],"split_type":[0,0,0,0,0,0,0,0,0,0,0,0,0,0,0,0,0,0,0,0,0,0,0,0,0,0,0,0,0,0,0,0,0,0,0,0,0,0,0,0,0,0,0,0,0,0,0],"sum_hessian":[1.953E5,1.93185E5,2.115E3,1.5727E5,3.5915E4,1.422E3,6.93E2,2.0251E4,1.37019E5,2.7463E4,8.452E3,1.1155E4,9.096E3,4.151E3,1.32868E5,1.1238E4,1.6225E4,2.152E3,6.3E3,6.311E3,2.785E3,1.378E3,2.773E3,1.07776E5,2.5092E4,7.784E3,3.454E3,9.144E3,7.081E3,1.406E3,4.894E3,1.394E3,1.391E3,4.4058E4,6.3718E4,2.2976E4,2.116E3,2.805E3,4.979E3,6.355E3,2.789E3,6.384E3,6.97E2,7.11E2,6.95E2,7.12E2,4.182E3],"tree_param":{"num_deleted":"0","num_feature":"3","num_nodes":"47","size_leaf_vector":"0"}},{"base_weights":[-1.901788E-4,-1.9109312E-4,-1.0661491E-4,-1.927103E-4,-1.6934097E-4,-1.8966287E-4,-2.2550927E-4,-1.4391425E-4,-1.876991E-4,-1.9225305E-4,-1.5428747E-4,-2.316219E-4,-1.9787822E-4,-1.3567053E-4,-2.02438E-4,-2.2848573E-4,-1.5375414E-4,-1.902782E-4,-4.0700947E-4,-2.3099672E-4,-2.5247937E-5,-2.4563263E-4,-2.246575E-4,-2.456125E-4,-1.4895685E-4,-2.592395E-4,-2.0771447E-4,-1.9246434E-4,-1.3982125E-4,-2.0303285E-4,-6.095305E-4,-2.2945176E-4,-2.6178078E-4,-1.9038678E-4,-3.0143748E-4,-1.14104405E-4,-1.8339076E-4,-2.9481345E-4,-2.2380071E-4],"categories":[],"categories_nodes":[],"categories_segments":[],"categories_sizes":[],"default_left":[true,true,false,true,true,true,true,true,true,true,true,true,true,false,false,true,false,true,true,false,false,true,false,true,true,true,false,false,false,false,false,false,false,false,false,false,false,false,false],"id":22,"left_children":[1,3,-1,5,7,9,11,13,15,17,19,21,23,-1,-1,25,-1,27,29,-1,-1,31,-1,33,35,37,-1,-1,-1,-1,-1,-1,-1,-1,-1,-1,-1,-1,-1],"loss_changes":[1.4901161E-5,6.7632645E-6,6.490591E-7,1.7929822E-5,6.2172185E-6,1.5045982E-5,2.5351183E-6,2.6805428E-6,1.07155065E-5,6.493926E-5,1.1115463E-4,1.1652592E-6,6.443668E-6,0E0,0E0,2.1979067E-6,4.90807E-7,1.6729347E-5,5.7544385E-5,0E0,0E0,1.0222138E-6,5.949114E-7,4.268026E-6,1.6268223E-6,1.7204293E-6,4.2502506E-7,0E0,0E0,0E0,0E0,0E0,0E0,0E0,0E0,0E0,0E0,0E0,0E0],"parents":[2147483647,0,0,1,1,3,3,4,4,5,5,6,6,7,7,8,8,9,9,10,10,11,11,12,12,15,15,17,17,18,18,21,21,23,23,24,24,25,25],"right_children":[2,4,-1,6,8,10,12,14,16,18,20,22,24,-1,-1,26,-1,28,30,-1,-1,32,-1,34,36,38,-1,-1,-1,-1,-1,-1,-1,-1,-1,-1,-1,-1,-1],"split_conditions":[2.15E1,9.44E2,-3.1984477E-5,5.92E2,9.76E2,5.6E2,8.8E2,1.5E0,1.152E3,5.28E2,1.5E0,6.88E2,1.5E0,-4.070116E-5,-6.07314E-5,9.96E2,-4.6126243E-5,4.96E2,1.5E0,-6.929902E-5,-7.5743815E-6,1.5E0,-6.739725E-5,9.12E2,9.12E2,1.5E0,-6.231434E-5,-5.7739304E-5,-4.1946376E-5,-6.0909857E-5,-1.8285915E-4,-6.883553E-5,-7.8534234E-5,-5.7116038E-5,-9.043125E-5,-3.423132E-5,-5.501723E-5,-8.844404E-5,-6.7140216E-5],"split_indices":[1,0,0,0,0,0,0,1,0,0,1,0,1,0,0,0,0,0,1,0,0,1,0,0,0,1,0,0,0,0,0,0,0,0,0,0,0,0,0],"split_type":[0,0,0,0,0,0,0,0,0,0,0,0,0,0,0,0,0,0,0,0,0,0,0,0,0,0,0,0,0,0,0,0,0,0,0,0,0,0,0],"sum_hessian":[1.953E5,1.93185E5,2.115E3,1.79809E5,1.3376E4,1.64529E5,1.528E4,5.612E3,7.764E3,1.533E5,1.1229E4,1.2506E4,2.774E3,4.922E3,6.9E2,3.524E3,4.24E3,1.51905E5,1.395E3,7.042E3,4.187E3,4.141E3,8.365E3,1.402E3,1.372E3,1.416E3,2.108E3,1.45594E5,6.311E3,6.96E2,6.99E2,2.076E3,2.065E3,7.07E2,6.95E2,6.84E2,6.88E2,7.03E2,7.13E2],"tree_param":{"num_deleted":"0","num_feature":"3","num_nodes":"39","size_leaf_vector":"0"}},{"base_weights":[-1.3313175E-4,-1.3643624E-4,-1.1946306E-4,-1.1619824E-4,-1.3942648E-4,-1.5613079E-4,-1.040774E-4,-1.0563925E-4,-1.2913438E-4,-2.114193E-4,-1.3717574E-4,-1.107495E-4,-1.666935E-4,-1.1220097E-4,-6.014095E-5,-1.05235595E-4,-1.8323344E-4,-1.553147E-4,-2.3923359E-4,-9.615302E-5,-1.3921112E-4,-5.6550572E-5,-2.1868602E-4,-2.7407528E-4,-1.4733625E-4,-1.2250702E-4,-7.523361E-5,-4.1897136E-5,-7.8637015E-5,-1.3330685E-4,-2.3313599E-4,-1.050631E-4,-2.3171082E-5,-1.4473182E-4,-1.21985686E-4,-1.8171588E-4,-8.7806206E-5,-1.1334768E-4,-1.8971559E-4,-3.6038746E-5,-1.2833724E-4,-1.6262566E-4,-1.334485E-4,-1.282459E-4,-3.731314E-5,-1.3032823E-4,-7.531352E-6,-2.2986006E-4,-1.1023033E-4,7.3869664E-6,-7.956154E-5,-3.1960776E-4,-3.247303E-5],"categories":[],"categories_nodes":[],"categories_segments":[],"categories_sizes":[],"default_left":[true,true,true,true,true,true,true,false,true,true,true,true,true,true,true,false,true,false,false,true,true,false,false,false,true,true,true,false,false,false,false,false,false,true,true,false,false,true,true,true,true,false,false,false,false,false,false,false,false,false,false,false,false],"id":23,"left_children":[1,3,5,7,9,11,13,-1,15,17,19,21,23,25,27,-1,29,-1,-1,31,33,-1,-1,-1,35,37,39,-1,-1,-1,-1,-1,-1,41,43,-1,-1,45,47,49,51,-1,-1,-1,-1,-1,-1,-1,-1,-1,-1,-1,-1],"loss_changes":[8.804956E-6,9.50112E-6,2.143922E-5,2.7526403E-6,2.2173394E-5,5.368929E-6,9.556214E-6,0E0,1.1742246E-5,6.442089E-6,1.108041E-5,1.2418972E-5,1.8906198E-5,8.605304E-6,1.4082116E-6,0E0,6.910137E-6,2.9315925E-7,0E0,4.083897E-6,1.2020348E-5,0E0,0E0,0E0,1.5794183E-5,1.0862044E-5,1.0260786E-5,0E0,9.419546E-8,0E0,0E0,0E0,0E0,1.9332161E-5,1.6284204E-5,2.7036003E-7,7.808976E-7,2.7961127E-5,6.736169E-6,5.3663216E-6,3.8385202E-5,0E0,0E0,0E0,0E0,0E0,0E0,0E0,0E0,0E0,0E0,0E0,0E0],"parents":[2147483647,0,0,1,1,2,2,3,3,4,4,5,5,6,6,8,8,9,9,10,10,11,11,12,12,13,13,14,14,16,16,19,19,20,20,24,24,25,25,26,26,33,33,34,34,37,37,38,38,39,39,40,40],"right_children":[2,4,6,8,10,12,14,-1,16,18,20,22,24,26,28,-1,30,-1,-1,32,34,-1,-1,-1,36,38,40,-1,-1,-1,-1,-1,-1,42,44,-1,-1,46,48,50,52,-1,-1,-1,-1,-1,-1,-1,-1,-1,-1,-1,-1],"split_conditions":[5E0,5.6E1,5.6E1,2.5E0,8.4E1,7E0,2.4E2,-3.1691776E-5,4E1,6.8E1,1.12E2,2.4E1,2E1,1.45E1,1.05E1,-3.157068E-5,3.5E0,-4.6594414E-5,-7.177008E-5,1.5E0,2.5E0,-1.6965172E-5,-6.560581E-5,-8.2222585E-5,1.2E1,1.52E2,8E1,-1.2569141E-5,-2.3591105E-5,-3.9992057E-5,-6.99408E-5,-3.151893E-5,-6.951325E-6,2.72E2,4.96E2,-5.4514767E-5,-2.6341862E-5,1.36E2,2.08E2,2.4E1,1.12E2,-4.87877E-5,-4.0034553E-5,-3.8473772E-5,-1.1193943E-5,-3.909847E-5,-2.2594056E-6,-6.895802E-5,-3.30691E-5,2.21609E-6,-2.3868464E-5,-9.588233E-5,-9.74191E-6],"split_indices":[1,0,0,1,0,1,0,0,0,0,0,0,0,1,1,0,1,0,0,1,1,0,0,0,1,0,0,0,0,0,0,0,0,0,0,0,0,0,0,1,0,0,0,0,0,0,0,0,0,0,0,0,0],"split_type":[0,0,0,0,0,0,0,0,0,0,0,0,0,0,0,0,0,0,0,0,0,0,0,0,0,0,0,0,0,0,0,0,0,0,0,0,0,0,0,0,0,0,0,0,0,0,0,0,0,0,0,0,0],"sum_hessian":[1.953E5,1.5727E5,3.803E4,2.0251E4,1.37019E5,1.1238E4,2.6792E4,1.1155E4,9.096E3,4.151E3,1.32868E5,2.124E3,9.114E3,2.261E4,4.182E3,6.311E3,2.785E3,1.378E3,2.773E3,6.283E3,1.26585E5,1.415E3,7.09E2,1.39E3,7.724E3,1.7679E4,4.931E3,2.107E3,2.075E3,1.394E3,1.391E3,5.599E3,6.84E2,9.5856E4,3.0729E4,4.895E3,2.829E3,1.5561E4,2.118E3,2.838E3,2.093E3,3.7064E4,5.8792E4,2.8613E4,2.116E3,1.3409E4,2.152E3,1.406E3,7.12E2,1.421E3,1.417E3,6.98E2,1.395E3],"tree_param":{"num_deleted":"0","num_feature":"3","num_nodes":"53","size_leaf_vector":"0"}},{"base_weights":[-9.319743E-5,-8.8565575E-5,-9.990365E-5,-9.488363E-5,-2.5008221E-5,-1.834359E-4,-9.528129E-5,-6.991968E-5,-9.983866E-5,4.1445298E-4,-5.545446E-5,-9.839449E-5,-4.21086E-5,-8.797397E-5,-1.1305504E-4,-2.1540317E-4,9.4348925E-6,-9.320612E-5,-1.4133878E-4,-9.5508934E-5,4.7331464E-6,-1.4379054E-4,-9.0441485E-5,6.251164E-5,-1.12726746E-4,-4.687629E-5,-1.0028278E-4,-2.024292E-4,-3.4924105E-5,-9.0509486E-5,-1.6748895E-4,1.4364877E-4,-2.0439485E-4,-1.3477424E-4,-3.632659E-4,7.3751195E-5,-1.00655714E-4,8.125571E-5,-4.93963E-5,-1.4137899E-4,-5.485109E-5,-2.2087712E-4,1.2624291E-5,-4.1182115E-4,-9.2215065E-5,-3.097839E-4,-1.5986472E-4],"categories":[],"categories_nodes":[],"categories_segments":[],"categories_sizes":[],"default_left":[true,true,true,true,true,false,true,false,true,false,true,true,false,true,true,false,true,true,true,true,true,true,true,true,true,true,true,true,false,false,false,false,false,false,false,false,false,false,false,false,false,false,false,false,false,false,false],"id":24,"left_children":[1,3,5,7,9,-1,11,-1,13,-1,15,17,-1,19,21,-1,23,25,27,29,31,33,35,37,39,41,43,45,-1,-1,-1,-1,-1,-1,-1,-1,-1,-1,-1,-1,-1,-1,-1,-1,-1,-1,-1],"loss_changes":[6.0577877E-6,4.6387722E-5,3.0785683E-5,1.2991019E-5,1.3980323E-4,0E0,1.2509816E-5,3.858222E-7,1.3738056E-5,0E0,1.0141493E-4,1.5898608E-5,6.90452E-7,3.227603E-5,2.881093E-5,0E0,4.508341E-5,2.0886248E-5,5.0024E-5,1.536202E-5,1.0095304E-4,3.4733384E-5,4.0081766E-5,1.0171136E-5,3.4845561E-6,8.743514E-5,1.3889029E-4,2.229074E-5,6.622622E-7,0E0,0E0,0E0,0E0,0E0,0E0,0E0,0E0,0E0,0E0,0E0,0E0,0E0,0E0,0E0,0E0,0E0,0E0],"parents":[2147483647,0,0,1,1,2,2,3,3,4,4,6,6,8,8,10,10,11,11,13,13,14,14,16,16,17,17,18,18,19,19,20,20,21,21,22,22,23,23,24,24,25,25,26,26,27,27],"right_children":[2,4,6,8,10,-1,12,-1,14,-1,16,18,-1,20,22,-1,24,26,28,30,32,34,36,38,40,42,44,46,-1,-1,-1,-1,-1,-1,-1,-1,-1,-1,-1,-1,-1,-1,-1,-1,-1,-1,-1],"split_conditions":[2.32E2,1.76E2,2.48E2,1.5E0,2.5E0,-5.503077E-5,6E0,-2.0975905E-5,1.12E2,1.243359E-4,3.5E0,3.5E0,-1.263258E-5,8.4E1,2.5E0,-6.462095E-5,6E0,3.04E2,4.64E2,6.8E1,1.05E1,1.36E2,3.5E0,2.08E2,1.75E1,1.5E0,3.68E2,3.04E2,-1.0477232E-5,-2.7152846E-5,-5.0246686E-5,4.309463E-5,-6.131846E-5,-4.043227E-5,-1.0897977E-4,2.212536E-5,-3.0196716E-5,2.4376715E-5,-1.4818891E-5,-4.2413696E-5,-1.6455328E-5,-6.6263136E-5,3.7872876E-6,-1.2354636E-4,-2.766452E-5,-9.293517E-5,-4.795942E-5],"split_indices":[0,0,0,1,1,0,1,0,0,0,1,1,0,0,1,0,1,0,0,0,1,0,1,0,1,1,0,0,0,0,0,0,0,0,0,0,0,0,0,0,0,0,0,0,0,0,0],"split_type":[0,0,0,0,0,0,0,0,0,0,0,0,0,0,0,0,0,0,0,0,0,0,0,0,0,0,0,0,0,0,0,0,0,0,0,0,0,0,0,0,0,0,0,0,0,0,0],"sum_hessian":[1.953E5,1.15524E5,7.9776E4,1.05078E5,1.0446E4,4.181E3,7.5595E4,1.7405E4,8.7673E4,6.76E2,9.77E3,7.1413E4,4.182E3,4.6203E4,4.147E4,2.819E3,6.951E3,6.3718E4,7.695E3,4.273E4,3.473E3,1.7576E4,2.3894E4,4.846E3,2.105E3,8.444E3,5.5274E4,4.888E3,2.807E3,3.9957E4,2.773E3,2.087E3,1.386E3,1.6884E4,6.92E2,1.399E3,2.2495E4,4.151E3,6.95E2,1.407E3,6.98E2,2.151E3,6.293E3,1.394E3,5.388E4,1.386E3,3.502E3],"tree_param":{"num_deleted":"0","num_feature":"3","num_nodes":"47","size_leaf_vector":"0"}},{"base_weights":[-6.524171E-5,-6.228758E-5,-7.34245E-5,-6.479203E-5,-1.794447E-5,-1.8990086E-4,-6.674207E-5,-6.297848E-5,-1.5124884E-4,2.0354662E-5,-1.9463408E-4,-2.910234E-4,-9.042725E-5,-6.9312024E-5,-2.4450459E-5,-6.448519E-5,-1.702473E-5,-2.8836326E-4,-1.4124299E-5,-3.5326916E-4,-3.2431006E-5,-3.2729591E-4,-2.550588E-4,-5.3772303E-5,-1.2649351E-4,-1.0949363E-4,-6.2965606E-5,-6.19983E-5,-8.609148E-5,-2.616118E-4,3.329319E-5,-2.4049405E-4,-3.3748682E-4,-4.3480286E-5,-1.6232207E-4,-4.0314524E-5,-7.183984E-5,-6.642124E-5,-1.7505045E-5,-1.18900236E-4,-4.1076746E-5,9.8873854E-5,-2.2638655E-4,-1.1299472E-4,-3.593291E-4,-9.401769E-5,5.0008235E-5,-9.445838E-5,-5.432005E-5],"categories":[],"categories_nodes":[],"categories_segments":[],"categories_sizes":[],"default_left":[true,true,true,true,true,true,true,true,true,false,true,true,true,true,false,true,true,true,false,false,false,false,false,false,false,true,true,true,true,false,true,false,false,false,true,true,true,false,false,false,false,false,false,false,false,false,false,false,false],"id":25,"left_children":[1,3,5,7,9,11,13,15,17,-1,19,21,23,25,-1,27,29,31,-1,-1,-1,-1,-1,-1,-1,33,35,37,39,-1,41,-1,-1,-1,43,45,47,-1,-1,-1,-1,-1,-1,-1,-1,-1,-1,-1,-1],"loss_changes":[4.7164503E-6,1.5935628E-5,4.0304818E-5,2.1287997E-5,5.1927604E-5,2.8239534E-5,5.3229014E-6,9.210606E-6,5.2452808E-5,0E0,3.5162953E-5,1.7337225E-6,1.8678038E-6,1.17702E-5,6.632632E-7,6.916409E-6,5.2006264E-5,3.1991876E-6,1.3066568E-8,0E0,0E0,0E0,0E0,0E0,0E0,2.1956475E-5,8.014613E-6,2.2733177E-5,1.962873E-5,0E0,5.971243E-5,0E0,0E0,8.979864E-7,3.3952383E-5,5.4477146E-5,1.1350843E-5,0E0,0E0,0E0,0E0,0E0,0E0,0E0,0E0,0E0,0E0,0E0,0E0],"parents":[2147483647,0,0,1,1,2,2,3,3,4,4,5,5,6,6,7,7,8,8,10,10,11,11,12,12,13,13,15,15,16,16,17,17,25,25,26,26,27,27,28,28,30,30,34,34,35,35,36,36],"right_children":[2,4,6,8,10,12,14,16,18,-1,20,22,24,26,-1,28,30,32,-1,-1,-1,-1,-1,-1,-1,34,36,38,40,-1,42,-1,-1,-1,44,46,48,-1,-1,-1,-1,-1,-1,-1,-1,-1,-1,-1,-1],"split_conditions":[4E2,3.68E2,4.64E2,3.04E2,3E0,3E0,3E0,2.72E2,3E0,6.106399E-6,8.5E0,4.32E2,4.32E2,5.6E2,-7.335138E-6,2.32E2,1.5E0,3.36E2,-4.23729E-6,-1.05980755E-4,-9.729302E-6,-9.818878E-5,-7.6517645E-5,-1.6131691E-5,-3.7948055E-5,1.5E0,5.92E2,1.76E2,2.5E0,-7.848354E-5,3E0,-7.2148214E-5,-1.0124605E-4,-1.3044087E-5,5.28E2,1.5E0,8.8E2,-1.9926374E-5,-5.2515134E-6,-3.5670073E-5,-1.2323025E-5,2.9662157E-5,-6.7915964E-5,-3.3898417E-5,-1.0779873E-4,-2.8205308E-5,1.5002471E-5,-2.8337516E-5,-1.6296017E-5],"split_indices":[0,0,0,0,1,1,1,0,1,0,1,0,0,0,0,0,1,0,0,0,0,0,0,0,0,1,0,0,1,0,1,0,0,0,0,1,0,0,0,0,0,0,0,0,0,0,0,0,0],"split_type":[0,0,0,0,0,0,0,0,0,0,0,0,0,0,0,0,0,0,0,0,0,0,0,0,0,0,0,0,0,0,0,0,0,0,0,0,0,0,0,0,0,0,0,0,0,0,0,0,0],"sum_hessian":[1.953E5,1.43502E5,5.1798E4,1.3583E5,7.672E3,2.809E3,4.8989E4,1.33041E5,2.789E3,6.306E3,1.366E3,1.392E3,1.417E3,4.6182E4,2.807E3,1.28817E5,4.224E3,1.394E3,1.395E3,6.9E2,6.76E2,6.89E2,7.03E2,7.04E2,7.13E2,6.297E3,3.9885E4,1.15524E5,1.3293E4,7.2E2,3.504E3,7.09E2,6.85E2,2.8E3,3.497E3,1.1229E4,2.8656E4,1.05078E5,1.0446E4,7.688E3,5.605E3,2.798E3,7.06E2,2.798E3,6.99E2,7.042E3,4.187E3,1.2506E4,1.615E4],"tree_param":{"num_deleted":"0","num_feature":"3","num_nodes":"49","size_leaf_vector":"0"}},{"base_weights":[-4.5673834E-5,-4.5913206E-5,2.151573E-5,-4.6354016E-5,-1.5765572E-5,-4.392064E-5,-5.3445987E-5,-4.5700057E-5,-1.2575542E-5,-1.2154841E-4,-4.704617E-5,-4.4429868E-5,-1.0593766E-4,1.4248948E-5,-1.363279E-4,-1.8629093E-4,-5.7024543E-5,-4.8966318E-5,-8.320802E-6,-4.550074E-5,-1.1944654E-5,-2.0197842E-4,-9.889817E-6,-2.4744176E-4,-2.2714921E-5,-2.2924981E-4,-1.6515137E-4,-6.7181136E-5,-4.6218604E-5],"categories":[],"categories_nodes":[],"categories_segments":[],"categories_sizes":[],"default_left":[true,true,false,true,false,true,true,true,true,true,true,true,true,false,true,true,false,true,false,false,false,false,false,false,false,false,false,false,false],"id":26,"left_children":[1,3,-1,5,-1,7,9,11,13,15,17,19,21,-1,23,25,-1,27,-1,-1,-1,-1,-1,-1,-1,-1,-1,-1,-1],"loss_changes":[3.1421077E-6,2.5854679E-6,0E0,3.3076794E-6,0E0,7.964816E-6,2.1347965E-5,1.03351485E-5,2.547319E-5,1.7568032E-5,3.3298857E-6,4.6035566E-6,2.5734375E-5,0E0,1.7251352E-5,1.8692153E-6,3.9250654E-7,2.1325395E-6,0E0,0E0,0E0,0E0,0E0,0E0,0E0,0E0,0E0,0E0,0E0],"parents":[2147483647,0,0,1,1,3,3,5,5,6,6,7,7,8,8,9,9,10,10,11,11,12,12,14,14,15,15,17,17],"right_children":[2,4,-1,6,-1,8,10,12,14,16,18,20,22,-1,24,26,-1,28,-1,-1,-1,-1,-1,-1,-1,-1,-1,-1,-1],"split_conditions":[4.35E1,2.688E3,6.4547194E-6,4E2,-4.7296717E-6,3.68E2,4.96E2,3.04E2,3E0,3E0,3E0,2.72E2,3E0,4.2746847E-6,8.5E0,4.32E2,-1.7107364E-5,5.6E2,-2.4962408E-6,-1.3650222E-5,-3.5833964E-6,-6.0593527E-5,-2.9669452E-6,-7.423253E-5,-6.814477E-6,-6.877495E-5,-4.9545415E-5,-2.015434E-5,-1.3865581E-5],"split_indices":[1,0,0,0,0,0,0,0,1,1,1,0,1,0,1,0,0,0,0,0,0,0,0,0,0,0,0,0,0],"split_type":[0,0,0,0,0,0,0,0,0,0,0,0,0,0,0,0,0,0,0,0,0,0,0,0,0,0,0,0,0],"sum_hessian":[1.953E5,1.94607E5,6.93E2,1.91802E5,2.805E3,1.42809E5,4.8993E4,1.35137E5,7.672E3,4.207E3,4.4786E4,1.32348E5,2.789E3,6.306E3,1.366E3,2.099E3,2.108E3,4.267E4,2.116E3,1.28124E5,4.224E3,1.394E3,1.395E3,6.9E2,6.76E2,6.89E2,1.41E3,5.59E3,3.708E4],"tree_param":{"num_deleted":"0","num_feature":"3","num_nodes":"29","size_leaf_vector":"0"}},{"base_weights":[-3.1973283E-5,-3.2734835E-5,-1.647817E-5,2.1089214E-5,-3.314722E-5,-1.3122564E-4,4.0900813E-6,-3.9913095E-5,-3.156881E-5,1.4926806E-5,-2.5244515E-5,-1.8484809E-5,-5.5354227E-5,1.3362347E-5,-3.4229404E-5,-1.7497081E-5,2.5677946E-5,-1.2910299E-4,2.6777205E-5,-1.5088327E-5,-5.1123447E-5,-2.1737416E-5,-7.321041E-5,-1.9742938E-5,1.12798414E-4,-3.99873E-5,-3.0891148E-5,4.0912044E-5,-4.8513316E-6,7.313852E-5,-1.95561E-5,-1.3348286E-5,-5.4330576E-5,-9.002026E-5,-6.550693E-5,2.1203855E-4,-8.959049E-5,-1.2092451E-5,-4.75973E-5,6.0628854E-6,-3.468795E-5,1.5883563E-5,6.585895E-5],"categories":[],"categories_nodes":[],"categories_segments":[],"categories_sizes":[],"default_left":[true,true,true,false,true,false,true,true,true,true,true,true,true,true,true,false,true,false,true,false,false,true,true,false,true,true,true,true,false,false,false,false,false,false,false,false,false,false,false,false,false,false,false],"id":27,"left_children":[1,3,5,-1,7,-1,9,11,13,15,17,19,21,23,25,-1,27,-1,29,-1,-1,31,33,-1,35,37,39,41,-1,-1,-1,-1,-1,-1,-1,-1,-1,-1,-1,-1,-1,-1,-1],"loss_changes":[2.3040775E-6,4.13254E-6,2.1598311E-5,0E0,1.9715953E-6,0E0,2.4675285E-6,1.1560147E-5,1.7907616E-5,1.9762788E-6,1.1317123E-5,1.6216145E-6,1.2188051E-5,2.757155E-5,2.71709E-6,0E0,1.9800693E-6,0E0,3.0001406E-6,2.4354858E-7,1.9867934E-7,1.92585E-6,1.711458E-6,2.723391E-8,4.2037034E-5,1.1016324E-5,1.2561206E-5,1.7722023E-6,5.3839415E-7,0E0,0E0,0E0,0E0,0E0,0E0,0E0,0E0,0E0,0E0,0E0,0E0,0E0,0E0],"parents":[2147483647,0,0,1,1,2,2,4,4,6,6,7,7,8,8,9,9,10,10,11,11,12,12,13,13,14,14,16,16,18,18,21,21,22,22,24,24,25,25,26,26,27,27],"right_children":[2,4,6,-1,8,-1,10,12,14,16,18,20,22,24,26,-1,28,-1,30,-1,-1,32,34,-1,36,38,40,42,-1,-1,-1,-1,-1,-1,-1,-1,-1,-1,-1,-1,-1,-1,-1],"split_conditions":[1.45E1,2E1,2E1,6.3267644E-6,8.4E1,-3.9367693E-5,8E1,3.5E0,1.12E2,2.8E1,1.12E2,5.6E1,2.8E1,5E0,1.76E2,-5.2491246E-6,2.4E1,-3.8730897E-5,1.6E2,-4.5264983E-6,-1.5337035E-5,6E0,5E0,-5.922882E-6,1.05E1,1.5E0,2.08E2,4.8E1,-1.4553996E-6,2.1941558E-5,-5.8668306E-6,-4.004486E-6,-1.6299173E-5,-2.700608E-5,-1.965208E-5,6.3611566E-5,-2.6877147E-5,-3.6277354E-6,-1.42791905E-5,1.8188657E-6,-1.0406386E-5,4.765069E-6,1.9757685E-5],"split_indices":[1,0,0,0,0,0,0,1,0,0,0,0,0,1,0,0,1,0,0,0,0,1,1,0,1,1,0,0,0,0,0,0,0,0,0,0,0,0,0,0,0,0,0],"split_type":[0,0,0,0,0,0,0,0,0,0,0,0,0,0,0,0,0,0,0,0,0,0,0,0,0,0,0,0,0,0,0,0,0,0,0,0,0,0,0,0,0,0,0],"sum_hessian":[1.953E5,1.8615E5,9.15E3,1.415E3,1.84735E5,1.39E3,7.76E3,3.494E4,1.49795E5,5.667E3,2.093E3,1.4634E4,2.0306E4,8.374E3,1.41421E5,1.411E3,4.256E3,6.98E2,1.395E3,1.3256E4,1.378E3,7.045E3,1.3261E4,6.283E3,2.091E3,5.1897E4,8.9524E4,2.839E3,1.417E3,6.97E2,6.98E2,5.604E3,1.441E3,4.164E3,9.097E3,1.403E3,6.88E2,1.1124E4,4.0773E4,8.341E3,8.1183E4,1.418E3,1.421E3],"tree_param":{"num_deleted":"0","num_feature":"3","num_nodes":"43","size_leaf_vector":"0"}},{"base_weights":[-2.2381815E-5,-2.312876E-5,-1.2221824E-5,-2.160259E-5,-3.9770697E-5,7.4911763E-6,-2.646997E-5,-2.287787E-5,-3.9515785E-6,1.3268915E-5,-3.3682914E-5,-5.1764215E-5,-5.439862E-6,-2.1939333E-5,-1.2641062E-4,-4.1547908E-5,5.9275477E-5,-7.338589E-5,-3.721245E-5,-2.2750673E-5,-2.9492903E-6,-3.106534E-5,-2.211667E-4,-2.1226837E-5,-7.471182E-5],"categories":[],"categories_nodes":[],"categories_segments":[],"categories_sizes":[],"default_left":[true,true,true,true,false,true,true,true,true,false,false,true,false,true,true,false,false,false,false,true,false,false,false,false,false],"id":28,"left_children":[1,3,5,7,-1,9,11,13,15,-1,-1,17,-1,19,21,-1,-1,-1,-1,23,-1,-1,-1,-1,-1],"loss_changes":[1.4818434E-6,4.6197456E-6,3.7574457E-6,3.7510908E-6,8.586794E-7,1.3357411E-6,4.1302383E-6,1.5098914E-5,2.6697355E-5,0E0,0E0,1.1063521E-6,1.9122561E-7,2.3729954E-6,1.2605355E-5,0E0,0E0,8.7171884E-7,4.7039725E-7,1.1694145E-5,5.654269E-7,0E0,0E0,0E0,0E0],"parents":[2147483647,0,0,1,1,2,2,3,3,5,5,6,6,7,7,8,8,11,11,13,13,14,14,19,19],"right_children":[2,4,6,8,-1,10,12,14,16,-1,-1,18,-1,20,22,-1,-1,-1,-1,24,-1,-1,-1,-1,-1],"split_conditions":[9.44E2,5.92E2,9.76E2,5.6E2,-1.193121E-5,1.5E0,1.152E3,5.28E2,1.5E0,3.9806746E-6,-1.01048745E-5,9.96E2,-1.6319586E-6,4.96E2,1.5E0,-1.2464373E-5,1.7782644E-5,-2.2015767E-5,-1.1163735E-5,4E2,-8.8478714E-7,-9.319603E-6,-6.635001E-5,-6.3680513E-6,-2.2413546E-5],"split_indices":[0,0,0,0,0,1,0,0,1,0,0,0,0,0,1,0,0,0,0,0,0,0,0,0,0],"split_type":[0,0,0,0,0,0,0,0,0,0,0,0,0,0,0,0,0,0,0,0,0,0,0,0,0],"sum_hessian":[1.953E5,1.81924E5,1.3376E4,1.66644E5,1.528E4,5.612E3,7.764E3,1.55415E5,1.1229E4,4.922E3,6.9E2,3.524E3,4.24E3,1.5402E5,1.395E3,7.042E3,4.187E3,1.416E3,2.108E3,1.47709E5,6.311E3,6.96E2,6.99E2,1.43502E5,4.207E3],"tree_param":{"num_deleted":"0","num_feature":"3","num_nodes":"25","size_leaf_vector":"0"}},{"base_weights":[-1.5667785E-5,-1.618371E-5,-5.1710576E-6,2.1131094E-5,-1.6469641E-5,-8.552219E-5,9.2309E-6,-2.1573538E-5,-1.5279009E-5,1.6820364E-5,-1.1316531E-5,-3.1909517E-6,-3.0991454E-5,1.5725247E-5,-1.7114971E-5,-8.406822E-5,2.5119534E-5,-8.851453E-6,-4.0703606E-5,-7.4532973E-6,8.5342E-5,-1.9390018E-5,-1.1331689E-5,5.7587262E-5,-7.3376814E-6,-2.0879801E-5,-4.4882938E-5,1.5483651E-4,-5.639332E-5,-2.9090821E-5,-1.3638564E-5,-2.3989303E-5,-2.0760206E-6],"categories":[],"categories_nodes":[],"categories_segments":[],"categories_sizes":[],"default_left":[true,true,true,false,true,false,true,true,true,false,true,false,true,true,true,false,true,false,true,false,true,true,true,false,false,false,false,false,false,false,false,false,false],"id":29,"left_children":[1,3,5,-1,7,-1,9,11,13,-1,15,-1,17,19,21,-1,23,-1,25,-1,27,29,31,-1,-1,-1,-1,-1,-1,-1,-1,-1,-1],"loss_changes":[1.057575E-6,1.9864747E-6,1.0590451E-5,0E0,1.1222874E-6,0E0,1.2104719E-6,6.049084E-6,8.527051E-6,9.691006E-7,5.552856E-6,1.4249164E-7,4.9676255E-6,1.3514663E-5,1.8605024E-6,0E0,1.4715442E-6,9.447522E-7,1.3295539E-6,2.7697496E-8,2.0614567E-5,5.6623358E-6,4.6778187E-6,0E0,0E0,0E0,0E0,0E0,0E0,0E0,0E0,0E0,0E0],"parents":[2147483647,0,0,1,1,2,2,4,4,6,6,7,7,8,8,10,10,12,12,13,13,14,14,16,16,18,18,20,20,21,21,22,22],"right_children":[2,4,6,-1,8,-1,10,12,14,-1,16,-1,18,20,22,-1,24,-1,26,-1,28,30,32,-1,-1,-1,-1,-1,-1,-1,-1,-1,-1],"split_conditions":[1.45E1,2E1,2E1,6.3393286E-6,8.4E1,-2.5656658E-5,8E1,2.5E0,1.12E2,5.0461094E-6,1.12E2,-9.572856E-7,2.8E1,5E0,3.5E0,-2.5220466E-5,1.6E2,-2.6554358E-6,3.5E0,-2.2359893E-6,1.05E1,2.48E2,1.36E2,1.727618E-5,-2.2013046E-6,-6.2639406E-6,-1.3464882E-5,4.6450954E-5,-1.6917997E-5,-8.7272465E-6,-4.0915693E-6,-7.196791E-6,-6.2280617E-7],"split_indices":[1,0,0,0,0,0,0,1,0,0,0,0,0,1,1,0,0,0,1,0,1,0,0,0,0,0,0,0,0,0,0,0,0],"split_type":[0,0,0,0,0,0,0,0,0,0,0,0,0,0,0,0,0,0,0,0,0,0,0,0,0,0,0,0,0,0,0,0,0],"sum_hessian":[1.953E5,1.8615E5,9.15E3,1.415E3,1.84735E5,1.39E3,7.76E3,3.494E4,1.49795E5,5.667E3,2.093E3,1.1837E4,2.3103E4,8.374E3,1.41421E5,6.98E2,1.395E3,7.045E3,1.6058E4,6.283E3,2.091E3,1.01493E5,3.9928E4,6.97E2,6.98E2,2.797E3,1.3261E4,1.403E3,6.88E2,3.7775E4,6.3718E4,1.6864E4,2.3064E4],"tree_param":{"num_deleted":"0","num_feature":"3","num_nodes":"33","size_leaf_vector":"0"}},{"base_weights":[-1.096764E-5],"categories":[],"categories_nodes":[],"categories_segments":[],"categories_sizes":[],"default_left":[false],"id":30,"left_children":[-1],"loss_changes":[9.208088E-7],"parents":[2147483647],"right_children":[-1],"split_conditions":[-3.2902922E-6],"split_indices":[0],"split_type":[0],"sum_hessian":[1.953E5],"tree_param":{"num_deleted":"0","num_feature":"3","num_nodes":"1","size_leaf_vector":"0"}},{"base_weights":[-7.677287E-6],"categories":[],"categories_nodes":[],"categories_segments":[],"categories_sizes":[],"default_left":[false],"id":31,"left_children":[-1],"loss_changes":[9.208525E-7],"parents":[2147483647],"right_children":[-1],"split_conditions":[-2.3031862E-6],"split_indices":[0],"split_type":[0],"sum_hessian":[1.953E5],"tree_param":{"num_deleted":"0","num_feature":"3","num_nodes":"1","size_leaf_vector":"0"}},{"base_weights":[-5.3741182E-6],"categories":[],"categories_nodes":[],"categories_segments":[],"categories_sizes":[],"default_left":[false],"id":32,"left_children":[-1],"loss_changes":[9.208943E-7],"parents":[2147483647],"right_children":[-1],"split_conditions":[-1.6122356E-6],"split_indices":[0],"split_type":[0],"sum_hessian":[1.953E5],"tree_param":{"num_deleted":"0","num_feature":"3","num_nodes":"1","size_leaf_vector":"0"}},{"base_weights":[-3.7620505E-6],"categories":[],"categories_nodes":[],"categories_segments":[],"categories_sizes":[],"default_left":[false],"id":33,"left_children":[-1],"loss_changes":[9.2090977E-7],"parents":[2147483647],"right_children":[-1],"split_conditions":[-1.1286152E-6],"split_indices":[0],"split_type":[0],"sum_hessian":[1.953E5],"tree_param":{"num_deleted":"0","num_feature":"3","num_nodes":"1","size_leaf_vector":"0"}},{"base_weights":[-2.633292E-6],"categories":[],"categories_nodes":[],"categories_segments":[],"categories_sizes":[],"default_left":[false],"id":34,"left_children":[-1],"loss_changes":[9.209873E-7],"parents":[2147483647],"right_children":[-1],"split_conditions":[-7.8998767E-7],"split_indices":[0],"split_type":[0],"sum_hessian":[1.953E5],"tree_param":{"num_deleted":"0","num_feature":"3","num_nodes":"1","size_leaf_vector":"0"}},{"base_weights":[-1.8434766E-6],"categories":[],"categories_nodes":[],"categories_segments":[],"categories_sizes":[],"default_left":[false],"id":35,"left_children":[-1],"loss_changes":[9.2103323E-7],"parents":[2147483647],"right_children":[-1],"split_conditions":[-5.5304304E-7],"split_indices":[0],"split_type":[0],"sum_hessian":[1.953E5],"tree_param":{"num_deleted":"0","num_feature":"3","num_nodes":"1","size_leaf_vector":"0"}},{"base_weights":[-1.290281E-6],"categories":[],"categories_nodes":[],"categories_segments":[],"categories_sizes":[],"default_left":[false],"id":36,"left_children":[-1],"loss_changes":[9.210652E-7],"parents":[2147483647],"right_children":[-1],"split_conditions":[-3.8708433E-7],"split_indices":[0],"split_type":[0],"sum_hessian":[1.953E5],"tree_param":{"num_deleted":"0","num_feature":"3","num_nodes":"1","size_leaf_vector":"0"}},{"base_weights":[-9.028256E-7],"categories":[],"categories_nodes":[],"categories_segments":[],"categories_sizes":[],"default_left":[false],"id":37,"left_children":[-1],"loss_changes":[9.210859E-7],"parents":[2147483647],"right_children":[-1],"split_conditions":[-2.708477E-7],"split_indices":[0],"split_type":[0],"sum_hessian":[1.953E5],"tree_param":{"num_deleted":"0","num_feature":"3","num_nodes":"1","size_leaf_vector":"0"}},{"base_weights":[-6.319163E-7],"categories":[],"categories_nodes":[],"categories_segments":[],"categories_sizes":[],"default_left":[false],"id":38,"left_children":[-1],"loss_changes":[9.2108803E-7],"parents":[2147483647],"right_children":[-1],"split_conditions":[-1.8957489E-7],"split_indices":[0],"split_type":[0],"sum_hessian":[1.953E5],"tree_param":{"num_deleted":"0","num_feature":"3","num_nodes":"1","size_leaf_vector":"0"}},{"base_weights":[-4.4197176E-7],"categories":[],"categories_nodes":[],"categories_segments":[],"categories_sizes":[],"default_left":[false],"id":39,"left_children":[-1],"loss_changes":[9.2112487E-7],"parents":[2147483647],"right_children":[-1],"split_conditions":[-1.3259154E-7],"split_indices":[0],"split_type":[0],"sum_hessian":[1.953E5],"tree_param":{"num_deleted":"0","num_feature":"3","num_nodes":"1","size_leaf_vector":"0"}},{"base_weights":[-3.0973015E-7],"categories":[],"categories_nodes":[],"categories_segments":[],"categories_sizes":[],"default_left":[false],"id":40,"left_children":[-1],"loss_changes":[9.210873E-7],"parents":[2147483647],"right_children":[-1],"split_conditions":[-9.291905E-8],"split_indices":[0],"split_type":[0],"sum_hessian":[1.953E5],"tree_param":{"num_deleted":"0","num_feature":"3","num_nodes":"1","size_leaf_vector":"0"}},{"base_weights":[-2.167055E-7],"categories":[],"categories_nodes":[],"categories_segments":[],"categories_sizes":[],"default_left":[false],"id":41,"left_children":[-1],"loss_changes":[9.210801E-7],"parents":[2147483647],"right_children":[-1],"split_conditions":[-6.5011655E-8],"split_indices":[0],"split_type":[0],"sum_hessian":[1.953E5],"tree_param":{"num_deleted":"0","num_feature":"3","num_nodes":"1","size_leaf_vector":"0"}},{"base_weights":[-1.5152945E-7],"categories":[],"categories_nodes":[],"categories_segments":[],"categories_sizes":[],"default_left":[false],"id":42,"left_children":[-1],"loss_changes":[9.2103556E-7],"parents":[2147483647],"right_children":[-1],"split_conditions":[-4.5458837E-8],"split_indices":[0],"split_type":[0],"sum_hessian":[1.953E5],"tree_param":{"num_deleted":"0","num_feature":"3","num_nodes":"1","size_leaf_vector":"0"}},{"base_weights":[-1.0589562E-7],"categories":[],"categories_nodes":[],"categories_segments":[],"categories_sizes":[],"default_left":[false],"id":43,"left_children":[-1],"loss_changes":[9.210743E-7],"parents":[2147483647],"right_children":[-1],"split_conditions":[-3.176869E-8],"split_indices":[0],"split_type":[0],"sum_hessian":[1.953E5],"tree_param":{"num_deleted":"0","num_feature":"3","num_nodes":"1","size_leaf_vector":"0"}},{"base_weights":[-7.42585E-8],"categories":[],"categories_nodes":[],"categories_segments":[],"categories_sizes":[],"default_left":[false],"id":44,"left_children":[-1],"loss_changes":[9.210891E-7],"parents":[2147483647],"right_children":[-1],"split_conditions":[-2.227755E-8],"split_indices":[0],"split_type":[0],"sum_hessian":[1.953E5],"tree_param":{"num_deleted":"0","num_feature":"3","num_nodes":"1","size_leaf_vector":"0"}},{"base_weights":[-5.191523E-8],"categories":[],"categories_nodes":[],"categories_segments":[],"categories_sizes":[],"default_left":[false],"id":45,"left_children":[-1],"loss_changes":[9.2108394E-7],"parents":[2147483647],"right_children":[-1],"split_conditions":[-1.557457E-8],"split_indices":[0],"split_type":[0],"sum_hessian":[1.953E5],"tree_param":{"num_deleted":"0","num_feature":"3","num_nodes":"1","size_leaf_vector":"0"}},{"base_weights":[-3.6086437E-8],"categories":[],"categories_nodes":[],"categories_segments":[],"categories_sizes":[],"default_left":[false],"id":46,"left_children":[-1],"loss_changes":[9.211215E-7],"parents":[2147483647],"right_children":[-1],"split_conditions":[-1.0825931E-8],"split_indices":[0],"split_type":[0],"sum_hessian":[1.953E5],"tree_param":{"num_deleted":"0","num_feature":"3","num_nodes":"1","size_leaf_vector":"0"}},{"base_weights":[-2.496968E-8],"categories":[],"categories_nodes":[],"categories_segments":[],"categories_sizes":[],"default_left":[false],"id":47,"left_children":[-1],"loss_changes":[9.211474E-7],"parents":[2147483647],"right_children":[-1],"split_conditions":[-7.490904E-9],"split_indices":[0],"split_type":[0],"sum_hessian":[1.953E5],"tree_param":{"num_deleted":"0","num_feature":"3","num_nodes":"1","size_leaf_vector":"0"}},{"base_weights":[-1.7483696E-8],"categories":[],"categories_nodes":[],"categories_segments":[],"categories_sizes":[],"default_left":[false],"id":48,"left_children":[-1],"loss_changes":[9.21172E-7],"parents":[2147483647],"right_children":[-1],"split_conditions":[-5.2451092E-9],"split_indices":[0],"split_type":[0],"sum_hessian":[1.953E5],"tree_param":{"num_deleted":"0","num_feature":"3","num_nodes":"1","size_leaf_vector":"0"}},{"base_weights":[-1.1936581E-8],"categories":[],"categories_nodes":[],"categories_segments":[],"categories_sizes":[],"default_left":[false],"id":49,"left_children":[-1],"loss_changes":[9.2110906E-7],"parents":[2147483647],"right_children":[-1],"split_conditions":[-3.5809744E-9],"split_indices":[0],"split_type":[0],"sum_hessian":[1.953E5],"tree_param":{"num_deleted":"0","num_feature":"3","num_nodes":"1","size_leaf_vector":"0"}},{"base_weights":[-8.291328E-9],"categories":[],"categories_nodes":[],"categories_segments":[],"categories_sizes":[],"default_left":[false],"id":50,"left_children":[-1],"loss_changes":[9.211211E-7],"parents":[2147483647],"right_children":[-1],"split_conditions":[-2.4873983E-9],"split_indices":[0],"split_type":[0],"sum_hessian":[1.953E5],"tree_param":{"num_deleted":"0","num_feature":"3","num_nodes":"1","size_leaf_vector":"0"}},{"base_weights":[-5.5741447E-9],"categories":[],"categories_nodes":[],"categories_segments":[],"categories_sizes":[],"default_left":[false],"id":51,"left_children":[-1],"loss_changes":[9.211414E-7],"parents":[2147483647],"right_children":[-1],"split_conditions":[-1.6722435E-9],"split_indices":[0],"split_type":[0],"sum_hessian":[1.953E5],"tree_param":{"num_deleted":"0","num_feature":"3","num_nodes":"1","size_leaf_vector":"0"}},{"base_weights":[-3.751289E-9],"categories":[],"categories_nodes":[],"categories_segments":[],"categories_sizes":[],"default_left":[false],"id":52,"left_children":[-1],"loss_changes":[9.211475E-7],"parents":[2147483647],"right_children":[-1],"split_conditions":[-1.1253868E-9],"split_indices":[0],"split_type":[0],"sum_hessian":[1.953E5],"tree_param":{"num_deleted":"0","num_feature":"3","num_nodes":"1","size_leaf_vector":"0"}},{"base_weights":[-2.8233713E-9],"categories":[],"categories_nodes":[],"categories_segments":[],"categories_sizes":[],"default_left":[false],"id":53,"left_children":[-1],"loss_changes":[9.211393E-7],"parents":[2147483647],"right_children":[-1],"split_conditions":[-8.470114E-10],"split_indices":[0],"split_type":[0],"sum_hessian":[1.953E5],"tree_param":{"num_deleted":"0","num_feature":"3","num_nodes":"1","size_leaf_vector":"0"}},{"base_weights":[-1.9286623E-9],"categories":[],"categories_nodes":[],"categories_segments":[],"categories_sizes":[],"default_left":[false],"id":54,"left_children":[-1],"loss_changes":[9.2115346E-7],"parents":[2147483647],"right_children":[-1],"split_conditions":[-5.785987E-10],"split_indices":[0],"split_type":[0],"sum_hessian":[1.953E5],"tree_param":{"num_deleted":"0","num_feature":"3","num_nodes":"1","size_leaf_vector":"0"}},{"base_weights":[-1.0340488E-9],"categories":[],"categories_nodes":[],"categories_segments":[],"categories_sizes":[],"default_left":[false],"id":55,"left_children":[-1],"loss_changes":[9.211676E-7],"parents":[2147483647],"right_children":[-1],"split_conditions":[-3.1021466E-10],"split_indices":[0],"split_type":[0],"sum_hessian":[1.953E5],"tree_param":{"num_deleted":"0","num_feature":"3","num_nodes":"1","size_leaf_vector":"0"}},{"base_weights":[-1.0340488E-9],"categories":[],"categories_nodes":[],"categories_segments":[],"categories_sizes":[],"default_left":[false],"id":56,"left_children":[-1],"loss_changes":[9.211676E-7],"parents":[2147483647],"right_children":[-1],"split_conditions":[-3.1021466E-10],"split_indices":[0],"split_type":[0],"sum_hessian":[1.953E5],"tree_param":{"num_deleted":"0","num_feature":"3","num_nodes":"1","size_leaf_vector":"0"}},{"base_weights":[-1.0340488E-9],"categories":[],"categories_nodes":[],"categories_segments":[],"categories_sizes":[],"default_left":[false],"id":57,"left_children":[-1],"loss_changes":[9.211676E-7],"parents":[2147483647],"right_children":[-1],"split_conditions":[-3.1021466E-10],"split_indices":[0],"split_type":[0],"sum_hessian":[1.953E5],"tree_param":{"num_deleted":"0","num_feature":"3","num_nodes":"1","size_leaf_vector":"0"}},{"base_weights":[-1.0340488E-9],"categories":[],"categories_nodes":[],"categories_segments":[],"categories_sizes":[],"default_left":[false],"id":58,"left_children":[-1],"loss_changes":[9.211676E-7],"parents":[2147483647],"right_children":[-1],"split_conditions":[-3.1021466E-10],"split_indices":[0],"split_type":[0],"sum_hessian":[1.953E5],"tree_param":{"num_deleted":"0","num_feature":"3","num_nodes":"1","size_leaf_vector":"0"}},{"base_weights":[-1.0340488E-9],"categories":[],"categories_nodes":[],"categories_segments":[],"categories_sizes":[],"default_left":[false],"id":59,"left_children":[-1],"loss_changes":[9.211676E-7],"parents":[2147483647],"right_children":[-1],"split_conditions":[-3.1021466E-10],"split_indices":[0],"split_type":[0],"sum_hessian":[1.953E5],"tree_param":{"num_deleted":"0","num_feature":"3","num_nodes":"1","size_leaf_vector":"0"}},{"base_weights":[-1.0340488E-9],"categories":[],"categories_nodes":[],"categories_segments":[],"categories_sizes":[],"default_left":[false],"id":60,"left_children":[-1],"loss_changes":[9.211676E-7],"parents":[2147483647],"right_children":[-1],"split_conditions":[-3.1021466E-10],"split_indices":[0],"split_type":[0],"sum_hessian":[1.953E5],"tree_param":{"num_deleted":"0","num_feature":"3","num_nodes":"1","size_leaf_vector":"0"}},{"base_weights":[-1.0340488E-9],"categories":[],"categories_nodes":[],"categories_segments":[],"categories_sizes":[],"default_left":[false],"id":61,"left_children":[-1],"loss_changes":[9.211676E-7],"parents":[2147483647],"right_children":[-1],"split_conditions":[-3.1021466E-10],"split_indices":[0],"split_type":[0],"sum_hessian":[1.953E5],"tree_param":{"num_deleted":"0","num_feature":"3","num_nodes":"1","size_leaf_vector":"0"}},{"base_weights":[-1.0340488E-9],"categories":[],"categories_nodes":[],"categories_segments":[],"categories_sizes":[],"default_left":[false],"id":62,"left_children":[-1],"loss_changes":[9.211676E-7],"parents":[2147483647],"right_children":[-1],"split_conditions":[-3.1021466E-10],"split_indices":[0],"split_type":[0],"sum_hessian":[1.953E5],"tree_param":{"num_deleted":"0","num_feature":"3","num_nodes":"1","size_leaf_vector":"0"}},{"base_weights":[-1.0340488E-9],"categories":[],"categories_nodes":[],"categories_segments":[],"categories_sizes":[],"default_left":[false],"id":63,"left_children":[-1],"loss_changes":[9.211676E-7],"parents":[2147483647],"right_children":[-1],"split_conditions":[-3.1021466E-10],"split_indices":[0],"split_type":[0],"sum_hessian":[1.953E5],"tree_param":{"num_deleted":"0","num_feature":"3","num_nodes":"1","size_leaf_vector":"0"}},{"base_weights":[-1.0340488E-9],"categories":[],"categories_nodes":[],"categories_segments":[],"categories_sizes":[],"default_left":[false],"id":64,"left_children":[-1],"loss_changes":[9.211676E-7],"parents":[2147483647],"right_children":[-1],"split_conditions":[-3.1021466E-10],"split_indices":[0],"split_type":[0],"sum_hessian":[1.953E5],"tree_param":{"num_deleted":"0","num_feature":"3","num_nodes":"1","size_leaf_vector":"0"}},{"base_weights":[-1.0340488E-9],"categories":[],"categories_nodes":[],"categories_segments":[],"categories_sizes":[],"default_left":[false],"id":65,"left_children":[-1],"loss_changes":[9.211676E-7],"parents":[2147483647],"right_children":[-1],"split_conditions":[-3.1021466E-10],"split_indices":[0],"split_type":[0],"sum_hessian":[1.953E5],"tree_param":{"num_deleted":"0","num_feature":"3","num_nodes":"1","size_leaf_vector":"0"}},{"base_weights":[-1.0340488E-9],"categories":[],"categories_nodes":[],"categories_segments":[],"categories_sizes":[],"default_left":[false],"id":66,"left_children":[-1],"loss_changes":[9.211676E-7],"parents":[2147483647],"right_children":[-1],"split_conditions":[-3.1021466E-10],"split_indices":[0],"split_type":[0],"sum_hessian":[1.953E5],"tree_param":{"num_deleted":"0","num_feature":"3","num_nodes":"1","size_leaf_vector":"0"}},{"base_weights":[-1.0340488E-9],"categories":[],"categories_nodes":[],"categories_segments":[],"categories_sizes":[],"default_left":[false],"id":67,"left_children":[-1],"loss_changes":[9.211676E-7],"parents":[2147483647],"right_children":[-1],"split_conditions":[-3.1021466E-10],"split_indices":[0],"split_type":[0],"sum_hessian":[1.953E5],"tree_param":{"num_deleted":"0","num_feature":"3","num_nodes":"1","size_leaf_vector":"0"}},{"base_weights":[-1.0340488E-9],"categories":[],"categories_nodes":[],"categories_segments":[],"categories_sizes":[],"default_left":[false],"id":68,"left_children":[-1],"loss_changes":[9.211676E-7],"parents":[2147483647],"right_children":[-1],"split_conditions":[-3.1021466E-10],"split_indices":[0],"split_type":[0],"sum_hessian":[1.953E5],"tree_param":{"num_deleted":"0","num_feature":"3","num_nodes":"1","size_leaf_vector":"0"}},{"base_weights":[-1.0340488E-9],"categories":[],"categories_nodes":[],"categories_segments":[],"categories_sizes":[],"default_left":[false],"id":69,"left_children":[-1],"loss_changes":[9.211676E-7],"parents":[2147483647],"right_children":[-1],"split_conditions":[-3.1021466E-10],"split_indices":[0],"split_type":[0],"sum_hessian":[1.953E5],"tree_param":{"num_deleted":"0","num_feature":"3","num_nodes":"1","size_leaf_vector":"0"}},{"base_weights":[-1.0340488E-9],"categories":[],"categories_nodes":[],"categories_segments":[],"categories_sizes":[],"default_left":[false],"id":70,"left_children":[-1],"loss_changes":[9.211676E-7],"parents":[2147483647],"right_children":[-1],"split_conditions":[-3.1021466E-10],"split_indices":[0],"split_type":[0],"sum_hessian":[1.953E5],"tree_param":{"num_deleted":"0","num_feature":"3","num_nodes":"1","size_leaf_vector":"0"}},{"base_weights":[-1.0340488E-9],"categories":[],"categories_nodes":[],"categories_segments":[],"categories_sizes":[],"default_left":[false],"id":71,"left_children":[-1],"loss_changes":[9.211676E-7],"parents":[2147483647],"right_children":[-1],"split_conditions":[-3.1021466E-10],"split_indices":[0],"split_type":[0],"sum_hessian":[1.953E5],"tree_param":{"num_deleted":"0","num_feature":"3","num_nodes":"1","size_leaf_vector":"0"}},{"base_weights":[-1.0340488E-9],"categories":[],"categories_nodes":[],"categories_segments":[],"categories_sizes":[],"default_left":[false],"id":72,"left_children":[-1],"loss_changes":[9.211676E-7],"parents":[2147483647],"right_children":[-1],"split_conditions":[-3.1021466E-10],"split_indices":[0],"split_type":[0],"sum_hessian":[1.953E5],"tree_param":{"num_deleted":"0","num_feature":"3","num_nodes":"1","size_leaf_vector":"0"}},{"base_weights":[-1.0340488E-9],"categories":[],"categories_nodes":[],"categories_segments":[],"categories_sizes":[],"default_left":[false],"id":73,"left_children":[-1],"loss_changes":[9.211676E-7],"parents":[2147483647],"right_children":[-1],"split_conditions":[-3.1021466E-10],"split_indices":[0],"split_type":[0],"sum_hessian":[1.953E5],"tree_param":{"num_deleted":"0","num_feature":"3","num_nodes":"1","size_leaf_vector":"0"}},{"base_weights":[-1.0340488E-9],"categories":[],"categories_nodes":[],"categories_segments":[],"categories_sizes":[],"default_left":[false],"id":74,"left_children":[-1],"loss_changes":[9.211676E-7],"parents":[2147483647],"right_children":[-1],"split_conditions":[-3.1021466E-10],"split_indices":[0],"split_type":[0],"sum_hessian":[1.953E5],"tree_param":{"num_deleted":"0","num_feature":"3","num_nodes":"1","size_leaf_vector":"0"}},{"base_weights":[-1.0340488E-9],"categories":[],"categories_nodes":[],"categories_segments":[],"categories_sizes":[],"default_left":[false],"id":75,"left_children":[-1],"loss_changes":[9.211676E-7],"parents":[2147483647],"right_children":[-1],"split_conditions":[-3.1021466E-10],"split_indices":[0],"split_type":[0],"sum_hessian":[1.953E5],"tree_param":{"num_deleted":"0","num_feature":"3","num_nodes":"1","size_leaf_vector":"0"}},{"base_weights":[-1.0340488E-9],"categories":[],"categories_nodes":[],"categories_segments":[],"categories_sizes":[],"default_left":[false],"id":76,"left_children":[-1],"loss_changes":[9.211676E-7],"parents":[2147483647],"right_children":[-1],"split_conditions":[-3.1021466E-10],"split_indices":[0],"split_type":[0],"sum_hessian":[1.953E5],"tree_param":{"num_deleted":"0","num_feature":"3","num_nodes":"1","size_leaf_vector":"0"}},{"base_weights":[-1.0340488E-9],"categories":[],"categories_nodes":[],"categories_segments":[],"categories_sizes":[],"default_left":[false],"id":77,"left_children":[-1],"loss_changes":[9.211676E-7],"parents":[2147483647],"right_children":[-1],"split_conditions":[-3.1021466E-10],"split_indices":[0],"split_type":[0],"sum_hessian":[1.953E5],"tree_param":{"num_deleted":"0","num_feature":"3","num_nodes":"1","size_leaf_vector":"0"}},{"base_weights":[-1.0340488E-9],"categories":[],"categories_nodes":[],"categories_segments":[],"categories_sizes":[],"default_left":[false],"id":78,"left_children":[-1],"loss_changes":[9.211676E-7],"parents":[2147483647],"right_children":[-1],"split_conditions":[-3.1021466E-10],"split_indices":[0],"split_type":[0],"sum_hessian":[1.953E5],"tree_param":{"num_deleted":"0","num_feature":"3","num_nodes":"1","size_leaf_vector":"0"}},{"base_weights":[-1.0340488E-9],"categories":[],"categories_nodes":[],"categories_segments":[],"categories_sizes":[],"default_left":[false],"id":79,"left_children":[-1],"loss_changes":[9.211676E-7],"parents":[2147483647],"right_children":[-1],"split_conditions":[-3.1021466E-10],"split_indices":[0],"split_type":[0],"sum_hessian":[1.953E5],"tree_param":{"num_deleted":"0","num_feature":"3","num_nodes":"1","size_leaf_vector":"0"}},{"base_weights":[-1.0340488E-9],"categories":[],"categories_nodes":[],"categories_segments":[],"categories_sizes":[],"default_left":[false],"id":80,"left_children":[-1],"loss_changes":[9.211676E-7],"parents":[2147483647],"right_children":[-1],"split_conditions":[-3.1021466E-10],"split_indices":[0],"split_type":[0],"sum_hessian":[1.953E5],"tree_param":{"num_deleted":"0","num_feature":"3","num_nodes":"1","size_leaf_vector":"0"}},{"base_weights":[-1.0340488E-9],"categories":[],"categories_nodes":[],"categories_segments":[],"categories_sizes":[],"default_left":[false],"id":81,"left_children":[-1],"loss_changes":[9.211676E-7],"parents":[2147483647],"right_children":[-1],"split_conditions":[-3.1021466E-10],"split_indices":[0],"split_type":[0],"sum_hessian":[1.953E5],"tree_param":{"num_deleted":"0","num_feature":"3","num_nodes":"1","size_leaf_vector":"0"}},{"base_weights":[-1.0340488E-9],"categories":[],"categories_nodes":[],"categories_segments":[],"categories_sizes":[],"default_left":[false],"id":82,"left_children":[-1],"loss_changes":[9.211676E-7],"parents":[2147483647],"right_children":[-1],"split_conditions":[-3.1021466E-10],"split_indices":[0],"split_type":[0],"sum_hessian":[1.953E5],"tree_param":{"num_deleted":"0","num_feature":"3","num_nodes":"1","size_leaf_vector":"0"}},{"base_weights":[-1.0340488E-9],"categories":[],"categories_nodes":[],"categories_segments":[],"categories_sizes":[],"default_left":[false],"id":83,"left_children":[-1],"loss_changes":[9.211676E-7],"parents":[2147483647],"right_children":[-1],"split_conditions":[-3.1021466E-10],"split_indices":[0],"split_type":[0],"sum_hessian":[1.953E5],"tree_param":{"num_deleted":"0","num_feature":"3","num_nodes":"1","size_leaf_vector":"0"}},{"base_weights":[-1.0340488E-9],"categories":[],"categories_nodes":[],"categories_segments":[],"categories_sizes":[],"default_left":[false],"id":84,"left_children":[-1],"loss_changes":[9.211676E-7],"parents":[2147483647],"right_children":[-1],"split_conditions":[-3.1021466E-10],"split_indices":[0],"split_type":[0],"sum_hessian":[1.953E5],"tree_param":{"num_deleted":"0","num_feature":"3","num_nodes":"1","size_leaf_vector":"0"}},{"base_weights":[-1.0340488E-9],"categories":[],"categories_nodes":[],"categories_segments":[],"categories_sizes":[],"default_left":[false],"id":85,"left_children":[-1],"loss_changes":[9.211676E-7],"parents":[2147483647],"right_children":[-1],"split_conditions":[-3.1021466E-10],"split_indices":[0],"split_type":[0],"sum_hessian":[1.953E5],"tree_param":{"num_deleted":"0","num_feature":"3","num_nodes":"1","size_leaf_vector":"0"}},{"base_weights":[-1.0340488E-9],"categories":[],"categories_nodes":[],"categories_segments":[],"categories_sizes":[],"default_left":[false],"id":86,"left_children":[-1],"loss_changes":[9.211676E-7],"parents":[2147483647],"right_children":[-1],"split_conditions":[-3.1021466E-10],"split_indices":[0],"split_type":[0],"sum_hessian":[1.953E5],"tree_param":{"num_deleted":"0","num_feature":"3","num_nodes":"1","size_leaf_vector":"0"}},{"base_weights":[-1.0340488E-9],"categories":[],"categories_nodes":[],"categories_segments":[],"categories_sizes":[],"default_left":[false],"id":87,"left_children":[-1],"loss_changes":[9.211676E-7],"parents":[2147483647],"right_children":[-1],"split_conditions":[-3.1021466E-10],"split_indices":[0],"split_type":[0],"sum_hessian":[1.953E5],"tree_param":{"num_deleted":"0","num_feature":"3","num_nodes":"1","size_leaf_vector":"0"}},{"base_weights":[-1.0340488E-9],"categories":[],"categories_nodes":[],"categories_segments":[],"categories_sizes":[],"default_left":[false],"id":88,"left_children":[-1],"loss_changes":[9.211676E-7],"parents":[2147483647],"right_children":[-1],"split_conditions":[-3.1021466E-10],"split_indices":[0],"split_type":[0],"sum_hessian":[1.953E5],"tree_param":{"num_deleted":"0","num_feature":"3","num_nodes":"1","size_leaf_vector":"0"}},{"base_weights":[-1.0340488E-9],"categories":[],"categories_nodes":[],"categories_segments":[],"categories_sizes":[],"default_left":[false],"id":89,"left_children":[-1],"loss_changes":[9.211676E-7],"parents":[2147483647],"right_children":[-1],"split_conditions":[-3.1021466E-10],"split_indices":[0],"split_type":[0],"sum_hessian":[1.953E5],"tree_param":{"num_deleted":"0","num_feature":"3","num_nodes":"1","size_leaf_vector":"0"}},{"base_weights":[-1.0340488E-9],"categories":[],"categories_nodes":[],"categories_segments":[],"categories_sizes":[],"default_left":[false],"id":90,"left_children":[-1],"loss_changes":[9.211676E-7],"parents":[2147483647],"right_children":[-1],"split_conditions":[-3.1021466E-10],"split_indices":[0],"split_type":[0],"sum_hessian":[1.953E5],"tree_param":{"num_deleted":"0","num_feature":"3","num_nodes":"1","size_leaf_vector":"0"}},{"base_weights":[-1.0340488E-9],"categories":[],"categories_nodes":[],"categories_segments":[],"categories_sizes":[],"default_left":[false],"id":91,"left_children":[-1],"loss_changes":[9.211676E-7],"parents":[2147483647],"right_children":[-1],"split_conditions":[-3.1021466E-10],"split_indices":[0],"split_type":[0],"sum_hessian":[1.953E5],"tree_param":{"num_deleted":"0","num_feature":"3","num_nodes":"1","size_leaf_vector":"0"}},{"base_weights":[-1.0340488E-9],"categories":[],"categories_nodes":[],"categories_segments":[],"categories_sizes":[],