{"learner":{"attributes":{"best_iteration":"99","best_ntree_limit":"100","scikit_learn":"{\"n_estimators\": 100, \"objective\": \"reg:squarederror\", \"max_depth\": null, \"learning_rate\": null, \"verbosity\": null, \"booster\": null, \"tree_method\": null, \"gamma\": null, \"min_child_weight\": null, \"max_delta_step\": null, \"subsample\": null, \"colsample_bytree\": null, \"colsample_bylevel\": null, \"colsample_bynode\": null, \"reg_alpha\": null, \"reg_lambda\": null, \"scale_pos_weight\": null, \"base_score\": null, \"missing\": NaN, \"num_parallel_tree\": null, \"random_state\": null, \"n_jobs\": null, \"monotone_constraints\": null, \"interaction_constraints\": null, \"importance_type\": null, \"gpu_id\": null, \"validate_parameters\": null, \"predictor\": null, \"enable_categorical\": false, \"kwargs\": {\"eval_metric\": \"mape\"}, \"_estimator_type\": \"regressor\"}"},"feature_names":[],"feature_types":[],"gradient_booster":{"model":{"gbtree_model_param":{"num_trees":"100","size_leaf_vector":"0"},"tree_info":[0,0,0,0,0,0,0,0,0,0,0,0,0,0,0,0,0,0,0,0,0,0,0,0,0,0,0,0,0,0,0,0,0,0,0,0,0,0,0,0,0,0,0,0,0,0,0,0,0,0,0,0,0,0,0,0,0,0,0,0,0,0,0,0,0,0,0,0,0,0,0,0,0,0,0,0,0,0,0,0,0,0,0,0,0,0,0,0,0,0,0,0,0,0,0,0,0,0,0,0],"trees":[{"base_weights":[3.075499E-1,-4.6353556E-2,5.818211E0,-2.79961E-1,9.816014E-1,-4.140834E-1,1.460165E1,-4.287936E-1,-5.6738514E-2,-2.821933E-1,2.0807517E0,-4.2012137E-1,-3.7782714E-1,1.18067E1,2.102854E1,-4.4681838E-1,-4.0732175E-1,-1.2617704E-1,2.7096741E0,-3.1686983E-1,8.0467737E-1,3.1947465E0,2.5239208E-1,-4.30087E-1,-3.9030406E-1,-3.4969077E-1,-4.0534776E-1,1.13139925E1,1.2455282E1,-4.5144147E-1,-4.3144628E-1,-4.4019613E-1,-3.898011E-1,-3.560984E-1,2.091512E-1,2.4972854E0,2.8145247E0,-4.3563384E-1,-1.7194414E-1,1.7564614E0,6.5049586E0,-3.1738913E-1,1.012267E0,-4.5171005E-1,-4.129715E-1,-4.535694E-1,-4.4334626E-1,-4.4426748E-1,-4.2449632E-1,-4.5315194E-1,-4.3677202E-1,-4.0535757E-1,-3.4097555E-1,-1.028961E-1,-3.9350474E-1,-2.218319E-3,8.4605473E-1,-4.422742E-1,-4.2600286E-1,-4.0619728E-1,-1.3344762E-1,4.1634073E0,2.9841784E-1,4.278693E0,8.16651E0,-3.808607E-1,1.3400523E-1,1.7030782E-1,1.8679334E0,-4.088366E-1,-4.2874205E-1],"categories":[],"categories_nodes":[],"categories_segments":[],"categories_sizes":[],"default_left":[true,true,true,true,true,true,true,true,true,true,true,true,true,true,false,true,true,true,true,true,false,true,true,true,false,false,false,false,false,true,true,true,true,true,true,false,false,true,true,true,true,true,true,false,true,false,false,false,false,false,false,false,false,false,false,false,false,false,false,false,false,false,false,false,false,false,false,false,false,false,false],"id":0,"left_children":[1,3,5,7,9,11,13,15,17,19,21,23,25,27,-1,29,31,33,35,37,-1,39,41,43,-1,-1,-1,-1,-1,45,47,49,51,53,55,-1,-1,57,59,61,63,65,67,-1,69,-1,-1,-1,-1,-1,-1,-1,-1,-1,-1,-1,-1,-1,-1,-1,-1,-1,-1,-1,-1,-1,-1,-1,-1,-1,-1],"loss_changes":[5.406094E5,6.2549957E4,9.157131E5,7.051248E3,6.700106E4,1.9836426E0,1.24467625E5,4.9101562E1,1.6310027E4,8.458805E2,5.2542094E4,2.3222656E0,9.4773865E-1,1.406125E3,0E0,4.7246094E0,3.330664E1,6.3858877E3,3.926758E1,3.741819E2,0E0,7.6307875E4,4.2294985E3,2.1342773E0,0E0,0E0,0E0,0E0,0E0,7.158203E-1,1.2392578E0,6.9799805E-1,2.8667969E1,4.6534424E2,4.535552E3,0E0,0E0,5.7592773E-1,8.827646E1,3.922017E4,1.7923953E4,1.60008E2,3.0154272E3,0E0,5.3710938E-2,0E0,0E0,0E0,0E0,0E0,0E0,0E0,0E0,0E0,0E0,0E0,0E0,0E0,0E0,0E0,0E0,0E0,0E0,0E0,0E0,0E0,0E0,0E0,0E0,0E0,0E0],"parents":[2147483647,0,0,1,1,2,2,3,3,4,4,5,5,6,6,7,7,8,8,9,9,10,10,11,11,12,12,13,13,15,15,16,16,17,17,18,18,19,19,21,21,22,22,23,23,29,29,30,30,31,31,32,32,33,33,34,34,37,37,38,38,39,39,40,40,41,41,42,42,44,44],"right_children":[2,4,6,8,10,12,14,16,18,20,22,24,26,28,-1,30,32,34,36,38,-1,40,42,44,-1,-1,-1,-1,-1,46,48,50,52,54,56,-1,-1,58,60,62,64,66,68,-1,70,-1,-1,-1,-1,-1,-1,-1,-1,-1,-1,-1,-1,-1,-1,-1,-1,-1,-1,-1,-1,-1,-1,-1,-1,-1,-1],"split_conditions":[5.44E2,1.76E2,5.44E2,2E0,1.76E2,2.56E2,7.68E2,3.04E2,1.36E2,1.75E1,4.32E2,1.5E0,4.16E2,1.5E0,6.3085623E0,1.12E2,1.5E0,4E1,6E0,2E0,2.4140322E-1,2.72E2,2E0,1.28E2,-1.1709122E-1,-1.0490724E-1,-1.2160433E-1,3.394198E0,3.736585E0,1.68E2,1.12E2,1.12E2,5.92E2,2.8E1,6.8E1,7.491856E-1,8.4435743E-1,5.6E1,1.5E0,2.48E2,3.36E2,9.92E2,1.5E0,-1.3551302E-1,1.152E3,-1.3607083E-1,-1.3300389E-1,-1.3328025E-1,-1.273489E-1,-1.3594559E-1,-1.3103162E-1,-1.21607274E-1,-1.0229267E-1,-3.0868832E-2,-1.18051425E-1,-6.6549575E-4,2.5381643E-1,-1.3268226E-1,-1.2780087E-1,-1.21859185E-1,-4.0034287E-2,1.2490222E0,8.952536E-2,1.283608E0,2.449953E0,-1.1425821E-1,4.020157E-2,5.1092345E-2,5.6038004E-1,-1.2265099E-1,-1.2862262E-1],"split_indices":[4,4,0,3,0,0,0,0,0,1,0,1,0,1,0,4,1,4,1,3,0,0,3,0,0,0,0,0,0,0,0,4,0,4,0,0,0,0,1,4,4,0,1,0,4,0,0,0,0,0,0,0,0,0,0,0,0,0,0,0,0,0,0,0,0,0,0,0,0,0,0],"split_type":[0,0,0,0,0,0,0,0,0,0,0,0,0,0,0,0,0,0,0,0,0,0,0,0,0,0,0,0,0,0,0,0,0,0,0,0,0,0,0,0,0,0,0,0,0,0,0,0,0,0,0,0,0,0,0,0,0,0,0,0,0,0,0,0,0,0,0,0,0,0,0],"sum_hessian":[2.772E5,2.60473E5,1.6727E4,2.12241E5,4.8232E4,9.785E3,6.942E3,1.27338E5,8.4903E4,2.2436E4,2.5796E4,8.379E3,1.406E3,4.84E3,2.102E3,6.9215E4,5.8123E4,8.2825E4,2.078E3,2.1743E4,6.93E2,1.6029E4,9.767E3,6.27E3,2.109E3,7.02E2,7.04E2,2.761E3,2.079E3,5.319E4,1.6025E4,2.0199E4,3.7924E4,4.9135E4,3.369E4,6.95E2,1.383E3,1.1949E4,9.794E3,1.1175E4,4.854E3,5.582E3,4.185E3,2.759E3,3.511E3,4.2075E4,1.1115E4,5.611E3,1.0414E4,4.195E3,1.6004E4,2.8755E4,9.169E3,6.325E3,4.281E4,2.5296E4,8.394E3,7.046E3,4.903E3,1.381E3,8.413E3,4.215E3,6.96E3,2.076E3,2.778E3,4.894E3,6.88E2,2.11E3,2.075E3,2.803E3,7.08E2],"tree_param":{"num_deleted":"0","num_feature":"7","num_nodes":"71","size_leaf_vector":"0"}},{"base_weights":[2.153528E-1,-3.2424044E-2,4.0735073E0,-1.9596949E-1,6.8723357E-1,-2.89933E-1,1.022309E1,-3.0016354E-1,-3.9696973E-2,-1.9754337E-1,1.4567436E0,-2.9414508E-1,-2.6463997E-1,8.266163E0,1.4722978E1,-3.12998E-1,-2.8447175E-1,-8.832268E-2,1.8975384E0,-2.2182828E-1,5.63622E-1,2.236639E0,1.7672949E-1,-3.0112258E-1,-2.732683E-1,-2.4493276E-1,-2.8391594E-1,7.9210234E0,8.720494E0,-3.167866E-1,-3.041199E-1,-3.0574858E-1,-2.7621925E-1,1.2792337E-1,-2.9057568E-1,1.7491763E0,1.9707772E0,-3.0496547E-1,-1.20377414E-1,1.2296427E0,4.5542397E0,-2.2218566E-1,7.0873296E-1,-3.1624612E-1,-2.891516E-1,-3.1743243E-1,-3.060945E-1,-3.181211E-1,-2.998431E-1,-3.078806E-1,-2.9549542E-1,-2.9734203E-1,-2.4569997E-1,-3.0050468E-2,9.7194046E-1,-2.7691302E-1,-5.572284E-1,-3.1352898E-1,-3.002068E-1,-1.9411312E-1,-4.5402665E-2,2.9146814E0,2.0890535E-1,5.1960278E0,5.858712E-1,-2.6662582E-1,9.3862034E-2,1.1923969E-1,1.3078233E0,-2.8622934E-1,-3.0030084E-1],"categories":[],"categories_nodes":[],"categories_segments":[],"categories_sizes":[],"default_left":[true,true,true,true,true,true,true,true,true,true,true,true,true,true,false,true,true,true,true,true,false,true,true,true,false,false,false,false,false,true,true,true,true,true,true,false,false,true,true,true,true,true,true,false,true,false,false,false,false,false,false,false,false,false,false,false,false,false,false,false,false,false,false,false,false,false,false,false,false,false,false],"id":1,"left_children":[1,3,5,7,9,11,13,15,17,19,21,23,25,27,-1,29,31,33,35,37,-1,39,41,43,-1,-1,-1,-1,-1,45,47,49,51,53,55,-1,-1,57,59,61,63,65,67,-1,69,-1,-1,-1,-1,-1,-1,-1,-1,-1,-1,-1,-1,-1,-1,-1,-1,-1,-1,-1,-1,-1,-1,-1,-1,-1,-1],"loss_changes":[2.6499356E5,3.0657068E4,4.4887106E5,3.4558535E3,3.2839473E4,9.647217E-1,6.1018062E4,2.555664E1,7.998076E3,4.1486926E2,2.5752156E4,1.1383667E0,4.6494293E-1,6.9E2,0E0,2.2592773E0,9.977539E0,3.622549E3,1.9143066E1,1.8335962E2,0E0,3.740546E4,2.073164E3,1.0439453E0,0E0,0E0,0E0,0E0,0E0,2.4121094E-1,1.1605225E0,2.5891113E-1,2.6550293E1,5.3372E3,1.557666E2,0E0,0E0,3.9294434E-1,5.4141052E1,1.9221912E4,1.2361914E4,7.843948E1,1.4781707E3,0E0,2.84729E-2,0E0,0E0,0E0,0E0,0E0,0E0,0E0,0E0,0E0,0E0,0E0,0E0,0E0,0E0,0E0,0E0,0E0,0E0,0E0,0E0,0E0,0E0,0E0,0E0,0E0,0E0],"parents":[2147483647,0,0,1,1,2,2,3,3,4,4,5,5,6,6,7,7,8,8,9,9,10,10,11,11,12,12,13,13,15,15,16,16,17,17,18,18,19,19,21,21,22,22,23,23,29,29,30,30,31,31,32,32,33,33,34,34,37,37,38,38,39,39,40,40,41,41,42,42,44,44],"right_children":[2,4,6,8,10,12,14,16,18,20,22,24,26,28,-1,30,32,34,36,38,-1,40,42,44,-1,-1,-1,-1,-1,46,48,50,52,54,56,-1,-1,58,60,62,64,66,68,-1,70,-1,-1,-1,-1,-1,-1,-1,-1,-1,-1,-1,-1,-1,-1,-1,-1,-1,-1,-1,-1,-1,-1,-1,-1,-1,-1],"split_conditions":[5.44E2,1.76E2,5.44E2,2E0,1.76E2,2.56E2,7.68E2,1.04E2,1.36E2,1.75E1,4.32E2,1.5E0,4.16E2,1.5E0,4.4168935E0,2.48E2,1.5E0,1.12E2,6E0,2E0,1.690866E-1,2.72E2,2E0,1.28E2,-8.19805E-2,-7.347983E-2,-8.5174784E-2,2.376307E0,2.6161485E0,1.2E1,1.5E0,9.44E2,4.96E2,6.8E1,8E1,5.247529E-1,5.912332E-1,4.4E1,1.2E2,2.48E2,7.5E0,9.92E2,1.5E0,-9.487384E-2,1.152E3,-9.522974E-2,-9.182835E-2,-9.5436335E-2,-8.995293E-2,-9.2364185E-2,-8.864863E-2,-8.920261E-2,-7.3709995E-2,-9.015141E-3,2.9158214E-1,-8.307391E-2,-1.6716853E-1,-9.40587E-2,-9.0062045E-2,-5.823394E-2,-1.36208E-2,8.744045E-1,6.267161E-2,1.5588084E0,1.7576137E-1,-7.998775E-2,2.815861E-2,3.5771906E-2,3.92347E-1,-8.5868806E-2,-9.009025E-2],"split_indices":[4,4,0,3,0,0,0,4,0,1,0,1,0,1,0,0,1,0,1,3,0,0,3,0,0,0,0,0,0,1,1,0,0,0,4,0,0,0,0,4,1,0,1,0,4,0,0,0,0,0,0,0,0,0,0,0,0,0,0,0,0,0,0,0,0,0,0,0,0,0,0],"split_type":[0,0,0,0,0,0,0,0,0,0,0,0,0,0,0,0,0,0,0,0,0,0,0,0,0,0,0,0,0,0,0,0,0,0,0,0,0,0,0,0,0,0,0,0,0,0,0,0,0,0,0,0,0,0,0,0,0,0,0,0,0,0,0,0,0,0,0,0,0,0,0],"sum_hessian":[2.772E5,2.60473E5,1.6727E4,2.12241E5,4.8232E4,9.785E3,6.942E3,1.27338E5,8.4903E4,2.2436E4,2.5796E4,8.379E3,1.406E3,4.84E3,2.102E3,7.0036E4,5.7302E4,8.2825E4,2.078E3,2.1743E4,6.93E2,1.6029E4,9.767E3,6.27E3,2.109E3,7.02E2,7.04E2,2.761E3,2.079E3,4.9064E4,2.0972E4,1.6004E4,4.1298E4,4.0028E4,4.2797E4,6.95E2,1.383E3,1.1949E4,9.794E3,1.1175E4,4.854E3,5.582E3,4.185E3,2.759E3,3.511E3,4.6242E4,2.822E3,4.89E3,1.6082E4,1.3225E4,2.779E3,2.4401E4,1.6897E4,3.3718E4,6.31E3,4.0713E4,2.084E3,4.245E3,7.704E3,4.937E3,4.857E3,4.215E3,6.96E3,4.178E3,6.76E2,4.894E3,6.88E2,2.11E3,2.075E3,2.803E3,7.08E2],"tree_param":{"num_deleted":"0","num_feature":"7","num_nodes":"71","size_leaf_vector":"0"}},{"base_weights":[1.507913E-1,-2.2683803E-2,2.8519871E0,-1.1986981E-1,5.783278E-1,-2.0300536E-1,7.1575184E0,-2.1014696E-1,1.0020445E-2,-2.0700477E-1,1.0327204E0,-2.0594366E-1,-1.8536074E-1,5.7873454E0,1.0308184E1,-2.1919745E-1,-1.9908798E-1,-6.250462E-2,1.5330791E0,-2.219006E-1,6.5744296E-2,4.424615E-1,1.9420881E0,-2.1082899E-1,-1.9132666E-1,-1.7155744E-1,-1.9886196E-1,5.545577E0,6.105603E0,-2.2185805E-1,-2.1223153E-1,-2.1640342E-1,-1.897061E-1,-7.597945E-2,1.5991485E0,1.3288136E0,1.7344761E0,-2.0357361E-1,-5.3322077E-1,2.3433595E0,1.0195513E-1,3.1883252E0,4.9621537E-1,-2.2140665E-1,-2.0245622E-1,-2.2354782E-1,-2.1864472E-1,-2.151759E-1,-1.9373624E-1,-2.1566403E-1,-2.3687516E-1,-1.9636667E-1,-1.5565178E-1,5.39656E-2,-2.0189919E-1,1.2251773E0,1.3799711E0,-2.14159E-1,-1.8408705E-1,-1.8456688E-3,8.753392E-1,1.8877848E0,4.15919E0,8.3484724E-2,9.156653E-1,-2.0039117E-1,-2.1033767E-1],"categories":[],"categories_nodes":[],"categories_segments":[],"categories_sizes":[],"default_left":[true,true,true,true,true,true,true,true,true,true,true,true,true,true,false,true,true,true,true,true,false,true,true,true,false,false,false,false,false,true,true,true,true,true,false,true,false,true,false,false,true,true,true,false,true,false,false,false,false,false,false,false,false,false,false,false,false,false,false,false,false,false,false,false,false,false,false],"id":2,"left_children":[1,3,5,7,9,11,13,15,17,19,21,23,25,27,-1,29,31,33,35,37,-1,39,41,43,-1,-1,-1,-1,-1,45,47,49,51,53,-1,55,-1,57,-1,-1,59,61,63,-1,65,-1,-1,-1,-1,-1,-1,-1,-1,-1,-1,-1,-1,-1,-1,-1,-1,-1,-1,-1,-1,-1,-1],"loss_changes":[1.29893734E5,1.5214333E4,2.2003092E5,2.6292095E3,1.2938501E4,4.6917725E-1,2.9913E4,1.3196289E1,1.0155672E4,5.400946E1,1.2327498E4,5.5807495E-1,2.280922E-1,3.38625E2,0E0,1.3010254E0,9.632324E0,1.9651332E3,1.696123E2,7.179291E1,0E0,9.015555E3,1.6287598E4,5.105591E-1,0E0,0E0,0E0,0E0,0E0,2.368164E-1,1.0543213E0,2.6550293E-1,8.731079E0,1.4244775E3,0E0,9.331543E0,0E0,2.4158325E0,0E0,0E0,9.484046E2,6.1223125E3,7.246033E2,0E0,1.5014648E-2,0E0,0E0,0E0,0E0,0E0,0E0,0E0,0E0,0E0,0E0,0E0,0E0,0E0,0E0,0E0,0E0,0E0,0E0,0E0,0E0,0E0,0E0],"parents":[2147483647,0,0,1,1,2,2,3,3,4,4,5,5,6,6,7,7,8,8,9,9,10,10,11,11,12,12,13,13,15,15,16,16,17,17,18,18,19,19,21,21,22,22,23,23,29,29,30,30,31,31,32,32,33,33,35,35,37,37,40,40,41,41,42,42,44,44],"right_children":[2,4,6,8,10,12,14,16,18,20,22,24,26,28,-1,30,32,34,36,38,-1,40,42,44,-1,-1,-1,-1,-1,46,48,50,52,54,-1,56,-1,58,-1,-1,60,62,64,-1,66,-1,-1,-1,-1,-1,-1,-1,-1,-1,-1,-1,-1,-1,-1,-1,-1,-1,-1,-1,-1,-1,-1],"split_conditions":[5.44E2,2.32E2,5.44E2,2E0,2E0,2.56E2,7.68E2,3.04E2,1.36E2,9.92E2,2.72E2,1.5E0,4.16E2,1.5E0,3.0924551E0,1.52E2,1.5E0,1.28E2,1.68E2,4.48E2,1.9723289E-2,2.48E2,4.48E2,1.28E2,-5.7398003E-2,-5.1467236E-2,-5.965859E-2,1.6636732E0,1.831681E0,5E0,6E0,1.76E2,7.2E2,1.04E2,4.7974458E-1,6E0,5.203428E-1,9.6E1,-1.5996623E-1,7.030079E-1,1.05E1,3.36E2,1.5E0,-6.6422E-2,1.152E3,-6.7064345E-2,-6.559342E-2,-6.455277E-2,-5.8120873E-2,-6.469921E-2,-7.106255E-2,-5.891E-2,-4.6695534E-2,1.618968E-2,-6.056976E-2,3.675532E-1,4.1399136E-1,-6.4247705E-2,-5.5226117E-2,-5.5370067E-4,2.6260176E-1,5.663355E-1,1.2477571E0,2.504542E-2,2.746996E-1,-6.0117353E-2,-6.310131E-2],"split_indices":[4,4,0,3,3,0,0,0,0,0,0,1,0,1,0,0,1,1,0,4,0,4,0,0,0,0,0,0,0,1,1,4,0,0,0,1,0,0,0,0,1,4,1,0,4,0,0,0,0,0,0,0,0,0,0,0,0,0,0,0,0,0,0,0,0,0,0],"split_type":[0,0,0,0,0,0,0,0,0,0,0,0,0,0,0,0,0,0,0,0,0,0,0,0,0,0,0,0,0,0,0,0,0,0,0,0,0,0,0,0,0,0,0,0,0,0,0,0,0,0,0,0,0,0,0,0,0,0,0,0,0,0,0,0,0,0,0],"sum_hessian":[2.772E5,2.60473E5,1.6727E4,2.24217E5,3.6256E4,9.785E3,6.942E3,1.32279E5,9.1938E4,1.3289E4,2.2967E4,8.379E3,1.406E3,4.84E3,2.102E3,7.2735E4,5.9544E4,8.776E4,4.178E3,1.2601E4,6.88E2,1.3928E4,9.039E3,6.27E3,2.109E3,7.02E2,7.04E2,2.761E3,2.079E3,5.261E4,2.0125E4,2.0917E4,3.8627E4,8.7055E4,7.05E2,2.078E3,2.1E3,1.1902E4,6.99E2,2.115E3,1.1813E4,4.854E3,4.185E3,2.759E3,3.511E3,3.4434E4,1.8176E4,1.7352E4,2.773E3,2.0199E4,7.18E2,3.2304E4,6.323E3,4.2843E4,4.4212E4,6.95E2,1.383E3,7.706E3,4.196E3,1.0416E4,1.397E3,2.076E3,2.778E3,2.11E3,2.075E3,2.803E3,7.08E2],"tree_param":{"num_deleted":"0","num_feature":"7","num_nodes":"67","size_leaf_vector":"0"}},{"base_weights":[1.0559102E-1,-1.5863078E-2,1.9967633E0,-8.390334E-2,4.049072E-1,-1.4214034E-1,5.0112114E0,-1.4710663E-1,7.033202E-3,-8.288647E-2,7.638611E-1,-1.4419004E-1,-1.298315E-1,4.0518637E0,7.2172E0,-1.54333E-1,-1.3897315E-1,-4.374828E-2,1.0734669E0,-1.2154411E-1,7.2992873E-1,1.188913E0,1.251479E-1,-1.4761053E-1,-1.3395585E-1,-1.2016342E-1,-1.39288E-1,3.882506E0,4.274803E0,-1.5649712E-1,-1.5048227E-1,-1.3248144E-1,-1.5059035E-1,-5.3186126E-2,1.1200835E0,9.3054533E-1,1.214381E0,-1.028869E-1,-4.9779746E-1,5.298323E-1,2.2322013E0,-9.843842E-2,3.474224E-1,-1.5500872E-1,-1.4175445E-1,-1.5530758E-1,-1.6609754E-1,-1.5925708E-1,-1.4551614E-1,-1.5006156E-1,-1.1981293E-1,-1.5743908E-1,-1.4825988E-1,-2.6214063E-1,8.008104E-3,8.581522E-1,9.662788E-1,-1.4820716E-1,-1.8724801E-2,1.6406837E0,1.0788481E-1,2.6184158E0,-1.551295E-1,-1.2706646E-1,4.6049625E-2,5.8451194E-2,6.410981E-1,-1.4029527E-1,-1.4732535E-1],"categories":[],"categories_nodes":[],"categories_segments":[],"categories_sizes":[],"default_left":[true,true,true,true,true,true,true,true,true,true,true,true,true,true,false,true,true,true,true,true,false,true,true,true,false,false,false,false,false,true,true,true,true,true,false,true,false,true,false,true,true,true,true,false,true,false,false,false,false,false,false,false,false,false,false,false,false,false,false,false,false,false,false,false,false,false,false,false,false],"id":3,"left_children":[1,3,5,7,9,11,13,15,17,19,21,23,25,27,-1,29,31,33,35,37,-1,39,41,43,-1,-1,-1,-1,-1,45,47,49,51,53,-1,55,-1,57,-1,59,61,63,65,-1,67,-1,-1,-1,-1,-1,-1,-1,-1,-1,-1,-1,-1,-1,-1,-1,-1,-1,-1,-1,-1,-1,-1,-1,-1],"loss_changes":[6.3670508E4,7.4572275E3,1.07856414E5,1.2886915E3,6.3485E3,2.2817993E-1,1.4664297E4,7.753418E0,4.9790107E3,4.8306882E2,5.670384E3,2.7357483E-1,1.1190033E-1,1.6617969E2,0E0,5.600586E-1,4.6743164E0,9.640325E2,8.303369E1,1.02957886E2,0E0,8.62215E3,4.148595E2,2.4972534E-1,0E0,0E0,0E0,0E0,0E0,4.859619E-1,1.0760498E0,8.876953E0,3.3270264E-1,1.1131707E3,0E0,4.548828E0,0E0,5.332805E1,0E0,3.6028806E3,4.476824E3,1.7221592E1,3.552025E2,0E0,7.881165E-3,0E0,0E0,0E0,0E0,0E0,0E0,0E0,0E0,0E0,0E0,0E0,0E0,0E0,0E0,0E0,0E0,0E0,0E0,0E0,0E0,0E0,0E0,0E0,0E0],"parents":[2147483647,0,0,1,1,2,2,3,3,4,4,5,5,6,6,7,7,8,8,9,9,10,10,11,11,12,12,13,13,15,15,16,16,17,17,18,18,19,19,21,21,22,22,23,23,29,29,30,30,31,31,32,32,33,33,35,35,37,37,39,39,40,40,41,41,42,42,44,44],"right_children":[2,4,6,8,10,12,14,16,18,20,22,24,26,28,-1,30,32,34,36,38,-1,40,42,44,-1,-1,-1,-1,-1,46,48,50,52,54,-1,56,-1,58,-1,60,62,64,66,-1,68,-1,-1,-1,-1,-1,-1,-1,-1,-1,-1,-1,-1,-1,-1,-1,-1,-1,-1,-1,-1,-1,-1,-1,-1],"split_conditions":[5.44E2,2.32E2,5.44E2,2E0,2.16E2,2.56E2,7.68E2,1.04E2,1.36E2,1.05E1,4.48E2,1.5E0,4.16E2,1.5E0,2.16516E0,5.6E1,2.5E0,1.28E2,1.68E2,1.76E2,2.1897863E-1,2.72E2,2E0,1.28E2,-4.0186755E-2,-3.6049027E-2,-4.17864E-2,1.1647518E0,1.282441E0,4.32E2,1.5E0,1.5E0,4E1,4E1,3.3602506E-1,6E0,3.6431432E-1,9.6E1,-1.4933924E-1,2.48E2,7.5E0,9.92E2,1.5E0,-4.6502616E-2,1.152E3,-4.6592273E-2,-4.9829263E-2,-4.7777127E-2,-4.3654844E-2,-4.501847E-2,-3.594388E-2,-4.7231726E-2,-4.4477966E-2,-7.864219E-2,2.4024313E-3,2.5744566E-1,2.8988364E-1,-4.4462148E-2,-5.6174407E-3,4.922051E-1,3.2365445E-2,7.855248E-1,-4.6538852E-2,-3.8119942E-2,1.3814888E-2,1.7535359E-2,1.9232944E-1,-4.2088583E-2,-4.4197608E-2],"split_indices":[4,4,0,3,0,0,0,4,0,1,0,1,0,1,0,4,1,1,0,0,0,0,3,0,0,0,0,0,0,0,1,1,0,0,0,1,0,0,0,0,1,0,1,0,4,0,0,0,0,0,0,0,0,0,0,0,0,0,0,0,0,0,0,0,0,0,0,0,0],"split_type":[0,0,0,0,0,0,0,0,0,0,0,0,0,0,0,0,0,0,0,0,0,0,0,0,0,0,0,0,0,0,0,0,0,0,0,0,0,0,0,0,0,0,0,0,0,0,0,0,0,0,0,0,0,0,0,0,0,0,0,0,0,0,0,0,0,0,0,0,0],"sum_hessian":[2.772E5,2.60473E5,1.6727E4,2.24217E5,3.6256E4,9.785E3,6.942E3,1.32279E5,9.1938E4,1.537E4,2.0886E4,8.379E3,1.406E3,4.84E3,2.102E3,7.0036E4,6.2243E4,8.776E4,4.178E3,1.4673E4,6.97E2,1.254E4,8.346E3,6.27E3,2.109E3,7.02E2,7.04E2,2.761E3,2.079E3,4.4812E4,2.5224E4,3.9938E4,2.2305E4,8.7055E4,7.05E2,2.078E3,2.1E3,1.3981E4,6.92E2,7.686E3,4.854E3,4.161E3,4.185E3,2.759E3,3.511E3,3.9887E4,4.925E3,9.105E3,1.6119E4,1.6722E4,2.3216E4,5.646E3,1.6659E4,1.9719E4,6.7336E4,6.95E2,1.383E3,9.087E3,4.894E3,2.115E3,5.571E3,4.178E3,6.76E2,3.473E3,6.88E2,2.11E3,2.075E3,2.803E3,7.08E2],"tree_param":{"num_deleted":"0","num_feature":"7","num_nodes":"69","size_leaf_vector":"0"}},{"base_weights":[7.393768E-2,-1.1095401E-2,1.3979951E0,-5.872872E-2,2.8347555E-1,-9.952387E-2,3.5085125E0,-6.897733E-2,2.5568974E-1,-1.112924E-1,5.118882E-1,-1.0095367E-1,-9.093736E-2,2.8368096E0,5.05307E0,-1.02977365E-1,-1.5978437E-2,2.1409955E-2,4.9763364E-1,-1.7623118E-1,-8.856868E-2,2.262866E-1,9.5189184E-1,-1.03348546E-1,-9.3788154E-2,-8.416567E-2,-9.756086E-2,2.7181754E0,2.9929786E0,-1.0803579E-1,-9.7283974E-2,-5.0120268E-2,7.815083E-1,-1.648927E-1,7.845344E-1,5.2766865E-1,3.7621373E-1,-1.1762424E-1,-4.0580228E-1,-1.0442599E-1,8.309467E-3,1.1487111E0,6.105243E-2,1.5626931E0,2.4324584E-1,-1.08522944E-1,-9.925268E-2,-1.086913E-1,-9.93625E-2,-9.273904E-2,-1.0541734E-1,5.9567276E-2,-1.4571103E-1,6.766046E-1,8.5024005E-1,-1.7550579E-1,-1.3390397E-1,5.0301754E-1,6.0107654E-1,-1.3131353E-1,-1.0386927E-1,-1.0763036E-1,-8.863317E-2,-1.5339029E-2,3.225481E-2,1.109238E0,1.1683599E0,-2.739788E-1,1.6466625E-1,1.8330791E0,-1.0865942E-1,3.6552885E-1,-3.5189733E-1,-9.822169E-2,-1.03190094E-1],"categories":[],"categories_nodes":[],"categories_segments":[],"categories_sizes":[],"default_left":[true,true,true,true,true,true,true,true,true,true,true,true,true,true,false,true,true,true,true,true,true,true,true,true,false,false,false,false,false,true,true,true,true,true,false,true,false,true,false,true,true,true,true,true,true,false,true,false,false,false,false,false,false,false,false,false,false,false,false,false,false,false,false,false,false,false,false,false,false,false,false,false,false,false,false],"id":4,"left_children":[1,3,5,7,9,11,13,15,17,19,21,23,25,27,-1,29,31,33,35,37,39,41,43,45,-1,-1,-1,-1,-1,47,49,51,53,55,-1,57,-1,59,-1,61,63,65,67,69,71,-1,73,-1,-1,-1,-1,-1,-1,-1,-1,-1,-1,-1,-1,-1,-1,-1,-1,-1,-1,-1,-1,-1,-1,-1,-1,-1,-1,-1,-1],"loss_changes":[3.1209709E4,3.654829E3,5.286986E4,7.2252747E2,3.2693506E3,1.10954285E-1,7.188914E3,3.912787E2,4.011885E2,1.959578E1,2.8860757E3,1.3411713E-1,5.4896355E-2,8.155469E1,0E0,3.7990723E0,2.3106328E3,5.1152246E2,1.2499817E1,4.628942E1,1.5128098E1,2.122933E3,3.9125107E3,1.2213135E-1,0E0,0E0,0E0,0E0,0E0,3.8739014E-1,2.2911377E0,8.53277E2,2.4544922E1,9.276352E-1,0E0,4.744568E0,0E0,5.0323105E-1,0E0,4.186859E-1,7.8534687E-1,3.449707E-1,4.101547E2,2.1942236E3,3.0476855E2,0E0,4.119873E-3,0E0,0E0,0E0,0E0,0E0,0E0,0E0,0E0,0E0,0E0,0E0,0E0,0E0,0E0,0E0,0E0,0E0,0E0,0E0,0E0,0E0,0E0,0E0,0E0,0E0,0E0,0E0,0E0],"parents":[2147483647,0,0,1,1,2,2,3,3,4,4,5,5,6,6,7,7,8,8,9,9,10,10,11,11,12,12,13,13,15,15,16,16,17,17,18,18,19,19,20,20,21,21,22,22,23,23,29,29,30,30,31,31,32,32,33,33,35,35,37,37,39,39,40,40,41,41,42,42,43,43,44,44,46,46],"right_children":[2,4,6,8,10,12,14,16,18,20,22,24,26,28,-1,30,32,34,36,38,40,42,44,46,-1,-1,-1,-1,-1,48,50,52,54,56,-1,58,-1,60,-1,62,64,66,68,70,72,-1,74,-1,-1,-1,-1,-1,-1,-1,-1,-1,-1,-1,-1,-1,-1,-1,-1,-1,-1,-1,-1,-1,-1,-1,-1,-1,-1,-1,-1],"split_conditions":[5.44E2,2.32E2,5.44E2,4E0,2E0,2.56E2,7.68E2,2E0,2.55E1,1.5E0,2.72E2,1.5E0,4.16E2,1.5E0,1.5159211E0,1.04E2,1.36E2,1.28E2,1.75E1,1.5E0,5.2E2,2.48E2,4.48E2,1.28E2,-2.8136447E-2,-2.5249703E-2,-2.926826E-2,8.1545264E-1,8.978936E-1,5.52E2,2.5E0,1.2E2,1.68E2,8E1,2.3536032E-1,1.08E2,1.1286412E-1,2.88E2,-1.2174069E-1,2.5E0,7.76E2,4E0,1.5E0,7.5E0,3E0,-3.2556884E-2,1.152E3,-3.260739E-2,-2.980875E-2,-2.7821712E-2,-3.1625204E-2,1.7870184E-2,-4.3713313E-2,2.029814E-1,2.5507203E-1,-5.2651737E-2,-4.017119E-2,1.5090527E-1,1.8032297E-1,-3.9394062E-2,-3.1160781E-2,-3.228911E-2,-2.6589952E-2,-4.601709E-3,9.676443E-3,3.3277142E-1,3.5050797E-1,-8.219364E-2,4.939988E-2,5.499238E-1,-3.2597825E-2,1.0965866E-1,-1.05569206E-1,-2.9466508E-2,-3.095703E-2],"split_indices":[4,4,0,3,3,0,0,3,0,5,0,1,0,1,0,4,0,1,1,1,0,4,0,0,0,0,0,0,0,0,1,0,0,4,0,0,0,4,0,5,0,3,5,1,1,0,4,0,0,0,0,0,0,0,0,0,0,0,0,0,0,0,0,0,0,0,0,0,0,0,0,0,0,0,0],"split_type":[0,0,0,0,0,0,0,0,0,0,0,0,0,0,0,0,0,0,0,0,0,0,0,0,0,0,0,0,0,0,0,0,0,0,0,0,0,0,0,0,0,0,0,0,0,0,0,0,0,0,0,0,0,0,0,0,0,0,0,0,0,0,0,0,0,0,0,0,0,0,0,0,0,0,0],"sum_hessian":[2.772E5,2.60473E5,1.6727E4,2.24217E5,3.6256E4,9.785E3,6.942E3,2.1714E5,7.077E3,1.3289E4,2.2967E4,8.379E3,1.406E3,4.84E3,2.102E3,1.32279E5,8.4861E4,3.596E3,3.481E3,3.443E3,9.846E3,1.3928E4,9.039E3,6.27E3,2.109E3,7.02E2,7.04E2,2.761E3,2.079E3,7.0036E4,6.2243E4,8.1378E4,3.483E3,2.891E3,7.05E2,2.788E3,6.93E2,2.744E3,6.99E2,8.461E3,1.385E3,2.115E3,1.1813E4,4.854E3,4.185E3,2.759E3,3.511E3,6.5104E4,4.932E3,3.9938E4,2.2305E4,3.7895E4,4.3483E4,1.383E3,2.1E3,2.15E3,7.41E2,2.093E3,6.95E2,1.371E3,1.373E3,7.029E3,1.432E3,6.97E2,6.88E2,7.22E2,1.393E3,2.79E3,9.023E3,4.178E3,6.76E2,3.472E3,7.13E2,2.803E3,7.08E2],"tree_param":{"num_deleted":"0","num_feature":"7","num_nodes":"75","size_leaf_vector":"0"}},{"base_weights":[5.1773965E-2,-7.759783E-3,9.7877914E-1,-4.1106105E-2,1.984584E-1,-6.9684654E-2,2.456424E0,-4.8282705E-2,1.7906569E-1,-7.7923186E-2,3.5837278E-1,-7.068202E-2,-6.3694894E-2,1.9861206E0,3.5378702E0,-1.3509429E-1,-3.034782E-2,1.5026585E-2,3.4847108E-1,-1.23417646E-1,-6.2003534E-2,1.5844736E-1,6.663819E-1,-7.235881E-2,-6.5665044E-2,-5.8951885E-2,-6.833411E-2,1.9030181E0,2.0955162E0,-3.7644145E-1,-1.0465133E-1,-3.5534326E-2,6.1583686E-1,-1.1545698E-1,5.495074E-1,3.6948687E-1,2.6351222E-1,-8.236267E-2,-2.842355E-1,-7.310514E-2,5.8202785E-3,8.044209E-1,4.2733934E-2,1.0939916E0,1.7027305E-1,-7.5977854E-2,-6.9494076E-2,-3.836809E-1,-3.6901066E-1,-1.8130247E-1,-6.5035686E-2,4.492062E-2,-6.369569E-2,6.6288207E-3,1.2275918E0,-1.2287853E-1,-9.3786895E-2,3.5218436E-1,4.2101273E-1,-9.194818E-2,-7.273116E-2,-7.534584E-2,-6.2061764E-2,-1.074392E-2,2.2592397E-2,7.7692693E-1,8.1810355E-1,-4.857908E-2,3.382336E-1,4.4732064E-1,1.5769142E0,-6.868254E-2,4.1317526E-1,-6.8258286E-2,-7.1303084E-2],"categories":[],"categories_nodes":[],"categories_segments":[],"categories_sizes":[],"default_left":[true,true,true,true,true,true,true,true,true,true,true,true,true,true,false,true,true,true,true,true,true,true,true,true,false,false,false,false,false,true,true,true,true,true,false,true,false,true,false,true,true,true,true,true,true,false,true,false,false,false,false,false,false,false,false,false,false,false,false,false,false,false,false,false,false,false,false,false,false,false,false,false,false,false,false],"id":5,"left_children":[1,3,5,7,9,11,13,15,17,19,21,23,25,27,-1,29,31,33,35,37,39,41,43,45,-1,-1,-1,-1,-1,47,49,51,53,55,-1,57,-1,59,-1,61,63,65,67,69,71,-1,73,-1,-1,-1,-1,-1,-1,-1,-1,-1,-1,-1,-1,-1,-1,-1,-1,-1,-1,-1,-1,-1,-1,-1,-1,-1,-1,-1,-1],"loss_changes":[1.5298202E4,1.7911884E3,2.591614E4,3.542923E2,1.6024927E3,5.3958893E-2,3.5242383E3,3.3807486E2,1.9668608E2,9.617714E0,1.4142373E3,6.574249E-2,2.6930809E-2,4.0023438E1,0E0,2.7312665E2,6.0315735E2,2.5092169E2,6.11969E0,2.2715164E1,7.414757E0,1.0411278E3,1.9175679E3,5.9734344E-2,0E0,0E0,0E0,0E0,0E0,8.239746E-2,1.0024408E2,4.0450433E2,5.3405084E2,4.5358276E-1,0E0,2.3381958E0,0E0,2.4673843E-1,0E0,2.0471191E-1,3.852967E-1,1.6052246E-1,3.1879315E2,1.5154727E3,2.429957E2,0E0,2.9830933E-3,0E0,0E0,0E0,0E0,0E0,0E0,0E0,0E0,0E0,0E0,0E0,0E0,0E0,0E0,0E0,0E0,0E0,0E0,0E0,0E0,0E0,0E0,0E0,0E0,0E0,0E0,0E0,0E0],"parents":[2147483647,0,0,1,1,2,2,3,3,4,4,5,5,6,6,7,7,8,8,9,9,10,10,11,11,12,12,13,13,15,15,16,16,17,17,18,18,19,19,20,20,21,21,22,22,23,23,29,29,30,30,31,31,32,32,33,33,35,35,37,37,39,39,40,40,41,41,42,42,43,43,44,44,46,46],"right_children":[2,4,6,8,10,12,14,16,18,20,22,24,26,28,-1,30,32,34,36,38,40,42,44,46,-1,-1,-1,-1,-1,48,50,52,54,56,-1,58,-1,60,-1,62,64,66,68,70,72,-1,74,-1,-1,-1,-1,-1,-1,-1,-1,-1,-1,-1,-1,-1,-1,-1,-1,-1,-1,-1,-1,-1,-1,-1,-1,-1,-1,-1,-1],"split_conditions":[5.44E2,2.32E2,5.44E2,4E0,2E0,2.56E2,7.68E2,4E1,2.55E1,1.5E0,2.72E2,1.5E0,4.16E2,1.5E0,1.0613611E0,2.5E0,1.2E1,1.28E2,1.75E1,1.5E0,5.2E2,2.48E2,4.48E2,1.28E2,-1.9699514E-2,-1.7685566E-2,-2.0500233E-2,5.7090545E-1,6.286549E-1,2.8E1,2E1,1.04E2,8E1,8E1,1.6485222E-1,1.08E2,7.905367E-2,2.88E2,-8.527066E-2,2.5E0,7.76E2,4E0,6E0,3.36E2,1.5E0,-2.2793356E-2,9.92E2,-1.1510428E-1,-1.107032E-1,-5.4390743E-2,-1.9510707E-2,1.3476186E-2,-1.9108709E-2,1.9886463E-3,3.6827755E-1,-3.686356E-2,-2.8136069E-2,1.0565531E-1,1.2630382E-1,-2.7584456E-2,-2.181935E-2,-2.2603752E-2,-1.861853E-2,-3.223176E-3,6.7777196E-3,2.3307809E-1,2.4543108E-1,-1.4573724E-2,1.0147008E-1,1.3419619E-1,4.730743E-1,-2.0604761E-2,1.2395258E-1,-2.0477487E-2,-2.1390926E-2],"split_indices":[4,4,0,3,3,0,0,0,0,5,0,1,0,1,0,1,1,1,1,1,0,4,0,0,0,0,0,0,0,0,0,0,0,4,0,0,0,4,0,5,0,3,1,4,1,0,4,0,0,0,0,0,0,0,0,0,0,0,0,0,0,0,0,0,0,0,0,0,0,0,0,0,0,0,0],"split_type":[0,0,0,0,0,0,0,0,0,0,0,0,0,0,0,0,0,0,0,0,0,0,0,0,0,0,0,0,0,0,0,0,0,0,0,0,0,0,0,0,0,0,0,0,0,0,0,0,0,0,0,0,0,0,0,0,0,0,0,0,0,0,0,0,0,0,0,0,0,0,0,0,0,0,0],"sum_hessian":[2.772E5,2.60473E5,1.6727E4,2.24217E5,3.6256E4,9.785E3,6.942E3,2.1714E5,7.077E3,1.3289E4,2.2967E4,8.379E3,1.406E3,4.84E3,2.102E3,3.7178E4,1.79962E5,3.596E3,3.481E3,3.443E3,9.846E3,1.3928E4,9.039E3,6.27E3,2.109E3,7.02E2,7.04E2,2.761E3,2.079E3,4.163E3,3.3015E4,1.7853E5,1.432E3,2.891E3,7.05E2,2.788E3,6.93E2,2.744E3,6.99E2,8.461E3,1.385E3,2.115E3,1.1813E4,4.854E3,4.185E3,2.759E3,3.511E3,2.083E3,2.08E3,1.1248E4,2.1767E4,4.6288E4,1.32242E5,7.18E2,7.14E2,2.15E3,7.41E2,2.093E3,6.95E2,1.371E3,1.373E3,7.029E3,1.432E3,6.97E2,6.88E2,7.22E2,1.393E3,9.025E3,2.788E3,2.076E3,2.778E3,2.11E3,2.075E3,2.109E3,1.402E3],"tree_param":{"num_deleted":"0","num_feature":"7","num_nodes":"75","size_leaf_vector":"0"}},{"base_weights":[3.625519E-2,-5.425783E-3,6.852732E-1,-5.784428E-2,6.098079E-2,-4.879178E-2,1.7198223E0,-6.92066E-2,-5.085475E-2,-1.2305832E-2,3.435999E-1,-4.948748E-2,-4.4613574E-2,1.3905323E0,2.4770136E0,-4.907802E-2,-8.291655E-2,-6.242518E-2,-4.6565253E-2,2.9552149E-2,-2.0753059E-1,-2.4855357E-2,4.399087E-1,-5.0661474E-2,-4.597486E-2,-4.129148E-2,-4.786296E-2,1.3463024E0,1.4982814E0,-2.0580005E-2,-5.8619037E-2,-8.989782E-2,-4.872794E-2,-1.9908668E-1,-5.8381867E-2,-5.173145E-2,-2.9846078E-2,-1.78733E-2,6.115957E-1,-3.4189674E-1,-8.480367E-2,-1.2281044E-1,5.6263113E-1,3.3821842E-1,6.438053E-1,-5.3192757E-2,-4.865777E-2,1.3323191E0,1.4010385E0,-2.4751617E-2,8.211904E-3,-6.0301263E-2,-5.5847496E-2,-9.042952E-2,-7.9882324E-2,-5.3162634E-2,-4.4223104E-2,-5.9983168E-2,-4.9056318E-2,-5.966161E-2,-4.9271934E-2,-3.6078993E-2,-8.437048E-3,1.0076771E-1,-8.2787685E-2,-2.0587368E-1,8.9495885E-1,-3.7758523E-1,4.6429373E-3,-1.0898357E-1,1.8457247E-1,-1.9808134E-1,-4.808751E-2,5.3546023E-1,1.3873598E-1,9.497599E-1,4.0472817E-2,-4.8069425E-2,-5.0915968E-2],"categories":[],"categories_nodes":[],"categories_segments":[],"categories_sizes":[],"default_left":[true,true,true,true,true,true,true,true,true,true,true,true,true,true,false,true,true,true,true,true,true,true,true,true,false,false,false,true,false,true,true,true,true,false,true,true,true,true,true,true,true,true,false,true,true,false,true,false,false,false,false,false,false,false,false,false,false,false,false,false,false,false,false,false,false,false,false,false,false,false,false,false,false,false,false,false,false,false,false],"id":6,"left_children":[1,3,5,7,9,11,13,15,17,19,21,23,25,27,-1,29,31,33,35,37,39,41,43,45,-1,-1,-1,47,-1,49,51,53,55,-1,57,59,61,63,65,67,69,71,-1,73,75,-1,77,-1,-1,-1,-1,-1,-1,-1,-1,-1,-1,-1,-1,-1,-1,-1,-1,-1,-1,-1,-1,-1,-1,-1,-1,-1,-1,-1,-1,-1,-1,-1,-1],"loss_changes":[7.498762E3,9.06696E2,1.2703767E4,1.155719E1,2.3799602E3,2.6237488E-2,1.7276934E3,1.5294983E1,4.470398E0,7.456424E2,8.396328E2,3.222847E-2,1.3211727E-2,2.105371E1,0E0,6.1067505E0,7.8663177E0,1.3456612E1,5.6782684E0,2.0740684E3,2.6563043E2,2.8228098E2,3.8871655E2,2.9218674E-2,0E0,0E0,0E0,7.680664E-1,0E0,6.7713547E-1,7.509613E-2,1.3859558E-1,1.0940361E-1,0E0,3.5059357E-1,9.7683716E-1,2.0713625E0,5.3508606E2,1.3115024E3,9.5107666E1,5.4870193E1,2.3635712E1,0E0,4.924624E2,1.1520024E3,0E0,2.2182465E-3,0E0,0E0,0E0,0E0,0E0,0E0,0E0,0E0,0E0,0E0,0E0,0E0,0E0,0E0,0E0,0E0,0E0,0E0,0E0,0E0,0E0,0E0,0E0,0E0,0E0,0E0,0E0,0E0,0E0,0E0,0E0,0E0],"parents":[2147483647,0,0,1,1,2,2,3,3,4,4,5,5,6,6,7,7,8,8,9,9,10,10,11,11,12,12,13,13,15,15,16,16,17,17,18,18,19,19,20,20,21,21,22,22,23,23,27,27,29,29,30,30,31,31,32,32,34,34,35,35,36,36,37,37,38,38,39,39,40,40,41,41,43,43,44,44,46,46],"right_children":[2,4,6,8,10,12,14,16,18,20,22,24,26,28,-1,30,32,34,36,38,40,42,44,46,-1,-1,-1,48,-1,50,52,54,56,-1,58,60,62,64,66,68,70,72,-1,74,76,-1,78,-1,-1,-1,-1,-1,-1,-1,-1,-1,-1,-1,-1,-1,-1,-1,-1,-1,-1,-1,-1,-1,-1,-1,-1,-1,-1,-1,-1,-1,-1,-1,-1],"split_conditions":[5.44E2,2E0,5.44E2,1.12E2,1.36E2,2.56E2,7.68E2,4.4E1,1.5E0,1.12E2,1.5E0,1.5E0,4.16E2,1.5E0,7.431041E-1,2E1,2.24E2,2.72E2,5.2E2,8.4E1,1.6E2,4E0,3.52E2,1.28E2,-1.3792459E-2,-1.2387444E-2,-1.4358888E-2,1.5E0,4.4948444E-1,8E1,2.8E1,1.6E2,3.36E2,-5.9726007E-2,9.44E2,4.4E1,8.8E2,5.6E1,6.4E1,1.2E1,1.75E1,3.84E2,1.6878934E-1,2.48E2,3E0,-1.5957829E-2,1.152E3,3.9969575E-1,4.2031157E-1,-7.425485E-3,2.4635713E-3,-1.809038E-2,-1.675425E-2,-2.7128858E-2,-2.3964697E-2,-1.5948791E-2,-1.3266931E-2,-1.7994951E-2,-1.4716896E-2,-1.7898483E-2,-1.478158E-2,-1.0823699E-2,-2.5311145E-3,3.0230314E-2,-2.4836307E-2,-6.1762106E-2,2.6848766E-1,-1.1327557E-1,1.3928813E-3,-3.2695074E-2,5.5371743E-2,-5.9424404E-2,-1.4426254E-2,1.6063808E-1,4.1620795E-2,2.84928E-1,1.2141845E-2,-1.4420828E-2,-1.5274791E-2],"split_indices":[4,3,0,0,0,0,0,0,5,4,5,1,0,5,0,0,4,0,0,4,4,3,4,0,0,0,0,1,0,4,0,4,4,0,0,4,0,0,0,1,1,0,0,4,1,0,4,0,0,0,0,0,0,0,0,0,0,0,0,0,0,0,0,0,0,0,0,0,0,0,0,0,0,0,0,0,0,0,0],"split_type":[0,0,0,0,0,0,0,0,0,0,0,0,0,0,0,0,0,0,0,0,0,0,0,0,0,0,0,0,0,0,0,0,0,0,0,0,0,0,0,0,0,0,0,0,0,0,0,0,0,0,0,0,0,0,0,0,0,0,0,0,0,0,0,0,0,0,0,0,0,0,0,0,0,0,0,0,0,0,0],"sum_hessian":[2.772E5,2.60473E5,1.6727E4,1.45568E5,1.14905E5,9.785E3,6.942E3,5.5438E4,9.013E4,9.1245E4,2.366E4,8.379E3,1.406E3,4.84E3,2.102E3,2.2463E4,3.2975E4,2.4373E4,6.5757E4,7.5136E4,1.6109E4,4.903E3,1.8757E4,6.27E3,2.109E3,7.02E2,7.04E2,3.441E3,1.399E3,5.635E3,1.6828E4,2.7382E4,5.593E3,6.99E2,2.3674E4,5.0233E4,1.5524E4,6.9476E4,5.66E3,7.689E3,8.42E3,4.203E3,7E2,1.2517E4,6.24E3,2.759E3,3.511E3,2.761E3,6.8E2,4.922E3,7.13E2,1.0459E4,6.369E3,2.5994E4,1.388E3,2.813E3,2.78E3,2.02E4,3.474E3,1.1886E4,3.8347E4,1.2023E4,3.501E3,2.457E4,4.4906E4,1.457E3,4.203E3,6.971E3,7.18E2,7.727E3,6.93E2,2.093E3,2.11E3,6.293E3,6.224E3,4.14E3,2.1E3,2.803E3,7.08E2],"tree_param":{"num_deleted":"0","num_feature":"7","num_nodes":"79","size_leaf_vector":"0"}},{"base_weights":[2.5387231E-2,-3.7962869E-3,4.798063E-1,-1.6006991E-2,1.4160387E-1,-3.416305E-2,1.2041652E0,-2.213834E-2,1.517909E-1,-1.6630143E-2,2.8967E-1,-3.4648325E-2,-3.124851E-2,9.7363484E-1,1.734262E0,-1.4841634E-1,-1.528729E-2,2.8663477E-1,2.0306326E-2,-5.912276E-2,2.3959273E-1,6.992016E-1,1.566292E-2,-3.5470307E-2,-3.2188945E-2,-2.892166E-2,-3.3524435E-2,9.4265014E-1,1.0491176E0,-1.4406882E-2,-2.6837328E-1,-4.1667864E-2,2.507502E-2,2.2370887E-1,4.1232607E-1,-8.749155E-2,2.431306E-1,-2.5580566E-2,-1.5867163E-1,3.4848556E-1,1.2925005E-1,4.6070623E-1,8.191846E-1,6.70158E-2,-3.8237977E-1,-3.7240706E-2,-3.4068894E-2,9.3276846E-1,9.8134387E-1,-1.7327638E-2,5.7517826E-3,-2.8806043E-1,-1.11110754E-1,-5.404172E-2,-3.5207763E-2,3.641257E-3,2.2682723E-1,2.5325876E-1,1.3448298E-1,-1.1624836E-1,-4.009885E-3,3.547012E-1,1.2928051E-1,-7.7928185E-2,-1.9146336E-2,-1.9270732E-1,-1.4191411E-1,5.266728E-1,3.9408252E-1,-3.4046844E-2,2.3865657E-1,-3.3376504E-2,-3.508591E-2,8.9705443E-1,9.438897E-1],"categories":[],"categories_nodes":[],"categories_segments":[],"categories_sizes":[],"default_left":[true,true,true,true,true,true,true,true,true,true,true,true,true,true,false,true,true,true,true,true,true,true,true,true,false,false,false,true,false,true,true,true,true,true,false,true,true,true,true,false,false,true,false,true,false,false,true,true,false,false,false,false,false,false,false,false,false,false,false,false,false,false,false,false,false,false,false,false,false,false,false,false,false,false,false],"id":7,"left_children":[1,3,5,7,9,11,13,15,17,19,21,23,25,27,-1,29,31,33,35,37,39,41,43,45,-1,-1,-1,47,-1,49,51,53,55,57,-1,59,61,63,65,-1,-1,67,-1,69,-1,-1,71,73,-1,-1,-1,-1,-1,-1,-1,-1,-1,-1,-1,-1,-1,-1,-1,-1,-1,-1,-1,-1,-1,-1,-1,-1,-1,-1,-1],"loss_changes":[3.676116E3,4.6245782E2,6.2278467E3,2.4722543E2,4.72804E2,1.2758255E-2,8.4676953E2,2.0055814E2,1.5018407E2,1.06233406E2,1.1698259E3,1.5798569E-2,6.4816475E-3,1.0333496E1,0E0,1.917752E2,2.341421E2,3.2984222E1,1.03067E2,2.7940763E1,1.6632507E1,1.1920642E2,1.27718285E2,1.4289856E-2,0E0,0E0,0E0,4.0063477E-1,0E0,3.3193922E-1,1.9457611E1,1.0628128E1,3.7585083E2,7.319458E0,0E0,6.9422626E0,1.7724693E1,2.1073165E0,1.1755257E0,0E0,0E0,5.949768E0,0E0,9.6003494E1,0E0,0E0,1.3022423E-3,2.5048828E-1,0E0,0E0,0E0,0E0,0E0,0E0,0E0,0E0,0E0,0E0,0E0,0E0,0E0,0E0,0E0,0E0,0E0,0E0,0E0,0E0,0E0,0E0,0E0,0E0,0E0,0E0,0E0],"parents":[2147483647,0,0,1,1,2,2,3,3,4,4,5,5,6,6,7,7,8,8,9,9,10,10,11,11,12,12,13,13,15,15,16,16,17,17,18,18,19,19,20,20,21,21,22,22,23,23,27,27,29,29,30,30,31,31,32,32,33,33,35,35,36,36,37,37,38,38,41,41,43,43,46,46,47,47],"right_children":[2,4,6,8,10,12,14,16,18,20,22,24,26,28,-1,30,32,34,36,38,40,42,44,46,-1,-1,-1,48,-1,50,52,54,56,58,-1,60,62,64,66,-1,-1,68,-1,70,-1,-1,72,74,-1,-1,-1,-1,-1,-1,-1,-1,-1,-1,-1,-1,-1,-1,-1,-1,-1,-1,-1,-1,-1,-1,-1,-1,-1,-1,-1],"split_conditions":[5.44E2,2.72E2,5.44E2,4E0,2.72E2,2.56E2,7.68E2,2E1,1.75E1,3E0,4.48E2,1.5E0,4.16E2,1.5E0,5.2027863E-1,2E0,2E0,1.92E2,2.15E1,1.76E2,2.24E2,3.36E2,3E0,1.28E2,-9.656684E-3,-8.676498E-3,-1.0057331E-2,1.5E0,3.147353E-1,8E1,2.4E1,1.12E2,1.36E2,1.08E2,1.23697825E-1,8E1,3.35E1,1.5E0,2.24E2,1.04545675E-1,3.8775016E-2,4E0,2.4575539E-1,1.5E0,-1.1471394E-1,-1.1172213E-2,9.92E2,4E0,2.9440317E-1,-5.1982915E-3,1.7255348E-3,-8.641813E-2,-3.3333227E-2,-1.6212517E-2,-1.056233E-2,1.0923771E-3,6.804817E-2,7.597763E-2,4.0344894E-2,-3.487451E-2,-1.2029655E-3,1.0641036E-1,3.8784154E-2,-2.3378456E-2,-5.7439012E-3,-5.7812195E-2,-4.2574234E-2,1.5800184E-1,1.1822476E-1,-1.0214053E-2,7.159697E-2,-1.0012952E-2,-1.0525773E-2,2.6911634E-1,2.8316692E-1],"split_indices":[4,4,0,3,0,0,0,0,1,1,0,1,0,5,0,3,3,0,5,0,0,0,1,0,0,0,0,1,0,4,5,0,0,0,0,4,0,1,0,0,0,3,0,1,0,0,4,3,0,0,0,0,0,0,0,0,0,0,0,0,0,0,0,0,0,0,0,0,0,0,0,0,0,0,0],"split_type":[0,0,0,0,0,0,0,0,0,0,0,0,0,0,0,0,0,0,0,0,0,0,0,0,0,0,0,0,0,0,0,0,0,0,0,0,0,0,0,0,0,0,0,0,0,0,0,0,0,0,0,0,0,0,0,0,0,0,0,0,0,0,0,0,0,0,0,0,0,0,0,0,0,0,0],"sum_hessian":[2.772E5,2.60473E5,1.6727E4,2.40294E5,2.0179E4,9.785E3,6.942E3,2.31824E5,8.47E3,9.755E3,1.0424E4,8.379E3,1.406E3,4.84E3,2.102E3,1.1929E4,2.19895E5,4.181E3,4.289E3,8.368E3,1.387E3,4.178E3,6.246E3,6.27E3,2.109E3,7.02E2,7.04E2,3.441E3,1.399E3,5.635E3,6.294E3,1.3298E5,8.6915E4,2.788E3,1.393E3,2.891E3,1.398E3,6.26E3,2.108E3,6.97E2,6.9E2,1.4E3,2.778E3,5.533E3,7.13E2,2.759E3,3.511E3,2.761E3,6.8E2,4.922E3,7.13E2,5.593E3,7.01E2,4.561E4,8.737E4,7.8569E4,8.346E3,2.093E3,6.95E2,2.15E3,7.41E2,7.05E2,6.93E2,6.84E2,5.576E3,6.92E2,1.416E3,7E2,7E2,3.483E3,2.05E3,2.109E3,1.402E3,6.75E2,2.086E3],"tree_param":{"num_deleted":"0","num_feature":"7","num_nodes":"75","size_leaf_vector":"0"}},{"base_weights":[1.7779613E-2,-2.654522E-3,3.359613E-1,-1.1203779E-2,9.914658E-2,-2.3920277E-2,8.4315777E-1,-6.1472382E-2,-9.306065E-4,-1.1639688E-2,2.028139E-1,-2.4258764E-2,-2.188727E-2,6.817843E-1,1.2142305E0,-2.3317926E-1,-4.1941933E-2,-2.9655686E-2,4.0878013E-2,-4.140141E-2,1.6781814E-1,4.8956585E-1,1.0955518E-2,-2.4834272E-2,-2.2536838E-2,-2.0257503E-2,-2.3481369E-2,6.6010106E-1,7.3460704E-1,-2.772199E-1,-1.4374426E-1,-4.7650255E-2,2.4844152E-1,-4.382291E-2,-2.4645554E-2,2.9126588E-1,3.7048168E-3,-1.7911045E-2,-1.1111775E-1,2.4408963E-1,9.053114E-2,3.2269156E-1,5.735174E-1,4.6922166E-2,-2.6782653E-1,-2.6072541E-2,-2.3854071E-2,6.5313786E-1,6.873731E-1,-2.1873993E-1,-2.9600838E-1,-1.5805006E-1,-1.2941684E-1,-8.964084E-2,-2.0371934E-2,-4.6718415E-2,-2.1247102E-2,-3.0690957E-2,-2.257318E-2,4.2512125E-1,-2.4207129E-1,-6.9057204E-2,1.1986758E-1,-2.618321E-2,1.1890423E-2,-1.3497855E-1,-9.936993E-2,3.6889625E-1,2.7602655E-1,-2.3835737E-2,1.6709457E-1,-2.3517432E-2,-2.5151793E-2,6.2833613E-1,6.6085845E-1],"categories":[],"categories_nodes":[],"categories_segments":[],"categories_sizes":[],"default_left":[true,true,true,true,true,true,true,true,true,true,true,true,true,true,false,true,true,true,true,true,true,true,true,true,false,false,false,true,false,true,true,true,false,true,true,true,true,true,true,false,false,true,false,true,false,false,true,true,false,false,false,false,false,false,false,false,false,false,false,false,false,false,false,false,false,false,false,false,false,false,false,false,false,false,false],"id":8,"left_children":[1,3,5,7,9,11,13,15,17,19,21,23,25,27,-1,29,31,33,35,37,39,41,43,45,-1,-1,-1,47,-1,49,51,53,-1,55,57,59,61,63,65,-1,-1,67,-1,69,-1,-1,71,73,-1,-1,-1,-1,-1,-1,-1,-1,-1,-1,-1,-1,-1,-1,-1,-1,-1,-1,-1,-1,-1,-1,-1,-1,-1,-1,-1],"loss_changes":[1.8022974E3,2.2669781E2,3.053393E3,1.24092606E2,2.3176794E2,6.2031746E-3,4.1492822E2,1.367297E2,2.3961713E2,5.2113487E1,5.7353394E2,7.7443123E-3,3.179729E-3,5.0595703E0,0E0,1.6361221E1,6.069998E1,8.393402E0,7.563068E2,1.3703605E1,8.159878E0,5.8360046E1,6.2650333E1,6.989479E-3,0E0,0E0,0E0,2.0458984E-1,0E0,2.9996643E0,2.615776E-1,4.1127228E1,0E0,2.0186272E0,1.0939178E0,7.499838E2,5.980295E2,1.5437899E0,5.777645E-1,0E0,0E0,2.9189453E0,0E0,4.7060402E1,0E0,0E0,9.4270706E-4,1.1364746E-1,0E0,0E0,0E0,0E0,0E0,0E0,0E0,0E0,0E0,0E0,0E0,0E0,0E0,0E0,0E0,0E0,0E0,0E0,0E0,0E0,0E0,0E0,0E0,0E0,0E0,0E0,0E0],"parents":[2147483647,0,0,1,1,2,2,3,3,4,4,5,5,6,6,7,7,8,8,9,9,10,10,11,11,12,12,13,13,15,15,16,16,17,17,18,18,19,19,20,20,21,21,22,22,23,23,27,27,29,29,30,30,31,31,33,33,34,34,35,35,36,36,37,37,38,38,41,41,43,43,46,46,47,47],"right_children":[2,4,6,8,10,12,14,16,18,20,22,24,26,28,-1,30,32,34,36,38,40,42,44,46,-1,-1,-1,48,-1,50,52,54,-1,56,58,60,62,64,66,-1,-1,68,-1,70,-1,-1,72,74,-1,-1,-1,-1,-1,-1,-1,-1,-1,-1,-1,-1,-1,-1,-1,-1,-1,-1,-1,-1,-1,-1,-1,-1,-1,-1,-1],"split_conditions":[5.44E2,2.72E2,5.44E2,3.6E1,2.72E2,2.56E2,7.68E2,2.5E0,2E0,3E0,4.48E2,1.5E0,4.16E2,1.5E0,3.6426917E-1,9.6E1,1.28E2,1.12E2,5.6E1,1.76E2,2.24E2,3.36E2,3E0,1.28E2,-6.7610517E-3,-6.077251E-3,-7.044411E-3,1.5E0,2.2038212E-1,2E1,1.5E0,2E1,7.453246E-2,2.16E2,1.5E0,8.8E1,6.8E1,1.52E2,2.24E2,7.322689E-2,2.7159343E-2,4E0,1.7205521E-1,1.5E0,-8.034796E-2,-7.821763E-3,1.152E3,4E0,2.0621194E-1,-6.562198E-2,-8.880252E-2,-4.741502E-2,-3.8825054E-2,-2.6892254E-2,-6.1115804E-3,-1.4015525E-2,-6.374131E-3,-9.207288E-3,-6.7719542E-3,1.2753639E-1,-7.262139E-2,-2.0717163E-2,3.5960276E-2,-7.854964E-3,3.5671268E-3,-4.0493567E-2,-2.981098E-2,1.10668875E-1,8.2807966E-2,-7.1507213E-3,5.0128374E-2,-7.05523E-3,-7.5455382E-3,1.8850085E-1,1.9825755E-1],"split_indices":[4,4,0,0,0,0,0,1,3,1,0,1,0,5,0,4,1,0,0,0,0,0,1,0,0,0,0,1,0,0,1,0,0,4,1,4,4,0,0,0,0,3,0,1,0,0,4,3,0,0,0,0,0,0,0,0,0,0,0,0,0,0,0,0,0,0,0,0,0,0,0,0,0,0,0],"split_type":[0,0,0,0,0,0,0,0,0,0,0,0,0,0,0,0,0,0,0,0,0,0,0,0,0,0,0,0,0,0,0,0,0,0,0,0,0,0,0,0,0,0,0,0,0,0,0,0,0,0,0,0,0,0,0,0,0,0,0,0,0,0,0,0,0,0,0,0,0,0,0,0,0,0,0],"sum_hessian":[2.772E5,2.60473E5,1.6727E4,2.40294E5,2.0179E4,9.785E3,6.942E3,4.0774E4,1.9952E5,9.755E3,1.0424E4,8.379E3,1.406E3,4.84E3,2.102E3,4.163E3,3.6611E4,1.18265E5,8.1255E4,8.368E3,1.387E3,4.178E3,6.246E3,6.27E3,2.109E3,7.02E2,7.04E2,3.441E3,1.399E3,2.788E3,1.375E3,3.5906E4,7.05E2,3.0895E4,8.737E4,1.0503E4,7.0752E4,6.26E3,2.108E3,6.97E2,6.9E2,1.4E3,2.778E3,5.533E3,7.13E2,2.759E3,3.511E3,2.761E3,6.8E2,6.81E2,2.107E3,6.83E2,6.92E2,1.4139E4,2.1767E4,2.7382E4,3.513E3,2.2301E4,6.5069E4,8.396E3,2.107E3,4.3503E4,2.7249E4,4.9E3,1.36E3,6.92E2,1.416E3,7E2,7E2,3.483E3,2.05E3,2.803E3,7.08E2,6.75E2,2.086E3],"tree_param":{"num_deleted":"0","num_feature":"7","num_nodes":"75","size_leaf_vector":"0"}},{"base_weights":[1.2450508E-2,-1.8574416E-3,2.3524082E-1,-7.843333E-3,6.9420144E-2,-1.674852E-2,5.9038013E-1,-1.1094056E-2,8.1119806E-2,-8.145142E-3,1.420012E-1,-1.698462E-2,-1.5330418E-2,4.774172E-1,8.5013443E-1,-4.7828626E-2,-4.0774276E-3,4.729964E-2,2.5278264E-1,-2.8989902E-2,1.1754501E-1,3.4278357E-1,7.6628616E-3,-1.7387565E-2,-1.5779E-2,-1.4188902E-2,-1.6446948E-2,4.6224314E-1,5.143827E-1,-9.182017E-3,-9.4560415E-2,5.705857E-2,-1.409663E-2,1.9472362E-2,1.1329894E-1,-7.3019445E-2,-6.934406E-3,1.7096762E-1,6.341111E-2,2.2602227E-1,4.0152407E-1,3.2853253E-2,-1.8759105E-1,-1.8253613E-2,-1.6702008E-2,4.5733672E-1,4.8146385E-1,1.6802048E-2,-1.9132888E-2,2.3203867E-2,-1.6547456E-1,-3.0816127E-2,2.1459864E-1,-1.5424205E-1,-5.3778407E-3,-6.054252E-3,1.7401457E-1,1.4048888E-1,5.8287468E-2,-5.8145773E-2,-7.781576E-2,-1.8329855E-2,7.5570814E-2,2.5838548E-1,1.9333665E-1,-1.6687075E-2,1.1699057E-1,-1.6316408E-2,-1.7270014E-2,4.401146E-1,4.6269602E-1],"categories":[],"categories_nodes":[],"categories_segments":[],"categories_sizes":[],"default_left":[true,true,true,true,true,true,true,true,true,true,true,true,true,true,false,true,true,true,false,true,true,true,true,true,false,false,false,true,false,true,true,true,true,true,true,true,true,false,false,true,false,true,false,false,true,true,false,false,false,false,false,false,false,false,false,false,false,false,false,false,false,false,false,false,false,false,false,false,false,false,false],"id":9,"left_children":[1,3,5,7,9,11,13,15,17,19,21,23,25,27,-1,29,31,33,-1,35,37,39,41,43,-1,-1,-1,45,-1,47,49,51,53,55,57,59,61,-1,-1,63,-1,65,-1,-1,67,69,-1,-1,-1,-1,-1,-1,-1,-1,-1,-1,-1,-1,-1,-1,-1,-1,-1,-1,-1,-1,-1,-1,-1,-1,-1],"loss_changes":[8.8362646E2,1.11134346E2,1.4970209E3,6.94929E1,1.13609924E2,3.0162334E-3,2.0331982E2,5.975335E1,4.916784E1,2.5563942E1,2.8118848E2,3.7968159E-3,1.5599132E-3,2.4776611E0,0E0,6.714533E1,1.192287E2,1.2997111E1,0E0,8.126574E0,4.0032196E0,2.8571411E1,3.0732172E1,3.4183264E-3,0E0,0E0,0E0,1.0437012E-1,0E0,5.2623587E0,1.4054541E2,3.794371E2,2.0434946E2,1.9646852E1,3.1314087E0,1.9472504E-1,5.244792E0,0E0,0E0,1.4320374E0,0E0,2.3068718E1,0E0,0E0,4.8744678E-4,5.126953E-2,0E0,0E0,0E0,0E0,0E0,0E0,0E0,0E0,0E0,0E0,0E0,0E0,0E0,0E0,0E0,0E0,0E0,0E0,0E0,0E0,0E0,0E0,0E0,0E0,0E0],"parents":[2147483647,0,0,1,1,2,2,3,3,4,4,5,5,6,6,7,7,8,8,9,9,10,10,11,11,12,12,13,13,15,15,16,16,17,17,19,19,20,20,21,21,22,22,23,23,27,27,29,29,30,30,31,31,32,32,33,33,34,34,35,35,36,36,39,39,41,41,44,44,45,45],"right_children":[2,4,6,8,10,12,14,16,18,20,22,24,26,28,-1,30,32,34,-1,36,38,40,42,44,-1,-1,-1,46,-1,48,50,52,54,56,58,60,62,-1,-1,64,-1,66,-1,-1,68,70,-1,-1,-1,-1,-1,-1,-1,-1,-1,-1,-1,-1,-1,-1,-1,-1,-1,-1,-1,-1,-1,-1,-1,-1,-1],"split_conditions":[5.44E2,2.72E2,5.44E2,4E0,2.72E2,2.56E2,7.68E2,3.6E1,1.92E2,3E0,4.48E2,1.5E0,4.16E2,1.5E0,2.5504035E-1,2E0,5.6E1,6.8E1,7.5834796E-2,1.5E0,2.24E2,3.36E2,3E0,1.28E2,-4.7337003E-3,-4.256671E-3,-4.9340846E-3,1.5E0,1.5431482E-1,2E1,2.8E1,2E0,6.8E1,1.28E2,1.08E2,1.76E2,1.52E2,5.129029E-2,1.9023333E-2,4E0,1.20457225E-1,1.5E0,-5.6277316E-2,-5.476084E-3,9.92E2,4E0,1.4443916E-1,5.040615E-3,-5.7398668E-3,6.9611603E-3,-4.9642373E-2,-9.244839E-3,6.4379595E-2,-4.6272617E-2,-1.6133523E-3,-1.8162756E-3,5.2204374E-2,4.2146664E-2,1.748624E-2,-1.7443733E-2,-2.334473E-2,-5.498957E-3,2.2671245E-2,7.751565E-2,5.8000997E-2,-5.0061224E-3,3.5097174E-2,-4.8949225E-3,-5.1810043E-3,1.3203438E-1,1.3880882E-1],"split_indices":[4,4,0,3,0,0,0,0,0,1,0,1,0,5,0,3,0,0,0,5,0,0,1,0,0,0,0,1,0,0,4,3,0,1,0,0,0,0,0,3,0,1,0,0,4,3,0,0,0,0,0,0,0,0,0,0,0,0,0,0,0,0,0,0,0,0,0,0,0,0,0],"split_type":[0,0,0,0,0,0,0,0,0,0,0,0,0,0,0,0,0,0,0,0,0,0,0,0,0,0,0,0,0,0,0,0,0,0,0,0,0,0,0,0,0,0,0,0,0,0,0,0,0,0,0,0,0,0,0,0,0,0,0,0,0,0,0,0,0,0,0,0,0,0,0],"sum_hessian":[2.772E5,2.60473E5,1.6727E4,2.40294E5,2.0179E4,9.785E3,6.942E3,2.31824E5,8.47E3,9.755E3,1.0424E4,8.379E3,1.406E3,4.84E3,2.102E3,3.7178E4,1.94646E5,7.077E3,1.393E3,8.368E3,1.387E3,4.178E3,6.246E3,6.27E3,2.109E3,7.02E2,7.04E2,3.441E3,1.399E3,2.035E4,1.6828E4,2.7407E4,1.67239E5,4.979E3,2.098E3,2.792E3,5.576E3,6.97E2,6.9E2,1.4E3,2.778E3,5.533E3,7.13E2,2.759E3,3.511E3,2.761E3,6.8E2,5.635E3,1.4715E4,6.325E3,1.0503E4,1.7594E4,9.813E3,9.794E3,1.57445E5,4.274E3,7.05E2,1.403E3,6.95E2,6.84E2,2.108E3,4.9E3,6.76E2,7E2,7E2,3.483E3,2.05E3,2.109E3,1.402E3,6.75E2,2.086E3],"tree_param":{"num_deleted":"0","num_feature":"7","num_nodes":"71","size_leaf_vector":"0"}},{"base_weights":[8.719746E-3,-1.2985801E-3,1.6471596E-1,-1.5856994E-2,1.71448E-2,-1.1726976E-2,4.1338453E-1,-1.5274862E-2,-1.3824299E-1,-5.7778372E-3,1.0554266E-1,-1.1891656E-2,-1.0737826E-2,3.3430955E-1,5.952146E-1,1.17623275E-2,-1.6369086E-2,2.4755623E-2,-1.4818546E-1,2.4396148E-1,5.53749E-2,-1.21737765E-2,-1.1047546E-2,-9.938292E-3,-1.15198605E-2,3.236907E-1,3.6017793E-1,9.716798E-3,2.58497E-2,-2.0760005E-2,-1.2590607E-2,-6.852109E-3,4.126704E-1,-2.2338362E-1,-7.949741E-2,2.9965222E-1,1.3171674E-1,-5.3500723E-2,8.946483E-2,-1.2779514E-2,-1.1694274E-2,3.2023346E-1,3.372372E-1,1.1959689E-2,8.800583E-3,-2.3680909E-2,-1.657689E-2,-1.8517993E-2,-1.0404354E-2,1.43295955E-2,-1.1631005E-1,-1.021086E-1,5.911041E-1,-1.4306147E-1,-3.6447927E-1,-1.219438E-1,-3.7112724E-2,2.3002167E-1,3.3368304E-1,4.0826257E-2,1.770023E-1,5.192639E-3,-3.5391092E-1,-8.3700465E-3,1.470925E-1,-1.1500736E-2,-1.2443199E-2,3.082756E-1,3.239533E-1],"categories":[],"categories_nodes":[],"categories_segments":[],"categories_sizes":[],"default_left":[true,true,true,true,true,true,true,true,false,true,true,true,true,true,false,true,true,true,true,true,true,true,false,false,false,true,false,true,false,true,true,true,true,true,true,true,true,true,true,false,true,true,false,false,false,false,false,false,false,false,false,false,false,false,false,false,false,false,false,false,false,false,false,false,false,false,false,false,false],"id":10,"left_children":[1,3,5,7,9,11,13,15,-1,17,19,21,23,25,-1,27,29,31,33,35,37,39,-1,-1,-1,41,-1,43,-1,45,47,49,51,53,55,57,59,61,63,-1,65,67,-1,-1,-1,-1,-1,-1,-1,-1,-1,-1,-1,-1,-1,-1,-1,-1,-1,-1,-1,-1,-1,-1,-1,-1,-1,-1,-1],"loss_changes":[4.3321573E2,6.993919E1,7.339595E2,1.0368919E1,2.3283603E2,1.4662743E-3,9.962891E1,4.286461E0,0E0,3.9675928E2,1.6429233E2,1.8610954E-3,7.6526403E-4,1.2131958E0,0E0,1.6215664E-1,2.309967E0,9.2126556E2,8.319385E1,3.930429E1,6.446719E1,1.6720295E-3,0E0,0E0,0E0,5.319214E-2,0E0,1.0011375E-2,0E0,7.8650093E-1,9.697056E-1,1.610845E2,5.200453E2,8.709943E1,1.5145504E1,9.88974E0,8.591148E0,7.303393E1,7.457502E1,0E0,3.6594272E-4,2.2979736E-2,0E0,0E0,0E0,0E0,0E0,0E0,0E0,0E0,0E0,0E0,0E0,0E0,0E0,0E0,0E0,0E0,0E0,0E0,0E0,0E0,0E0,0E0,0E0,0E0,0E0,0E0,0E0],"parents":[2147483647,0,0,1,1,2,2,3,3,4,4,5,5,6,6,7,7,9,9,10,10,11,11,12,12,13,13,15,15,16,16,17,17,18,18,19,19,20,20,21,21,25,25,27,27,29,29,30,30,31,31,32,32,33,33,34,34,35,35,36,36,37,37,38,38,40,40,41,41],"right_children":[2,4,6,8,10,12,14,16,-1,18,20,22,24,26,-1,28,30,32,34,36,38,40,-1,-1,-1,42,-1,44,-1,46,48,50,52,54,56,58,60,62,64,-1,66,68,-1,-1,-1,-1,-1,-1,-1,-1,-1,-1,-1,-1,-1,-1,-1,-1,-1,-1,-1,-1,-1,-1,-1,-1,-1,-1,-1],"split_conditions":[5.44E2,2E0,5.44E2,1.008E3,1.36E2,2.56E2,7.68E2,2E1,-4.1472897E-2,1.12E2,2.48E2,1.5E0,4.16E2,1.5E0,1.7856438E-1,8E1,1.04E2,8.4E1,1.6E2,4E0,2.72E2,1.28E2,-3.314264E-3,-2.981488E-3,-3.4559583E-3,1.5E0,1.08053386E-1,7E0,7.7549103E-3,2.5E0,1.5E0,5.6E1,6.4E1,8E1,2.16E2,1.68E2,1.92E2,3.2E2,1.5E0,-3.8338543E-3,1.152E3,4E0,1.01171166E-1,3.5879067E-3,2.640175E-3,-7.104273E-3,-4.973067E-3,-5.5553983E-3,-3.1213064E-3,4.298879E-3,-3.4893017E-2,-3.063258E-2,1.7733124E-1,-4.2918444E-2,-1.0934379E-1,-3.658314E-2,-1.1133818E-2,6.90065E-2,1.0010492E-1,1.2247878E-2,5.310069E-2,1.5577917E-3,-1.06173284E-1,-2.511014E-3,4.4127755E-2,-3.450221E-3,-3.7329597E-3,9.2482686E-2,9.718599E-2],"split_indices":[4,3,0,0,0,0,0,0,0,4,4,1,0,5,0,4,4,4,4,3,4,0,0,0,0,1,0,1,0,1,5,4,0,0,4,0,0,0,5,0,4,3,0,0,0,0,0,0,0,0,0,0,0,0,0,0,0,0,0,0,0,0,0,0,0,0,0,0,0],"split_type":[0,0,0,0,0,0,0,0,0,0,0,0,0,0,0,0,0,0,0,0,0,0,0,0,0,0,0,0,0,0,0,0,0,0,0,0,0,0,0,0,0,0,0,0,0,0,0,0,0,0,0,0,0,0,0,0,0,0,0,0,0,0,0,0,0,0,0,0,0],"sum_hessian":[2.772E5,2.60473E5,1.6727E4,1.45568E5,1.14905E5,9.785E3,6.942E3,1.4488E5,6.88E2,9.1245E4,2.366E4,8.379E3,1.406E3,4.84E3,2.102E3,5.635E3,1.39245E5,7.5136E4,1.6109E4,6.293E3,1.7367E4,6.27E3,2.109E3,7.02E2,7.04E2,3.441E3,1.399E3,4.922E3,7.13E2,6.4401E4,7.4844E4,6.9476E4,5.66E3,7.689E3,8.42E3,4.205E3,2.088E3,4.141E3,1.3226E4,2.759E3,3.511E3,2.761E3,6.8E2,1.424E3,3.498E3,3.7919E4,2.6482E4,2.0165E4,5.4679E4,5.8212E4,1.1264E4,1.457E3,4.203E3,4.901E3,2.788E3,4.206E3,4.214E3,1.383E3,2.822E3,6.95E2,1.393E3,3.465E3,6.76E2,4.903E3,8.323E3,2.803E3,7.08E2,6.75E2,2.086E3],"tree_param":{"num_deleted":"0","num_feature":"7","num_nodes":"69","size_leaf_vector":"0"}},{"base_weights":[6.1059804E-3,-9.0884854E-4,1.1533448E-1,-3.6839729E-3,7.513528E-2,-8.211006E-3,2.8945243E-1,-2.223276E-2,4.416793E-3,3.4546684E-2,1.1073982E-1,-8.325869E-3,-7.5210547E-3,2.3409906E-1,4.1673544E-1,-1.5702246E-1,-1.8439118E-2,6.365368E-2,-5.9004826E-3,1.0455566E-2,1.5672776E-1,9.7244255E-2,1.2868103E-1,-8.523401E-3,-7.7348524E-3,-6.9610495E-3,-8.068803E-3,2.266679E-1,2.5220188E-1,-2.1000037E-1,-5.279526E-2,-7.0722915E-2,-8.3982805E-3,-1.1899118E-2,2.2180435E-1,-5.816934E-2,1.1068439E-2,5.291803E-2,-1.7818121E-2,1.1998241E-1,2.8596055E-2,1.23939805E-1,1.3792579E-1,-8.947051E-3,-8.188036E-3,2.2423206E-1,2.3621428E-1,-7.445092E-2,-1.2455553E-2,-1.7770335E-2,2.3972237E-2,-1.599202E-2,1.1434356E-3,-1.0793718E-1,2.5095472E-1,-1.4510765E-3,-1.2962528E-1,-1.2306485E-2,6.9691695E-2,5.645259E-2,4.9046014E-2,9.298787E-2,1.332404E-1,-8.051744E-3,-8.715507E-3,2.1592985E-1,2.268138E-1],"categories":[],"categories_nodes":[],"categories_segments":[],"categories_sizes":[],"default_left":[true,true,true,true,true,true,true,true,true,true,true,true,true,true,false,true,true,true,true,true,false,true,true,true,false,false,false,true,false,false,false,true,true,true,true,true,true,true,false,true,false,false,false,false,true,true,false,false,false,false,false,false,false,false,false,false,false,false,false,false,false,false,false,false,false,false,false],"id":11,"left_children":[1,3,5,7,9,11,13,15,17,19,21,23,25,27,-1,29,31,33,35,37,-1,39,41,43,-1,-1,-1,45,-1,-1,-1,47,49,51,53,55,57,59,-1,61,-1,-1,-1,-1,63,65,-1,-1,-1,-1,-1,-1,-1,-1,-1,-1,-1,-1,-1,-1,-1,-1,-1,-1,-1,-1,-1],"loss_changes":[2.1239685E2,5.49686E1,3.598465E2,3.7760883E1,1.3249538E1,7.1287155E-4,4.881964E1,3.9058647E1,1.06901985E2,1.2617056E1,1.1702766E0,9.124279E-4,3.7541986E-4,5.940552E-1,0E0,1.1534866E1,3.900491E1,3.1002426E2,1.3212901E2,4.3013864E0,0E0,4.3546944E0,7.469177E-2,8.176863E-4,0E0,0E0,0E0,2.7069092E-2,0E0,0E0,0E0,2.5992088E0,1.8910297E1,9.3735075E-1,8.065329E1,1.4796957E2,1.5410776E2,1.682949E-2,0E0,7.381134E-1,0E0,0E0,0E0,0E0,1.823008E-4,1.0223389E-2,0E0,0E0,0E0,0E0,0E0,0E0,0E0,0E0,0E0,0E0,0E0,0E0,0E0,0E0,0E0,0E0,0E0,0E0,0E0,0E0,0E0],"parents":[2147483647,0,0,1,1,2,2,3,3,4,4,5,5,6,6,7,7,8,8,9,9,10,10,11,11,12,12,13,13,15,15,16,16,17,17,18,18,19,19,21,21,22,22,23,23,27,27,31,31,32,32,33,33,34,34,35,35,36,36,37,37,39,39,44,44,45,45],"right_children":[2,4,6,8,10,12,14,16,18,20,22,24,26,28,-1,30,32,34,36,38,-1,40,42,44,-1,-1,-1,46,-1,-1,-1,48,50,52,54,56,58,60,-1,62,-1,-1,-1,-1,64,66,-1,-1,-1,-1,-1,-1,-1,-1,-1,-1,-1,-1,-1,-1,-1,-1,-1,-1,-1,-1,-1],"split_conditions":[5.44E2,4E0,5.44E2,4.4E1,5.6E1,2.56E2,7.68E2,5.5E0,5.6E1,1.28E2,1.92E2,1.5E0,4.16E2,1.5E0,1.2502064E-1,2.8E1,1.5E0,2E0,8E1,1.45E1,4.701833E-2,1.08E2,2.64E2,1.28E2,-2.3204559E-3,-2.0883149E-3,-2.420641E-3,1.5E0,7.566057E-2,-6.300011E-2,-1.5838578E-2,4.8E2,7E0,2.5E0,3.2E1,2E0,2E0,2.55E1,-5.3454367E-3,6.8E1,8.578816E-3,3.7181944E-2,4.1377738E-2,-2.6841154E-3,1.152E3,4E0,7.086429E-2,-2.2335276E-2,-3.736666E-3,-5.331101E-3,7.1916715E-3,-4.797606E-3,3.430307E-4,-3.2381155E-2,7.528642E-2,-4.3532296E-4,-3.8887583E-2,-3.6919457E-3,2.090751E-2,1.6935779E-2,1.4713804E-2,2.7896363E-2,3.9972123E-2,-2.4155232E-3,-2.614652E-3,6.477896E-2,6.804414E-2],"split_indices":[4,3,0,4,0,0,0,0,4,1,0,1,0,5,0,4,1,3,0,5,0,0,0,0,0,0,0,1,0,0,0,0,1,1,0,3,3,0,0,0,0,0,0,0,4,3,0,0,0,0,0,0,0,0,0,0,0,0,0,0,0,0,0,0,0,0,0],"split_type":[0,0,0,0,0,0,0,0,0,0,0,0,0,0,0,0,0,0,0,0,0,0,0,0,0,0,0,0,0,0,0,0,0,0,0,0,0,0,0,0,0,0,0,0,0,0,0,0,0,0,0,0,0,0,0,0,0,0,0,0,0,0,0,0,0,0,0],"sum_hessian":[2.772E5,2.60473E5,1.6727E4,2.51303E5,9.17E3,9.785E3,6.942E3,7.6389E4,1.74914E5,4.286E3,4.884E3,8.379E3,1.406E3,4.84E3,2.102E3,2.09E3,7.4299E4,2.5945E4,1.48969E5,3.581E3,7.05E2,2.791E3,2.093E3,6.27E3,2.109E3,7.02E2,7.04E2,3.441E3,1.399E3,1.385E3,7.05E2,1.1969E4,6.233E4,1.7558E4,8.387E3,3.6509E4,1.1246E5,1.431E3,2.15E3,2.096E3,6.95E2,1.393E3,7E2,2.759E3,3.511E3,2.761E3,6.8E2,1.1249E4,7.2E2,4.8336E4,1.3994E4,1.3364E4,4.194E3,6.81E2,7.706E3,2.0354E4,1.6155E4,8.0402E4,3.2058E4,7.41E2,6.9E2,6.93E2,1.403E3,2.803E3,7.08E2,6.75E2,2.086E3],"tree_param":{"num_deleted":"0","num_feature":"7","num_nodes":"67","size_leaf_vector":"0"}},{"base_weights":[4.276105E-3,-6.356461E-4,8.075741E-2,-2.5791232E-3,5.2619636E-2,-5.749191E-3,2.0267487E-1,4.7253985E-3,-1.3358142E-2,2.4199797E-2,7.754967E-2,-5.829306E-3,-5.2679456E-3,1.639271E-1,2.9177392E-1,4.0951084E-2,-8.735472E-3,3.0029472E-3,-2.7812276E-2,7.3262486E-3,1.0977607E-1,6.809839E-2,9.011436E-2,-5.96761E-3,-5.4154987E-3,-4.8757116E-3,-5.651595E-3,1.5872681E-1,1.7659524E-1,-1.2454002E-2,1.2328206E-1,-1.4698525E-2,5.2269448E-2,-1.09953426E-1,8.191058E-3,-3.696126E-2,1.362494E-1,3.706475E-2,-1.2475173E-2,8.402007E-2,2.0029603E-2,8.678462E-2,9.6607275E-2,-6.263907E-3,-5.7330574E-3,1.5701078E-1,1.6545366E-1,-9.095216E-3,-2.217397E-2,5.8433186E-2,3.06965E-1,-3.675077E-2,-3.4136681E-3,-4.1394915E-2,1.4724194E-1,-1.4704572E-1,-3.6979116E-2,-9.038445E-3,2.9338295E-2,-7.390653E-2,1.0912918E-2,6.1730187E-2,3.5836577E-1,3.953965E-2,3.4353543E-2,6.5131664E-2,9.32968E-2,-5.5608423E-3,-5.987969E-3,1.512464E-1,1.5880269E-1],"categories":[],"categories_nodes":[],"categories_segments":[],"categories_sizes":[],"default_left":[true,true,true,true,true,true,true,true,true,true,true,true,true,true,false,true,true,true,true,true,false,true,true,true,false,false,false,true,false,true,true,true,true,true,true,true,true,true,false,true,false,false,false,false,true,true,false,false,false,false,false,false,false,false,false,false,false,false,false,false,false,false,false,false,false,false,false,false,false,false,false],"id":12,"left_children":[1,3,5,7,9,11,13,15,17,19,21,23,25,27,-1,29,31,33,35,37,-1,39,41,43,-1,-1,-1,45,-1,47,49,51,53,55,57,59,61,63,-1,65,-1,-1,-1,-1,67,69,-1,-1,-1,-1,-1,-1,-1,-1,-1,-1,-1,-1,-1,-1,-1,-1,-1,-1,-1,-1,-1,-1,-1,-1,-1],"loss_changes":[1.0413259E2,2.6959303E1,1.7642577E2,1.978663E1,6.4958477E0,3.46601E-4,2.392212E1,7.3044785E1,2.4005714E1,6.189518E0,5.739708E-1,4.4727325E-4,1.841709E-4,2.9089355E-1,0E0,1.7843625E2,3.9730152E1,2.7904732E1,8.090283E1,2.1097753E0,0E0,2.1351357E0,3.6888123E-2,3.9990246E-4,0E0,0E0,0E0,1.3748169E-2,0E0,8.034437E-1,1.9017508E2,2.4758598E1,8.651519E1,5.6544476E0,1.658759E1,9.02942E1,4.7101242E1,8.250356E-3,0E0,3.6136532E-1,0E0,0E0,0E0,0E0,1.2087822E-4,4.5166016E-3,0E0,0E0,0E0,0E0,0E0,0E0,0E0,0E0,0E0,0E0,0E0,0E0,0E0,0E0,0E0,0E0,0E0,0E0,0E0,0E0,0E0,0E0,0E0,0E0,0E0],"parents":[2147483647,0,0,1,1,2,2,3,3,4,4,5,5,6,6,7,7,8,8,9,9,10,10,11,11,12,12,13,13,15,15,16,16,17,17,18,18,19,19,21,21,22,22,23,23,27,27,29,29,30,30,31,31,32,32,33,33,34,34,35,35,36,36,37,37,39,39,44,44,45,45],"right_children":[2,4,6,8,10,12,14,16,18,20,22,24,26,28,-1,30,32,34,36,38,-1,40,42,44,-1,-1,-1,46,-1,48,50,52,54,56,58,60,62,64,-1,66,-1,-1,-1,-1,68,70,-1,-1,-1,-1,-1,-1,-1,-1,-1,-1,-1,-1,-1,-1,-1,-1,-1,-1,-1,-1,-1,-1,-1,-1,-1],"split_conditions":[5.44E2,4E0,5.44E2,2.5E0,5.6E1,2.56E2,7.68E2,1.04E2,5.6E1,1.28E2,1.92E2,1.5E0,4.16E2,1.5E0,8.753218E-2,2E0,3.52E2,5.5E0,1.45E1,1.45E1,3.293282E-2,1.08E2,2.64E2,1.28E2,-1.6246497E-3,-1.4627136E-3,-1.6954786E-3,1.5E0,5.2978575E-2,8E1,8E1,1.76E2,1.5E0,2.8E1,2E0,1.36E2,8E1,2.55E1,-3.7425521E-3,6.8E1,6.008881E-3,2.6035389E-2,2.8982183E-2,-1.8791722E-3,9.92E2,4E0,4.96361E-2,-2.728565E-3,-6.652191E-3,1.7529957E-2,9.2089504E-2,-1.1025231E-2,-1.0241005E-3,-1.2418475E-2,4.417258E-2,-4.4113718E-2,-1.1093736E-2,-2.7115336E-3,8.801489E-3,-2.2171961E-2,3.2738755E-3,1.8519057E-2,1.0750974E-1,1.1861895E-2,1.0306063E-2,1.95395E-2,2.7989043E-2,-1.6682527E-3,-1.7963909E-3,4.537392E-2,4.7640808E-2],"split_indices":[4,3,0,5,0,0,0,0,4,1,0,1,0,5,0,3,4,0,1,5,0,0,0,0,0,0,0,1,0,0,0,0,5,4,3,0,0,0,0,0,0,0,0,0,4,3,0,0,0,0,0,0,0,0,0,0,0,0,0,0,0,0,0,0,0,0,0,0,0,0,0],"split_type":[0,0,0,0,0,0,0,0,0,0,0,0,0,0,0,0,0,0,0,0,0,0,0,0,0,0,0,0,0,0,0,0,0,0,0,0,0,0,0,0,0,0,0,0,0,0,0,0,0,0,0,0,0,0,0,0,0,0,0,0,0,0,0,0,0,0,0,0,0,0,0],"sum_hessian":[2.772E5,2.60473E5,1.6727E4,2.51303E5,9.17E3,9.785E3,6.942E3,1.49794E5,1.01509E5,4.286E3,4.884E3,8.379E3,1.406E3,4.84E3,2.102E3,4.0581E4,1.09213E5,4.7614E4,5.3895E4,3.581E3,7.05E2,2.791E3,2.093E3,6.27E3,2.109E3,7.02E2,7.04E2,3.441E3,1.399E3,2.4615E4,1.5966E4,9.9489E4,9.724E3,2.09E3,4.5524E4,5.1049E4,2.846E3,1.431E3,2.15E3,2.096E3,6.95E2,1.393E3,7E2,2.759E3,3.511E3,2.761E3,6.8E2,1.8295E4,6.32E3,1.1801E4,4.165E3,3.3677E4,6.5812E4,4.896E3,4.828E3,1.385E3,7.05E2,2.5086E4,2.0438E4,2.8813E4,2.2236E4,2.132E3,7.14E2,7.41E2,6.9E2,6.93E2,1.403E3,2.109E3,1.402E3,6.75E2,2.086E3],"tree_param":{"num_deleted":"0","num_feature":"7","num_nodes":"71","size_leaf_vector":"0"}},{"base_weights":[2.9954833E-3,-4.4365102E-4,5.654654E-2,-1.2147762E-2,4.2250217E-3,-4.0254695E-3,1.4191326E-1,-6.321078E-2,-8.5259965E-3,3.7472427E-2,-1.8463255E-3,-4.0813466E-3,-3.689808E-3,1.1478942E-1,2.0428349E-1,1.3953043E-3,-8.92748E-2,3.420249E-2,-1.6756346E-2,-5.452417E-3,1.305005E-1,-4.1105006E-2,3.9713476E-3,-4.178181E-3,-3.7916175E-3,-3.4150793E-3,-3.9585233E-3,1.1115026E-1,1.2365456E-1,1.6018926E-3,1.1837926E-3,-1.0852115E-1,-6.070306E-2,-2.2455177E-3,9.4186425E-2,-3.9085478E-2,-1.0968955E-2,8.721625E-3,-7.132107E-3,-9.3107775E-2,1.4864631E-1,-9.376766E-4,-8.3703786E-2,5.3591397E-2,-5.4227654E-3,-4.3854173E-3,-4.0141284E-3,1.0994122E-1,1.1589066E-1,-1.0296381E-1,-1.1924706E-1,-2.5901094E-2,-9.532098E-2,1.3684058E-4,-1.1764802E-2,9.082809E-2,1.1118594E-1,-4.1093376E-2,-7.701388E-3,-1.5489804E-2,9.422555E-3,-9.759868E-3,-1.4770484E-3,1.5979707E-1,2.4062337E-2,3.6018904E-2,-1.0269632E-2,2.059394E-2,-1.4252132E-1,-6.349197E-3,1.7887865E-1,-3.5665654E-2,7.7986945E-3,-3.9377115E-3,-4.3106866E-3,1.05939604E-1,1.1118471E-1],"categories":[],"categories_nodes":[],"categories_segments":[],"categories_sizes":[],"default_left":[true,true,true,true,true,true,true,true,true,true,true,true,true,true,false,true,true,true,true,true,true,true,true,true,false,false,false,true,false,false,false,true,true,true,true,true,true,false,true,false,true,true,true,true,true,false,true,true,false,false,false,false,false,false,false,false,false,false,false,false,false,false,false,false,false,false,false,false,false,false,false,false,false,false,false,false,false],"id":13,"left_children":[1,3,5,7,9,11,13,15,17,19,21,23,25,27,-1,29,31,33,35,37,39,41,43,45,-1,-1,-1,47,-1,-1,-1,49,51,53,55,57,59,-1,61,-1,63,65,67,69,71,-1,73,75,-1,-1,-1,-1,-1,-1,-1,-1,-1,-1,-1,-1,-1,-1,-1,-1,-1,-1,-1,-1,-1,-1,-1,-1,-1,-1,-1,-1,-1],"loss_changes":[5.1051933E1,1.4233045E1,8.6498276E1,1.3735567E1,3.7585964E1,1.6848743E-4,1.1722168E1,8.283201E0,2.4391024E1,1.1481366E2,3.5960823E1,2.1927059E-4,9.035133E-5,1.4243317E-1,0E0,5.993317E-5,1.9208164E0,2.4491087E1,7.5147934E0,4.6848452E-1,3.6848297E1,3.477076E1,6.392157E1,1.9559264E-4,0E0,0E0,0E0,6.9847107E-3,0E0,0E0,0E0,1.1248016E-1,1.6998734E0,1.5804699E-1,2.3162079E-1,7.5398445E-1,4.257891E0,0E0,2.6139027E-1,0E0,1.1661301E1,3.607785E0,6.0501717E1,1.639324E2,4.6104378E1,0E0,6.261468E-5,1.964569E-3,0E0,0E0,0E0,0E0,0E0,0E0,0E0,0E0,0E0,0E0,0E0,0E0,0E0,0E0,0E0,0E0,0E0,0E0,0E0,0E0,0E0,0E0,0E0,0E0,0E0,0E0,0E0,0E0,0E0],"parents":[2147483647,0,0,1,1,2,2,3,3,4,4,5,5,6,6,7,7,8,8,9,9,10,10,11,11,12,12,13,13,15,15,16,16,17,17,18,18,19,19,20,20,21,21,22,22,23,23,27,27,31,31,32,32,33,33,34,34,35,35,36,36,38,38,40,40,41,41,42,42,43,43,44,44,46,46,47,47],"right_children":[2,4,6,8,10,12,14,16,18,20,22,24,26,28,-1,30,32,34,36,38,40,42,44,46,-1,-1,-1,48,-1,-1,-1,50,52,54,56,58,60,-1,62,-1,64,66,68,70,72,-1,74,76,-1,-1,-1,-1,-1,-1,-1,-1,-1,-1,-1,-1,-1,-1,-1,-1,-1,-1,-1,-1,-1,-1,-1,-1,-1,-1,-1,-1,-1],"split_conditions":[5.44E2,3.6E1,5.44E2,2E1,5.6E1,2.56E2,7.68E2,2E0,2.8E1,2E0,6.8E1,1.5E0,4.16E2,1.5E0,6.128505E-2,1.2E1,2.8E1,2E0,1.5E0,3.2E1,3.2E1,2E0,1.04E2,1.28E2,-1.1374853E-3,-1.0245239E-3,-1.187557E-3,1.5E0,3.709637E-2,4.805678E-4,3.551378E-4,9.5E0,9.5E0,6E0,1.2E1,4.8E2,7E0,2.6164877E-3,9.6E1,-2.7932333E-2,4E0,1.28E2,9.5E0,2E0,1.36E2,-1.3156253E-3,1.152E3,4E0,3.47672E-2,-3.0889144E-2,-3.577412E-2,-7.7703283E-3,-2.8596295E-2,4.1052175E-5,-3.5294408E-3,2.724843E-2,3.3355784E-2,-1.2328013E-2,-2.3104164E-3,-4.646941E-3,2.8267666E-3,-2.9279604E-3,-4.4311452E-4,4.7939125E-2,7.2187013E-3,1.0805672E-2,-3.0808896E-3,6.178182E-3,-4.2756397E-2,-1.9047592E-3,5.3663597E-2,-1.0699697E-2,2.3396085E-3,-1.1813135E-3,-1.293206E-3,3.1781882E-2,3.3355415E-2],"split_indices":[4,4,0,0,4,0,0,3,0,3,4,1,0,5,0,0,4,3,1,0,0,3,4,0,0,0,0,1,0,0,0,0,0,1,1,0,1,0,0,0,3,0,0,3,0,0,4,3,0,0,0,0,0,0,0,0,0,0,0,0,0,0,0,0,0,0,0,0,0,0,0,0,0,0,0,0,0],"split_type":[0,0,0,0,0,0,0,0,0,0,0,0,0,0,0,0,0,0,0,0,0,0,0,0,0,0,0,0,0,0,0,0,0,0,0,0,0,0,0,0,0,0,0,0,0,0,0,0,0,0,0,0,0,0,0,0,0,0,0,0,0,0,0,0,0,0,0,0,0,0,0,0,0,0,0,0,0],"sum_hessian":[2.772E5,2.60473E5,1.6727E4,7.4273E4,1.862E5,9.785E3,6.942E3,4.918E3,6.9355E4,2.8751E4,1.57449E5,8.379E3,1.406E3,4.84E3,2.102E3,1.414E3,3.504E3,1.1201E4,5.8154E4,1.9674E4,9.077E3,2.032E4,1.37129E5,6.27E3,2.109E3,7.02E2,7.04E2,3.441E3,1.399E3,7.12E2,7.02E2,2.092E3,1.412E3,6.968E3,4.233E3,1.1969E4,4.6185E4,2.084E3,1.759E4,6.81E2,8.396E3,1.0459E4,9.861E3,2.1828E4,1.15301E5,2.759E3,3.511E3,2.761E3,6.8E2,1.385E3,7.07E2,7.05E2,7.07E2,5.574E3,1.394E3,3.54E3,6.93E2,1.1249E4,7.2E2,3.7804E4,8.381E3,1.2009E4,5.581E3,7.706E3,6.9E2,2.108E3,8.351E3,3.556E3,6.305E3,1.4765E4,7.063E3,3.5073E4,8.0228E4,2.803E3,7.08E2,6.75E2,2.086E3],"tree_param":{"num_deleted":"0","num_feature":"7","num_nodes":"77","size_leaf_vector":"0"}},{"base_weights":[2.0974516E-3,-4.18302E-3,1.910395E-2,2.3507788E-3,-2.1317244E-2,1.4153135E-4,3.5165105E-2,-3.3882095E-3,3.783546E-2,-5.448397E-3,-1.2077231E-1,5.62783E-2,-7.6186983E-3,-9.004255E-3,5.8568962E-2,1.18458355E-2,-1.4301751E-2,-6.5241735E-3,1.5335503E-1,2.8553694E-2,-9.323379E-3,-5.1083818E-2,-2.4321485E-1,1.9160511E-2,9.349399E-2,8.631832E-3,-3.8041234E-2,-2.2549727E-3,-1.3958833E-1,2.2634302E-1,4.4095203E-2,-4.020817E-3,3.3127364E-2,-1.1694855E-1,-9.207757E-3,-1.2517409E-2,1.4630985E-3,-1.0977431E-1,2.445751E-1,3.7124068E-2,1.7125186E-2,-5.933857E-3,-1.8392315E-2,9.0488064E-4,-1.1993414E-1,-7.546703E-1,-7.016001E-2,1.4959128E-2,2.1172995E-2,1.1693133E-2,1.3456328E-1,2.0258785E-3,3.2624103E-2,-6.643089E-2,-5.8866474E-3,-8.885124E-3,1.1788885E-2,2.1134704E-1,2.3365295E-1,6.0163125E-2,-3.3843268E-2,-6.0291164E-2,1.7115966E-3,-9.13501E-3,1.0405898E-1,3.5688523E-2,-1.5436864E-1,-1.2121392E-2,2.427574E-2,-1.4514057E-2,-8.52179E-3,-2.7896538E-3,1.6129725E-2,-2.589751E-2,-1.9642256E-1,2.5416616E-1,1.9741797E-1,2.2577655E-2,5.2083902E-2,9.890476E-3,2.090742E-2,-1.1556776E-2,-2.2201058E-3,-2.2351794E-2,-5.5423575E-3,2.384391E-2,-2.1339664E-2,-2.2647136E-1,8.634293E-2,1.0994416E-1,1.5952508E-1,9.131419E-3,-3.8800132E-3,2.3638507E-2,7.658191E-2,-2.537311E-1,-4.0507577E-2,-3.382115E-2,6.513036E-2,-1.1692436E-2,3.9189757E-4,1.5653417E-2,-7.4799987E-3,-2.5408102E-2,9.301418E-2,6.811393E-2,-2.3736657E-1],"categories":[],"categories_nodes":[],"categories_segments":[],"categories_sizes":[],"default_left":[true,true,true,true,true,true,true,true,true,true,true,true,true,true,true,true,true,true,true,true,true,true,true,true,true,true,true,true,false,true,true,true,true,true,true,true,true,true,true,true,true,true,true,true,true,false,false,false,false,false,true,true,true,true,true,true,true,false,false,true,true,false,false,false,false,false,false,false,false,false,false,false,false,false,false,false,false,false,false,false,false,false,false,false,false,false,false,false,false,false,false,false,false,false,false,false,false,false,false,false,false,false,false,false,false,false,false],"id":14,"left_children":[1,3,5,7,9,11,13,15,17,19,21,23,25,27,29,31,33,35,37,39,41,43,45,47,49,51,53,55,-1,57,59,61,63,65,67,69,71,73,75,77,79,81,83,85,87,-1,-1,-1,-1,-1,89,91,93,95,97,99,101,-1,-1,103,105,-1,-1,-1,-1,-1,-1,-1,-1,-1,-1,-1,-1,-1,-1,-1,-1,-1,-1,-1,-1,-1,-1,-1,-1,-1,-1,-1,-1,-1,-1,-1,-1,-1,-1,-1,-1,-1,-1,-1,-1,-1,-1,-1,-1,-1,-1],"loss_changes":[2.9607592E1,2.2663637E1,2.2769083E1,2.9845697E1,8.820071E1,1.4936149E1,4.1842957E1,2.0974203E1,1.0455425E2,6.3505826E0,6.5605095E1,5.750209E0,1.4892113E1,1.2356195E1,6.423855E1,1.7779968E1,3.8430756E1,7.057599E-1,1.35906E2,4.823389E-1,1.3298905E0,1.7546516E1,2.46801E2,1.7320871E-2,6.982836E0,3.1119208E0,9.573658E0,1.2414858E0,0E0,1.8092346E-1,3.0505787E1,9.730597E0,6.742009E1,1.9853638E1,6.8319387E0,6.70737E-2,3.943081E-1,1.05913315E1,1.8512268E0,6.118369E-1,5.766678E-2,6.576985E-1,5.987742E-1,1.4261984E0,4.636734E1,0E0,0E0,0E0,0E0,0E0,8.329811E-1,6.461636E-1,1.6725402E0,2.7034529E1,9.760637E0,2.3588055E-1,3.1853038E-1,0E0,0E0,5.677263E1,8.642194E1,0E0,0E0,0E0,0E0,0E0,0E0,0E0,0E0,0E0,0E0,0E0,0E0,0E0,0E0,0E0,0E0,0E0,0E0,0E0,0E0,0E0,0E0,0E0,0E0,0E0,0E0,0E0,0E0,0E0,0E0,0E0,0E0,0E0,0E0,0E0,0E0,0E0,0E0,0E0,0E0,0E0,0E0,0E0,0E0,0E0,0E0],"parents":[2147483647,0,0,1,1,2,2,3,3,4,4,5,5,6,6,7,7,8,8,9,9,10,10,11,11,12,12,13,13,14,14,15,15,16,16,17,17,18,18,19,19,20,20,21,21,22,22,23,23,24,24,25,25,26,26,27,27,29,29,30,30,31,31,32,32,33,33,34,34,35,35,36,36,37,37,38,38,39,39,40,40,41,41,42,42,43,43,44,44,50,50,51,51,52,52,53,53,54,54,55,55,56,56,59,59,60,60],"right_children":[2,4,6,8,10,12,14,16,18,20,22,24,26,28,30,32,34,36,38,40,42,44,46,48,50,52,54,56,-1,58,60,62,64,66,68,70,72,74,76,78,80,82,84,86,88,-1,-1,-1,-1,-1,90,92,94,96,98,100,102,-1,-1,104,106,-1,-1,-1,-1,-1,-1,-1,-1,-1,-1,-1,-1,-1,-1,-1,-1,-1,-1,-1,-1,-1,-1,-1,-1,-1,-1,-1,-1,-1,-1,-1,-1,-1,-1,-1,-1,-1,-1,-1,-1,-1,-1,-1,-1,-1,-1],"split_conditions":[1.36E2,1.2E2,1.76E2,8.4E1,2E0,1.68E2,2E0,5.6E1,2E0,1.44E2,8E1,8.4E1,2E0,9.92E2,2.16E2,4E1,6.8E1,1.5E0,6.4E1,8E1,3E0,4E1,1.12E2,6E0,6E0,2.5E0,2.5E0,1.5E0,-4.18765E-2,3E0,3E0,3E0,2E0,2E0,7E0,1.92E2,5.44E2,1.75E1,9E0,4.8E1,6E0,1.5E0,6E0,2.5E0,1.2E1,-2.264011E-1,-2.1048004E-2,4.4877385E-3,6.351899E-3,3.50794E-3,6E0,8E1,5.6E1,2.16E2,2.24E2,8.96E2,3E0,6.340411E-2,7.009589E-2,2.72E2,3.2E2,-1.808735E-2,5.13479E-4,-2.740503E-3,3.1217696E-2,1.0706557E-2,-4.6310592E-2,-3.636418E-3,7.2827223E-3,-4.354217E-3,-2.556537E-3,-8.368962E-4,4.8389174E-3,-7.7692536E-3,-5.8926772E-2,7.624985E-2,5.9225395E-2,6.7732967E-3,1.5625171E-2,2.967143E-3,6.2722266E-3,-3.467033E-3,-6.660318E-4,-6.7055384E-3,-1.6627073E-3,7.1531734E-3,-6.4018997E-3,-6.794141E-2,2.590288E-2,3.2983247E-2,4.7857527E-2,2.7394257E-3,-1.164004E-3,7.0915525E-3,2.2974573E-2,-7.611933E-2,-1.2152274E-2,-1.0146346E-2,1.9539108E-2,-3.507731E-3,1.17569274E-4,4.696025E-3,-2.2439996E-3,-7.622431E-3,2.7904255E-2,2.043418E-2,-7.1209975E-2],"split_indices":[4,4,0,4,3,4,3,0,3,0,0,0,3,0,4,0,0,1,0,0,1,0,0,1,1,5,5,5,0,5,1,1,3,3,1,0,0,0,1,0,1,1,1,1,1,0,0,0,0,0,5,0,0,4,4,0,1,0,0,0,0,0,0,0,0,0,0,0,0,0,0,0,0,0,0,0,0,0,0,0,0,0,0,0,0,0,0,0,0,0,0,0,0,0,0,0,0,0,0,0,0,0,0,0,0,0,0],"split_type":[0,0,0,0,0,0,0,0,0,0,0,0,0,0,0,0,0,0,0,0,0,0,0,0,0,0,0,0,0,0,0,0,0,0,0,0,0,0,0,0,0,0,0,0,0,0,0,0,0,0,0,0,0,0,0,0,0,0,0,0,0,0,0,0,0,0,0,0,0,0,0,0,0,0,0,0,0,0,0,0,0,0,0,0,0,0,0,0,0,0,0,0,0,0,0,0,0,0,0,0,0,0,0,0,0,0,0],"sum_hessian":[2.772E5,2.0244E5,7.476E4,1.46555E5,5.5885E4,3.4284E4,4.0476E4,1.26153E5,2.0402E4,4.8196E4,7.689E3,4.163E3,3.0121E4,1.4019E4,2.6457E4,5.2654E4,7.3499E4,1.4742E4,5.66E3,4.93E3,4.3266E4,4.901E3,2.788E3,2.085E3,2.078E3,1.9634E4,1.0487E4,1.3331E4,6.88E2,2.1E3,2.4357E4,3.0165E4,2.2489E4,3.474E3,7.0025E4,8.422E3,6.32E3,1.457E3,4.203E3,2.816E3,2.114E3,3.1496E4,1.177E4,2.793E3,2.108E3,7.04E2,2.084E3,6.78E2,1.407E3,6.95E2,1.383E3,1.5396E4,4.238E3,5.569E3,4.918E3,9.056E3,4.275E3,6.98E2,1.402E3,2.0194E4,4.163E3,2.788E3,2.7377E4,1.4093E4,8.396E3,6.84E2,2.79E3,6.442E4,5.605E3,5.614E3,2.808E3,4.9E3,1.42E3,7.41E2,7.16E2,3.489E3,7.14E2,1.429E3,1.387E3,7.27E2,1.387E3,1.2527E4,1.8969E4,8.997E3,2.773E3,1.375E3,1.418E3,1.39E3,7.18E2,6.99E2,6.84E2,6.988E3,8.408E3,3.52E3,7.18E2,6.76E2,4.893E3,3.53E3,1.388E3,6.952E3,2.104E3,3.561E3,7.14E2,5.602E3,1.4592E4,2.774E3,1.389E3],"tree_param":{"num_deleted":"0","num_feature":"7","num_nodes":"107","size_leaf_vector":"0"}},{"base_weights":[1.4677864E-3,-2.9292228E-3,1.3374174E-2,1.7379719E-3,-1.4760192E-2,1.0047129E-4,2.4616992E-2,-2.7430304E-3,2.7057845E-2,-3.9309263E-3,-8.4578164E-2,-6.0650534E-3,3.689188E-2,8.199362E-2,1.40420785E-2,8.176739E-3,-1.0505136E-2,-2.6178393E-3,8.90856E-2,1.9994002E-2,-6.5730293E-3,-3.576709E-2,-1.7033911E-1,6.192409E-3,-3.3567514E-2,1.4442973E-2,9.425268E-2,1.294577E-1,-1.4067113E-2,-6.793755E-4,5.958715E-2,-1.6961388E-2,1.7691387E-2,-8.187422E-2,-6.890924E-3,-8.763008E-3,5.5415826E-3,-3.165693E-2,1.7123482E-1,2.5994798E-2,1.1991999E-2,-1.2721224E-2,-3.987144E-3,-1.0523897E-1,-8.735746E-3,-5.285904E-1,-4.91221E-2,1.644571E-2,-1.0887404E-3,-6.633229E-2,-1.3143719E-2,1.7547818E-3,6.643643E-2,7.700797E-2,1.1173742E-1,1.607243E-1,6.60466E-2,-3.5628855E-2,2.8798506E-2,1.3390998E-2,-3.8681384E-2,4.087744E-2,1.1513637E-1,-2.5368107E-2,5.872906E-2,-5.233021E-3,5.003146E-2,2.4997596E-2,-1.0807462E-1,-9.015615E-3,1.699432E-2,-9.9563785E-3,-5.196816E-3,1.2495383E-2,3.559092E-3,-1.3757798E-1,3.7636075E-3,1.7793816E-1,1.3827549E-1,1.5809093E-2,3.646999E-2,6.92741E-3,1.4639714E-2,-1.5067781E-2,-3.8802482E-3,-5.8644577E-3,2.5950598E-3,6.588866E-3,-2.1594186E-1,-2.6429407E-2,6.047609E-2,1.9264182E-2,-1.3599205E-2,-4.6186782E-3,-6.117271E-4,-1.777242E-1,-3.937563E-2,-2.8357789E-2,9.5572785E-2,1.4825607E-2,-1.1044576E-2,1.5850358E-1,1.669553E-1,6.156666E-4,-7.1926564E-2,-9.4121685E-3,1.14942685E-1,-2.5896663E-2,-8.943758E-2,9.208043E-4,5.2482087E-2],"categories":[],"categories_nodes":[],"categories_segments":[],"categories_sizes":[],"default_left":[true,true,true,true,true,true,true,true,true,true,true,true,true,true,true,true,true,true,true,true,true,true,true,true,true,true,true,true,true,true,true,true,true,true,true,true,true,true,true,true,true,true,true,true,true,false,false,true,true,true,true,true,false,false,false,true,false,true,false,true,true,true,false,false,false,false,false,false,false,false,false,false,false,false,false,false,false,false,false,false,false,false,false,false,false,false,false,false,false,false,false,false,false,false,false,false,false,false,false,false,false,false,false,false,false,false,false,false,false,false,false],"id":15,"left_children":[1,3,5,7,9,11,13,15,17,19,21,23,25,27,29,31,33,35,37,39,41,43,45,47,49,51,53,55,57,59,61,63,65,67,69,71,73,75,77,79,81,83,85,87,89,-1,-1,91,93,95,97,99,-1,-1,-1,101,-1,103,-1,105,107,109,-1,-1,-1,-1,-1,-1,-1,-1,-1,-1,-1,-1,-1,-1,-1,-1,-1,-1,-1,-1,-1,-1,-1,-1,-1,-1,-1,-1,-1,-1,-1,-1,-1,-1,-1,-1,-1,-1,-1,-1,-1,-1,-1,-1,-1,-1,-1,-1,-1],"loss_changes":[1.4512203E1,1.1178298E1,1.1156868E1,1.6471172E1,4.3299458E1,7.7773767E0,2.4558386E1,1.0454858E1,4.018123E1,3.1341884E0,3.21849E1,9.899454E0,6.3353486E0,2.8721703E1,2.2916708E1,1.2258057E1,1.8596354E1,7.4043095E-1,7.0072556E1,2.36467E-1,7.098186E-1,9.204636E0,1.2108956E2,1.5165012E0,6.057225E0,2.3339124E0,4.0869808E-1,8.348228E0,1.9271784E0,1.3812418E1,8.672493E0,8.95562E0,2.7563179E1,9.732998E0,3.4826858E0,3.5794735E-2,8.7412894E-2,1.0734362E1,9.0421295E-1,2.9998958E-1,2.8259844E-2,2.741809E-1,3.8841614E-1,1.6998703E1,4.3244743E0,0E0,0E0,7.145448E-1,1.9999357E-2,1.0430575E1,9.228837E0,4.7612706E-1,0E0,0E0,0E0,1.260376E-2,0E0,1.824772E0,0E0,4.365666E1,4.527033E0,2.8965778E0,0E0,0E0,0E0,0E0,0E0,0E0,0E0,0E0,0E0,0E0,0E0,0E0,0E0,0E0,0E0,0E0,0E0,0E0,0E0,0E0,0E0,0E0,0E0,0E0,0E0,0E0,0E0,0E0,0E0,0E0,0E0,0E0,0E0,0E0,0E0,0E0,0E0,0E0,0E0,0E0,0E0,0E0,0E0,0E0,0E0,0E0,0E0,0E0,0E0],"parents":[2147483647,0,0,1,1,2,2,3,3,4,4,5,5,6,6,7,7,8,8,9,9,10,10,11,11,12,12,13,13,14,14,15,15,16,16,17,17,18,18,19,19,20,20,21,21,22,22,23,23,24,24,25,25,26,26,27,27,28,28,29,29,30,30,31,31,32,32,33,33,34,34,35,35,36,36,37,37,38,38,39,39,40,40,41,41,42,42,43,43,44,44,47,47,48,48,49,49,50,50,51,51,55,55,57,57,59,59,60,60,61,61],"right_children":[2,4,6,8,10,12,14,16,18,20,22,24,26,28,30,32,34,36,38,40,42,44,46,48,50,52,54,56,58,60,62,64,66,68,70,72,74,76,78,80,82,84,86,88,90,-1,-1,92,94,96,98,100,-1,-1,-1,102,-1,104,-1,106,108,110,-1,-1,-1,-1,-1,-1,-1,-1,-1,-1,-1,-1,-1,-1,-1,-1,-1,-1,-1,-1,-1,-1,-1,-1,-1,-1,-1,-1,-1,-1,-1,-1,-1,-1,-1,-1,-1,-1,-1,-1,-1,-1,-1,-1,-1,-1,-1,-1,-1],"split_conditions":[1.36E2,1.04E2,1.76E2,6.8E1,2E0,6E0,2.48E2,5.6E1,2E0,1.44E2,8E1,2E0,1.36E2,3.12E2,5.44E2,2E1,6.8E1,1.5E0,8.4E1,8E1,4E2,1.5E0,1.12E2,2.72E2,2.16E2,1.75E1,6E0,4E0,7E0,4.48E2,7.68E2,2.4E1,2E0,2E0,7E0,4.32E2,8.4E1,4E0,9E0,4.8E1,6E0,6E0,8.48E2,4E1,1.2E1,-1.5857711E-1,-1.473663E-2,9.6E1,5.6E1,2.5E0,2.5E0,4.4E1,1.993093E-2,2.3102392E-2,3.3521228E-2,2.16E2,1.981398E-2,2E0,8.639552E-3,3.52E2,3E0,5.44E2,3.4540914E-2,-7.6104323E-3,1.761872E-2,-1.5699064E-3,1.5009439E-2,7.499279E-3,-3.2422386E-2,-2.7046846E-3,5.0982963E-3,-2.9869138E-3,-1.5590448E-3,3.748615E-3,1.0677277E-3,-4.1273396E-2,1.1290823E-3,5.338145E-2,4.148265E-2,4.742728E-3,1.0940997E-2,2.078223E-3,4.3919142E-3,-4.520335E-3,-1.1640745E-3,-1.7593374E-3,7.78518E-4,1.97666E-3,-6.478256E-2,-7.928822E-3,1.8142829E-2,5.7792547E-3,-4.0797614E-3,-1.3856036E-3,-1.8351815E-4,-5.331726E-2,-1.181269E-2,-8.507337E-3,2.8671836E-2,4.4476823E-3,-3.3133728E-3,4.7551077E-2,5.0086595E-2,1.847E-4,-2.157797E-2,-2.8236506E-3,3.4482807E-2,-7.7689993E-3,-2.6831275E-2,2.762413E-4,1.5744627E-2],"split_indices":[4,4,0,4,3,1,0,0,3,0,0,3,0,4,4,0,0,1,0,0,0,1,0,4,4,1,5,3,1,4,0,5,3,3,1,0,4,3,1,0,1,1,0,0,1,0,0,0,0,1,5,0,0,0,0,0,0,3,0,4,1,0,0,0,0,0,0,0,0,0,0,0,0,0,0,0,0,0,0,0,0,0,0,0,0,0,0,0,0,0,0,0,0,0,0,0,0,0,0,0,0,0,0,0,0,0,0,0,0,0,0],"split_type":[0,0,0,0,0,0,0,0,0,0,0,0,0,0,0,0,0,0,0,0,0,0,0,0,0,0,0,0,0,0,0,0,0,0,0,0,0,0,0,0,0,0,0,0,0,0,0,0,0,0,0,0,0,0,0,0,0,0,0,0,0,0,0,0,0,0,0,0,0,0,0,0,0,0,0,0,0,0,0,0,0,0,0,0,0,0,0,0,0,0,0,0,0,0,0,0,0,0,0,0,0,0,0,0,0,0,0,0,0,0,0],"sum_hessian":[2.772E5,2.0244E5,7.476E4,1.45172E5,5.7268E4,3.4284E4,4.0476E4,1.23344E5,2.1828E4,4.9579E4,7.689E3,2.9364E4,4.92E3,6.298E3,3.4178E4,5.1248E4,7.2096E4,1.4765E4,7.063E3,4.93E3,4.4649E4,4.901E3,2.788E3,2.0312E4,9.052E3,3.537E3,1.383E3,4.215E3,2.083E3,2.583E4,8.348E3,1.4071E4,3.7177E4,3.474E3,6.8622E4,8.422E3,6.343E3,2.86E3,4.203E3,2.816E3,2.114E3,1.3218E4,3.1431E4,1.372E3,3.529E3,7.04E2,2.084E3,8.434E3,1.1878E4,3.475E3,5.577E3,2.844E3,6.93E2,6.99E2,6.84E2,2.822E3,1.393E3,1.386E3,6.97E2,1.8851E4,6.979E3,6.246E3,2.102E3,1.2665E4,1.406E3,2.1756E4,1.5421E4,6.84E2,2.79E3,6.3017E4,5.605E3,6.309E3,2.113E3,1.406E3,4.937E3,7.16E2,2.144E3,3.489E3,7.14E2,1.429E3,1.387E3,7.27E2,1.387E3,1.0445E4,2.773E3,2.4456E4,6.975E3,6.83E2,6.89E2,2.811E3,7.18E2,7.711E3,7.23E2,1.413E3,1.0465E4,6.76E2,2.799E3,4.893E3,6.84E2,1.407E3,1.437E3,2.1E3,7.22E2,6.94E2,6.92E2,1.5395E4,3.456E3,5.576E3,1.403E3,1.406E3,4.84E3],"tree_param":{"num_deleted":"0","num_feature":"7","num_nodes":"111","size_leaf_vector":"0"}},{"base_weights":[1.027573E-3,-2.0512189E-3,9.364442E-3,1.2169661E-3,-1.0335809E-2,1.0288706E-2,-9.0014905E-2,-1.9201137E-3,1.8943014E-2,-2.751337E-3,-5.9234086E-2,-2.2550162E-3,1.7619498E-2,5.724174E-3,-7.353907E-3,-1.8324683E-3,6.2367678E-2,1.4000294E-2,-4.601271E-3,6.1382465E-3,-9.65204E-2,6.9048144E-3,-1.8667981E-2,-9.755863E-4,2.7431425E-2,-2.9487977E-2,9.436509E-3,-5.7319123E-2,-4.823611E-3,-6.1346437E-3,3.8798668E-3,-2.2173857E-2,1.19886935E-1,1.8201927E-2,8.397457E-3,-2.8022996E-3,-9.6259555E-3,1.5594793E-2,-2.0870289E-2,-1.2039152E-1,4.2358503E-2,-4.6396142E-4,1.8028695E-2,-8.414644E-2,-8.072634E-3,-5.315377E-3,1.1075782E-2,7.744707E-2,1.4480954E-2,-1.2586084E-2,-7.133706E-2,-5.8949424E-4,2.1446448E-2,1.7509265E-2,-7.566385E-2,-1.8601662E-2,-1.5013622E-3,-7.174233E-3,-4.054391E-3,9.96117E-4,9.617E-3,-9.6362144E-2,2.635082E-3,1.2457202E-1,9.685081E-2,1.1069683E-2,2.5536874E-2,3.8060802E-3,1.0714945E-2,-7.035381E-3,-1.9654866E-4,-1.17549775E-2,-2.7165965E-3,4.615094E-3,2.0998195E-2,-2.0592253E-1,-3.4392543E-2,6.10915E-3,-4.2765014E-2,5.949193E-3,3.578504E-2,-1.244857E-1,-4.4271868E-2,-6.4591755E-4,-2.2770897E-2,-8.660817E-3,-5.81839E-4,1.3781566E-2,-2.4194396E-3,9.725953E-2,3.7519544E-2,-5.0407764E-2,2.7806086E-2],"categories":[],"categories_nodes":[],"categories_segments":[],"categories_sizes":[],"default_left":[true,true,true,true,true,true,false,true,true,true,true,true,true,true,true,true,true,true,true,true,true,true,true,true,true,true,true,true,true,true,true,true,true,true,true,true,true,true,false,true,false,true,true,true,true,true,true,true,true,false,false,false,false,false,false,false,false,false,false,false,false,false,false,false,false,false,false,false,false,false,false,false,false,false,false,false,false,false,false,false,false,false,false,false,false,false,false,false,false,false,false,false,false],"id":16,"left_children":[1,3,5,7,9,11,-1,13,15,17,19,21,23,25,27,29,31,33,35,37,39,41,43,45,47,49,51,53,55,57,59,61,63,65,67,69,71,73,-1,75,-1,77,79,81,83,85,87,89,91,-1,-1,-1,-1,-1,-1,-1,-1,-1,-1,-1,-1,-1,-1,-1,-1,-1,-1,-1,-1,-1,-1,-1,-1,-1,-1,-1,-1,-1,-1,-1,-1,-1,-1,-1,-1,-1,-1,-1,-1,-1,-1,-1,-1],"loss_changes":[7.1150723E0,5.4812183E0,6.867929E0,8.072821E0,2.1239054E1,6.811453E0,0E0,5.123482E0,1.9693546E1,1.5365192E0,1.8744919E1,4.107868E0,8.529916E0,6.6995115E0,9.114714E0,3.6290514E-1,3.435324E1,1.1592817E-1,4.0357608E-1,7.139338E-1,1.6239609E1,1.4375054E0,6.789218E0,8.4465826E-1,1.9821243E1,3.4565244E0,5.5825396E0,4.7714787E0,3.141129E0,1.818657E-2,1.04948446E-1,5.2660174E0,4.4165802E-1,1.4708757E-1,2.2463799E-2,3.6267674E-1,1.7312157E-1,1.2271148E-1,0E0,3.0731884E1,0E0,2.933684E0,1.4986279E0,2.1868887E0,9.196568E-1,1.8802884E-1,1.5617216E-1,4.975296E0,2.102106E1,0E0,0E0,0E0,0E0,0E0,0E0,0E0,0E0,0E0,0E0,0E0,0E0,0E0,0E0,0E0,0E0,0E0,0E0,0E0,0E0,0E0,0E0,0E0,0E0,0E0,0E0,0E0,0E0,0E0,0E0,0E0,0E0,0E0,0E0,0E0,0E0,0E0,0E0,0E0,0E0,0E0,0E0,0E0,0E0],"parents":[2147483647,0,0,1,1,2,2,3,3,4,4,5,5,7,7,8,8,9,9,10,10,11,11,12,12,13,13,14,14,15,15,16,16,17,17,18,18,19,19,20,20,21,21,22,22,23,23,24,24,25,25,26,26,27,27,28,28,29,29,30,30,31,31,32,32,33,33,34,34,35,35,36,36,37,37,39,39,41,41,42,42,43,43,44,44,45,45,46,46,47,47,48,48],"right_children":[2,4,6,8,10,12,-1,14,16,18,20,22,24,26,28,30,32,34,36,38,40,42,44,46,48,50,52,54,56,58,60,62,64,66,68,70,72,74,-1,76,-1,78,80,82,84,86,88,90,92,-1,-1,-1,-1,-1,-1,-1,-1,-1,-1,-1,-1,-1,-1,-1,-1,-1,-1,-1,-1,-1,-1,-1,-1,-1,-1,-1,-1,-1,-1,-1,-1,-1,-1,-1,-1,-1,-1,-1,-1,-1,-1,-1,-1],"split_conditions":[1.36E2,1.04E2,9.92E2,6.8E1,2E0,1.36E2,-2.7004473E-2,5.6E1,2E0,1.44E2,4E1,8E1,2E0,2E1,6.8E1,1.5E0,8.4E1,8E1,3E0,4.5E0,1.2E1,5.6E1,2.16E2,1.5E0,2.48E2,2E0,4E1,2E0,1.5E0,1.92E2,4.32E2,4E0,9E0,4.8E1,1.12E2,1.5E0,6E0,1.5E0,-6.261087E-3,1.12E2,1.2707551E-2,2E0,2.5E0,1.12E2,1.2E2,7.36E2,3E0,4E0,2.72E2,-3.7758255E-3,-2.1401118E-2,-1.7684828E-4,6.4339344E-3,5.2527795E-3,-2.2699155E-2,-5.580499E-3,-4.5040867E-4,-2.15227E-3,-1.2163173E-3,2.988351E-4,2.8851E-3,-2.8908644E-2,7.9052465E-4,3.7371606E-2,2.9055245E-2,3.3209051E-3,7.6610628E-3,1.1418241E-3,3.2144838E-3,-2.1106144E-3,-5.89646E-5,-3.5264934E-3,-8.1497896E-4,1.3845282E-3,6.299459E-3,-6.177676E-2,-1.0317763E-2,1.8327452E-3,-1.2829505E-2,1.7847581E-3,1.0735513E-2,-3.734571E-2,-1.32815605E-2,-1.9377527E-4,-6.8312692E-3,-2.5982452E-3,-1.7455171E-4,4.13447E-3,-7.258319E-4,2.917786E-2,1.1255864E-2,-1.512233E-2,8.3418265E-3],"split_indices":[4,4,0,4,3,0,0,0,3,0,0,0,3,4,0,1,0,0,1,1,1,0,4,5,4,3,0,3,1,0,0,3,1,0,0,1,1,1,0,0,0,3,1,0,0,4,1,3,4,0,0,0,0,0,0,0,0,0,0,0,0,0,0,0,0,0,0,0,0,0,0,0,0,0,0,0,0,0,0,0,0,0,0,0,0,0,0,0,0,0,0,0,0],"split_type":[0,0,0,0,0,0,0,0,0,0,0,0,0,0,0,0,0,0,0,0,0,0,0,0,0,0,0,0,0,0,0,0,0,0,0,0,0,0,0,0,0,0,0,0,0,0,0,0,0,0,0,0,0,0,0,0,0,0,0,0,0,0,0,0,0,0,0,0,0,0,0,0,0,0,0,0,0,0,0,0,0,0,0,0,0,0,0,0,0,0,0,0,0],"sum_hessian":[2.772E5,2.0244E5,7.476E4,1.45172E5,5.7268E4,7.4072E4,6.88E2,1.23344E5,2.1828E4,4.9579E4,7.689E3,2.7322E4,4.675E4,5.1248E4,7.2096E4,1.4765E4,7.063E3,4.93E3,4.4649E4,2.793E3,4.896E3,1.7536E4,9.786E3,1.6148E4,3.0602E4,4.887E3,4.6361E4,3.474E3,6.8622E4,8.422E3,6.343E3,2.86E3,4.203E3,2.816E3,2.114E3,3.2879E4,1.177E4,2.069E3,7.24E2,4.178E3,7.18E2,1.0549E4,6.987E3,1.362E3,8.424E3,1.1873E4,4.275E3,6.293E3,2.4309E4,3.482E3,1.405E3,2.5268E4,2.1093E4,6.84E2,2.79E3,1.3331E4,5.5291E4,5.614E3,2.808E3,4.222E3,2.121E3,7.16E2,2.144E3,3.489E3,7.14E2,1.429E3,1.387E3,7.1E2,1.404E3,1.2527E4,2.0352E4,8.997E3,2.773E3,6.83E2,1.386E3,2.094E3,2.084E3,9.131E3,1.418E3,4.159E3,2.828E3,6.76E2,6.86E2,5.597E3,2.827E3,6.956E3,4.917E3,3.561E3,7.14E2,4.205E3,2.088E3,4.141E3,2.0168E4],"tree_param":{"num_deleted":"0","num_feature":"7","num_nodes":"93","size_leaf_vector":"0"}},{"base_weights":[7.1892736E-4,-3.1334636E-4,1.679256E-2,5.2729E-4,-3.0842973E-2,8.814035E-3,7.2273836E-2,-3.7754388E-4,2.9699985E-2,-2.0737724E-2,-7.09613E-2,-8.7630074E-4,2.8401064E-2,-7.21129E-4,3.9506488E-2,-7.261363E-3,7.4275956E-2,-4.1040007E-2,1.4185186E-2,-2.8073233E-2,-1.12368435E-1,-1.3204432E-3,7.4890425E-4,2.5858577E-2,3.4631662E-2,7.08338E-5,-1.7029045E-2,3.2755118E-2,5.2790698E-2,-5.870953E-2,2.9918973E-3,9.8899566E-2,-2.6612557E-2,-1.0699065E-2,-4.853563E-2,5.321717E-2,-6.3049614E-2,-1.3982723E-3,-1.1141053E-3,6.175723E-4,1.0091951E-3,2.5010461E-2,2.9260395E-2,-3.2650828E-4,6.5280885E-2,-6.291181E-3,-1.8535204E-1,2.9684288E-2,3.581415E-2,7.6967746E-4,1.1841469E-2,-1.529531E-3,-1.269219E-3,2.2290867E-2,2.5879381E-2],"categories":[],"categories_nodes":[],"categories_segments":[],"categories_sizes":[],"default_left":[true,true,true,true,true,true,false,true,true,true,true,true,true,true,true,true,true,true,true,false,false,true,true,true,false,true,true,true,false,false,true,false,false,false,false,false,false,true,false,false,false,true,false,false,false,false,false,false,false,false,false,false,false,false,false],"id":17,"left_children":[1,3,5,7,9,11,-1,13,15,17,19,21,23,25,27,29,31,33,35,-1,-1,37,39,41,-1,43,45,47,-1,-1,49,-1,-1,-1,-1,-1,-1,51,-1,-1,-1,53,-1,-1,-1,-1,-1,-1,-1,-1,-1,-1,-1,-1,-1],"loss_changes":[4.5994315E0,6.6849027E0,7.40416E0,6.6913776E0,2.82826E0,2.7761111E0,0E0,3.3693228E0,1.2565044E1,3.9547575E0,2.49017E0,7.064745E-3,7.5791836E-2,3.148368E0,1.8661284E-1,2.1998985E0,8.590649E0,8.016062E-1,6.186356E0,0E0,0E0,1.2187194E-4,7.119845E-5,9.198904E-3,0E0,6.0237923E0,2.0404713E1,1.2041092E-2,0E0,0E0,6.838818E-2,0E0,0E0,0E0,0E0,0E0,0E0,9.252969E-5,0E0,0E0,0E0,5.9500933E-3,0E0,0E0,0E0,0E0,0E0,0E0,0E0,0E0,0E0,0E0,0E0,0E0,0E0],"parents":[2147483647,0,0,1,1,2,2,3,3,4,4,5,5,7,7,8,8,9,9,10,10,11,11,12,12,13,13,14,14,15,15,16,16,17,17,18,18,21,21,22,22,23,23,25,25,26,26,27,27,30,30,37,37,41,41],"right_children":[2,4,6,8,10,12,-1,14,16,18,20,22,24,26,28,30,32,34,36,-1,-1,38,40,42,-1,44,46,48,-1,-1,50,-1,-1,-1,-1,-1,-1,52,-1,-1,-1,54,-1,-1,-1,-1,-1,-1,-1,-1,-1,-1,-1,-1,-1],"split_conditions":[5.44E2,4.48E2,7.68E2,3.52E2,3E0,5.44E2,2.168215E-2,2.15E1,2.88E2,1.5E0,3.84E2,1.76E2,1.5E0,1.05E1,1.28E2,1.5E0,6.08E2,2E0,7.68E2,-8.4219705E-3,-3.3710532E-2,1.5E0,1.152E3,1.5E0,1.0389499E-2,1.2E1,3.2E2,3.35E1,1.583721E-2,-1.761286E-2,1.28E2,2.9669872E-2,-7.983767E-3,-3.2097197E-3,-1.4560689E-2,1.596515E-2,-1.8914886E-2,1.28E2,-3.3423162E-4,1.852717E-4,3.0275853E-4,4E0,8.7781185E-3,-9.7952485E-5,1.9584266E-2,-1.8873543E-3,-5.5605616E-2,8.905287E-3,1.0744246E-2,2.3090324E-4,3.552441E-3,-4.5885931E-4,-3.807657E-4,6.6872602E-3,7.7638146E-3],"split_indices":[4,4,0,4,1,0,0,5,0,5,0,0,5,5,1,1,0,3,0,0,0,1,4,1,0,1,0,0,0,0,0,0,0,0,0,0,0,0,0,0,0,3,0,0,0,0,0,0,0,0,0,0,0,0,0],"split_type":[0,0,0,0,0,0,0,0,0,0,0,0,0,0,0,0,0,0,0,0,0,0,0,0,0,0,0,0,0,0,0,0,0,0,0,0,0,0,0,0,0,0,0,0,0,0,0,0,0,0,0,0,0,0,0],"sum_hessian":[2.772E5,2.60473E5,1.6727E4,2.53494E5,6.979E3,1.4625E4,2.102E3,2.45869E5,7.625E3,5.576E3,1.403E3,9.785E3,4.84E3,2.4377E5,2.099E3,4.169E3,3.456E3,3.526E3,2.05E3,6.9E2,7.13E2,7.685E3,2.1E3,3.441E3,1.399E3,2.32481E5,1.1289E4,1.394E3,7.05E2,6.92E2,3.477E3,2.778E3,6.78E2,6.99E2,2.827E3,1.362E3,6.88E2,5.576E3,2.109E3,1.398E3,7.02E2,2.761E3,6.8E2,2.31074E5,1.407E3,1.0613E4,6.76E2,7.01E2,6.93E2,2.78E3,6.97E2,2.759E3,2.817E3,6.75E2,2.086E3],"tree_param":{"num_deleted":"0","num_feature":"7","num_nodes":"55","size_leaf_vector":"0"}},{"base_weights":[5.0323055E-4,-1.4740097E-3,5.8572786E-3,7.515165E-4,-7.1155406E-3,-1.366005E-3,1.197543E-2,-1.3870045E-3,1.2835218E-2,-1.8278086E-3,-4.120639E-2,-6.8851635E-3,8.103449E-3,4.1617755E-2,6.5121637E-3,7.798355E-4,-1.23725515E-2,-1.0983899E-3,4.195906E-2,9.901249E-3,-3.1230864E-3,-1.0080973E-2,-9.589825E-2,5.9289613E-4,-2.5262306E-2,3.0285898E-3,3.3435363E-2,6.749675E-2,-1.0756258E-2,-7.056328E-3,1.5155681E-2,-3.813002E-3,1.264432E-2,4.655693E-3,-3.0432079E-2,-4.1967076E-3,3.0154546E-3,-1.4970118E-2,8.069179E-2,5.790735E-3,1.3092772E-2,-4.660117E-3,1.4997354E-3,-4.330301E-2,2.8436556E-3,-3.084512E-1,-2.3981836E-2,6.183539E-3,-1.0633095E-3,-4.827752E-2,-1.8792935E-2,-2.1118084E-3,3.695897E-2,4.6585258E-2,7.218711E-3,8.347195E-2,3.509682E-2,-2.03355E-2,8.294122E-3,-1.5717072E-2,4.010283E-2,4.7495786E-2,3.4406877E-3,-2.8790373E-2,-2.0414537E-3,-2.1409444E-3,4.4687435E-2,2.7534213E-2,1.0471774E-3,7.963623E-3,-5.2084964E-2,-4.8231566E-3,-2.3248584E-3,8.548693E-3,1.438241E-3,-6.7396015E-2,2.5610405E-3,8.7309055E-2,4.8279308E-2,1.0258241E-2,3.4886491E-3,1.7979214E-2,8.196898E-3,-6.766444E-3,-3.2876758E-3,-4.995316E-3,9.789742E-3,3.3304014E-3,-8.946816E-2,-4.4981404E-3,3.1553373E-2,3.3219405E-2,-3.2745072E-4,-4.9676173E-3,-5.357196E-4,-1.0556461E-2,-8.709735E-2,7.205522E-3,-2.9470272E-2,8.208209E-3,-1.849581E-2,2.490032E-2,4.9227722E-2,3.724531E-2,5.6320786E-2,7.989978E-2,8.703045E-2,4.2052637E-4,-4.1122083E-2,-9.127379E-2,1.433379E-3,1.2295832E-1,-1.2982853E-1,6.838301E-3,7.172003E-2,-2.1599103E-2,2.4374248E-2],"categories":[],"categories_nodes":[],"categories_segments":[],"categories_sizes":[],"default_left":[true,true,true,true,true,true,true,true,true,true,true,true,true,true,true,true,true,true,true,true,true,true,true,true,true,true,true,true,true,true,true,true,true,true,true,true,true,true,true,true,true,true,true,true,true,false,false,true,true,true,true,true,true,true,false,true,false,true,false,true,true,true,true,false,false,false,false,false,false,false,false,false,false,false,false,false,false,false,false,false,false,false,false,false,false,false,false,false,false,false,false,false,false,false,false,false,false,false,false,false,false,false,false,false,false,false,false,false,false,false,false,false,false,false,false,false,false],"id":18,"left_children":[1,3,5,7,9,11,13,15,17,19,21,23,25,27,29,31,33,35,37,39,41,43,45,47,49,51,53,55,57,59,61,63,65,67,69,71,73,75,77,79,81,83,85,87,89,-1,-1,91,93,95,97,99,101,103,-1,105,-1,107,-1,109,111,113,115,-1,-1,-1,-1,-1,-1,-1,-1,-1,-1,-1,-1,-1,-1,-1,-1,-1,-1,-1,-1,-1,-1,-1,-1,-1,-1,-1,-1,-1,-1,-1,-1,-1,-1,-1,-1,-1,-1,-1,-1,-1,-1,-1,-1,-1,-1,-1,-1,-1,-1,-1,-1,-1,-1],"loss_changes":[2.9345245E0,2.5417283E0,3.3039398E0,3.7514691E0,1.0323422E1,1.7919071E0,6.5547333E0,2.9361045E0,8.858259E0,7.532695E-1,1.3089775E1,2.976786E0,1.6229168E0,8.538305E0,4.0086026E0,5.6140504E0,6.2492976E0,1.8822005E-1,1.5577488E1,6.4612985E-2,3.172639E-1,2.1049562E0,4.2625385E1,1.425713E-1,9.319134E-1,1.8347564E0,7.260442E-1,2.1792526E0,3.804741E-1,5.4332027E0,7.9101405E0,3.286463E0,1.3621813E1,8.6352265E-1,8.19946E0,9.865761E-3,5.5352416E-2,2.6296794E0,8.9746666E-1,2.2148058E-2,6.62401E-2,9.6845925E-2,5.9997886E-1,2.9561446E0,7.441985E-1,0E0,0E0,6.194613E-1,2.446657E-2,2.011063E0,1.3582036E0,1.5448955E0,2.035296E-1,1.2547612E-1,0E0,2.8930664E-2,0E0,5.984341E-1,0E0,1.456269E1,2.9076557E1,5.467656E0,8.035034E0,0E0,0E0,0E0,0E0,0E0,0E0,0E0,0E0,0E0,0E0,0E0,0E0,0E0,0E0,0E0,0E0,0E0,0E0,0E0,0E0,0E0,0E0,0E0,0E0,0E0,0E0,0E0,0E0,0E0,0E0,0E0,0E0,0E0,0E0,0E0,0E0,0E0,0E0,0E0,0E0,0E0,0E0,0E0,0E0,0E0,0E0,0E0,0E0,0E0,0E0,0E0,0E0,0E0,0E0],"parents":[2147483647,0,0,1,1,2,2,3,3,4,4,5,5,6,6,7,7,8,8,9,9,10,10,11,11,12,12,13,13,14,14,15,15,16,16,17,17,18,18,19,19,20,20,21,21,22,22,23,23,24,24,25,25,26,26,27,27,28,28,29,29,30,30,31,31,32,32,33,33,34,34,35,35,36,36,37,37,38,38,39,39,40,40,41,41,42,42,43,43,44,44,47,47,48,48,49,49,50,50,51,51,52,52,53,53,55,55,57,57,59,59,60,60,61,61,62,62],"right_children":[2,4,6,8,10,12,14,16,18,20,22,24,26,28,30,32,34,36,38,40,42,44,46,48,50,52,54,56,58,60,62,64,66,68,70,72,74,76,78,80,82,84,86,88,90,-1,-1,92,94,96,98,100,102,104,-1,106,-1,108,-1,110,112,114,116,-1,-1,-1,-1,-1,-1,-1,-1,-1,-1,-1,-1,-1,-1,-1,-1,-1,-1,-1,-1,-1,-1,-1,-1,-1,-1,-1,-1,-1,-1,-1,-1,-1,-1,-1,-1,-1,-1,-1,-1,-1,-1,-1,-1,-1,-1,-1,-1,-1,-1,-1,-1,-1,-1],"split_conditions":[1.36E2,1.04E2,1.76E2,6.8E1,2E0,2.5E0,2.48E2,5.6E1,2E0,1.44E2,8E1,2E0,2.24E2,3.12E2,2.72E2,3.6E1,2E0,1.5E0,8.4E1,7E0,7.84E2,1.5E0,1.12E2,2.72E2,1.04E2,1.36E2,9.6E1,4E0,7E0,6E0,4.48E2,2E1,2E0,4E1,9.5E0,4.32E2,8.4E1,4E0,9E0,3.5E0,8E1,4E2,1.5E0,4E1,1.2E1,-9.253536E-2,-7.194551E-3,1.5E0,5.6E1,8E1,2.4E2,2E0,6E0,2E0,2.1656135E-3,3E0,1.0529047E-2,2E0,2.4882369E-3,3.68E2,3.2E2,1.5E0,5.44E2,-8.637113E-3,-6.1243615E-4,-6.4228335E-4,1.3406231E-2,8.260264E-3,3.141532E-4,2.3890869E-3,-1.562549E-2,-1.446947E-3,-6.974576E-4,2.564608E-3,4.3147232E-4,-2.0218804E-2,7.683122E-4,2.6192717E-2,1.4483793E-2,3.0774723E-3,1.0465948E-3,5.3937645E-3,2.4590695E-3,-2.0299333E-3,-9.863027E-4,-1.4985948E-3,2.9369227E-3,9.991204E-4,-2.6840448E-2,-1.3494422E-3,9.466012E-3,9.965822E-3,-9.823522E-5,-1.4902853E-3,-1.6071589E-4,-3.1669384E-3,-2.6129205E-2,2.1616567E-3,-8.841082E-3,2.4624628E-3,-5.548743E-3,7.4700965E-3,1.4768317E-2,1.1173594E-2,1.6896237E-2,2.3969935E-2,2.6109135E-2,1.2615792E-4,-1.2336626E-2,-2.738214E-2,4.3001372E-4,3.6887497E-2,-3.894856E-2,2.0514904E-3,2.1516008E-2,-6.4797313E-3,7.312275E-3],"split_indices":[4,4,0,4,3,5,0,4,3,0,0,3,4,4,4,4,3,1,0,1,0,1,0,4,0,0,0,3,1,1,4,0,3,0,0,0,4,3,1,1,0,0,1,0,1,0,0,1,0,0,4,3,5,3,0,5,0,3,0,0,0,5,4,0,0,0,0,0,0,0,0,0,0,0,0,0,0,0,0,0,0,0,0,0,0,0,0,0,0,0,0,0,0,0,0,0,0,0,0,0,0,0,0,0,0,0,0,0,0,0,0,0,0,0,0,0,0],"split_type":[0,0,0,0,0,0,0,0,0,0,0,0,0,0,0,0,0,0,0,0,0,0,0,0,0,0,0,0,0,0,0,0,0,0,0,0,0,0,0,0,0,0,0,0,0,0,0,0,0,0,0,0,0,0,0,0,0,0,0,0,0,0,0,0,0,0,0,0,0,0,0,0,0,0,0,0,0,0,0,0,0,0,0,0,0,0,0,0,0,0,0,0,0,0,0,0,0,0,0,0,0,0,0,0,0,0,0,0,0,0,0,0,0,0,0,0,0],"sum_hessian":[2.772E5,2.0244E5,7.476E4,1.45172E5,5.7268E4,3.4284E4,4.0476E4,1.23344E5,2.1828E4,4.9579E4,7.689E3,2.166E4,1.2624E4,6.298E3,3.4178E4,1.03024E5,2.032E4,1.4765E4,7.063E3,4.93E3,4.4649E4,4.901E3,2.788E3,1.5396E4,6.264E3,1.0518E4,2.106E3,4.215E3,2.083E3,1.33E4,2.0878E4,7.4273E4,2.8751E4,1.0459E4,9.861E3,8.422E3,6.343E3,2.86E3,4.203E3,2.156E3,2.774E3,3.3508E4,1.1141E4,1.372E3,3.529E3,7.04E2,2.084E3,3.518E3,1.1878E4,1.373E3,4.891E3,9.135E3,1.383E3,1.402E3,7.04E2,2.822E3,1.393E3,1.386E3,6.97E2,1.1237E4,2.063E3,5.551E3,1.5327E4,4.918E3,6.9355E4,1.9674E4,9.077E3,1.424E3,9.035E3,3.556E3,6.305E3,6.309E3,2.113E3,1.406E3,4.937E3,7.16E2,2.144E3,3.489E3,7.14E2,7.32E2,1.424E3,1.387E3,1.387E3,1.3218E4,2.029E4,6.247E3,4.894E3,6.83E2,6.89E2,2.811E3,7.18E2,6.82E2,2.836E3,1.413E3,1.0465E4,6.97E2,6.76E2,1.424E3,3.467E3,5.605E3,3.53E3,6.99E2,6.84E2,7.18E2,6.84E2,1.42E3,1.402E3,6.94E2,6.92E2,2.078E3,9.159E3,1.387E3,6.76E2,2.073E3,3.478E3,6.979E3,8.348E3],"tree_param":{"num_deleted":"0","num_feature":"7","num_nodes":"117","size_leaf_vector":"0"}},{"base_weights":[3.5220204E-4,1.4189126E-4,2.7902948E-2,-1.8523566E-2,4.861487E-4,1.8406011E-2,3.2648444E-2,-4.362284E-2,-8.847136E-3,-4.0014743E-4,6.056891E-3,3.459013E-2,3.0626139E-2,-3.418996E-2,-5.314313E-2,-6.2223338E-3,-1.8938227E-2,1.2882133E-3,-5.8258628E-3,7.860664E-3,-9.093752E-2,-3.6871352E-4,-8.140713E-3,-4.4483446E-2,1.8312485E-3,8.865119E-3,-9.845738E-3,4.6695434E-3,6.0272854E-2,-5.266847E-2,-4.0472988E-2,-5.515392E-3,3.5295612E-3,-3.4701645E-6,4.9334288E-2,-4.4231987E-4,-2.1196151E-2,5.7727965E-3,-4.9019814E-2,9.126559E-3,8.609737E-2],"categories":[],"categories_nodes":[],"categories_segments":[],"categories_sizes":[],"default_left":[true,true,true,true,true,false,true,true,true,true,true,false,false,false,false,true,false,true,true,true,false,false,false,true,true,true,true,true,true,false,false,false,false,false,false,false,false,false,false,false,false],"id":19,"left_children":[1,3,5,7,9,-1,11,13,15,17,19,-1,-1,-1,-1,21,-1,23,25,27,-1,-1,-1,29,31,33,35,37,39,-1,-1,-1,-1,-1,-1,-1,-1,-1,-1,-1,-1],"loss_changes":[1.6061594E0,1.767738E0,9.404111E-2,1.2095993E0,1.3336781E0,0E0,4.4339895E-3,1.226511E-1,9.515631E-2,2.1348312E0,6.4875565E0,0E0,0E0,0E0,0E0,3.2068342E-2,0E0,4.41787E0,3.266352E0,6.0879183E0,0E0,0E0,0E0,6.627703E-2,2.191648E0,4.2648616E0,4.634965E0,2.032743E0,2.7584243E0,0E0,0E0,0E0,0E0,0E0,0E0,0E0,0E0,0E0,0E0,0E0,0E0],"parents":[2147483647,0,0,1,1,2,2,3,3,4,4,6,6,7,7,8,8,9,9,10,10,15,15,17,17,18,18,19,19,23,23,24,24,25,25,26,26,27,27,28,28],"right_children":[2,4,6,8,10,-1,12,14,16,18,20,-1,-1,-1,-1,22,-1,24,26,28,-1,-1,-1,30,32,34,36,38,40,-1,-1,-1,-1,-1,-1,-1,-1,-1,-1,-1,-1],"split_conditions":[2.15E1,5.5E0,4E0,2.8E1,7E0,5.5218036E-3,3.35E1,2E1,8E1,3.5E0,3.2E2,1.0377039E-2,9.187842E-3,-1.0256989E-2,-1.5942939E-2,5E0,-5.681468E-3,2.8E1,2.8E1,2.4E2,-2.7281256E-2,-1.1061406E-4,-2.442214E-3,2E1,3.6E1,2E0,2E0,4E0,2E0,-1.5800541E-2,-1.2141897E-2,-1.6546176E-3,1.0588684E-3,-1.0410494E-6,1.4800287E-2,-1.3269596E-4,-6.3588456E-3,1.731839E-3,-1.4705945E-2,2.7379678E-3,2.582921E-2],"split_indices":[5,0,3,4,1,0,0,4,4,5,0,0,0,0,0,3,0,0,4,0,0,0,0,0,4,3,3,3,3,0,0,0,0,0,0,0,0,0,0,0,0],"split_type":[0,0,0,0,0,0,0,0,0,0,0,0,0,0,0,0,0,0,0,0,0,0,0,0,0,0,0,0,0,0,0,0,0,0,0,0,0,0,0,0,0],"sum_hessian":[2.772E5,2.75101E5,2.099E3,4.981E3,2.7012E5,7.01E2,1.398E3,1.385E3,3.596E3,2.33044E5,3.7076E4,7.05E2,6.93E2,6.98E2,6.87E2,2.855E3,7.41E2,1.77737E5,5.5307E4,3.64E4,6.76E2,7.05E2,2.15E3,2.083E3,1.75654E5,1.1882E4,4.3425E4,3.4312E4,2.088E3,6.81E2,1.402E3,3.2981E4,1.42673E5,9.747E3,2.135E3,2.375E4,1.9675E4,3.3622E4,6.9E2,7.01E2,1.387E3],"tree_param":{"num_deleted":"0","num_feature":"7","num_nodes":"41","size_leaf_vector":"0"}},{"base_weights":[2.4639966E-4,3.4356586E-4,-3.8749196E-2,-3.4473385E-5,1.4963059E-2,-5.1053436E-3,1.2900099E-3,3.1787883E-3,4.2234037E-2,4.3653655E-3,-8.041068E-3,2.2115318E-2,8.72448E-4,-6.9056E-4,1.2822121E-2,-3.1389024E-2,8.511878E-3,-1.3009376E-2,-2.874272E-3,5.10794E-2,-6.9698044E-3,7.5083044E-5,1.2726763E-2,-7.5357496E-3,3.7680839E-3,1.0045517E-2,1.5363066E-2,1.2754219E-3,-6.3723944E-2,-1.7375653E-3,4.186094E-2,-2.7096684E-3,-1.7893445E-2,-4.705206E-3,9.145173E-3,6.2085472E-2,2.894728E-2,-1.6147288E-2,1.2136605E-2,3.032711E-3,-2.448011E-3,1.9538894E-2,-2.3285348E-2,-5.939156E-3,-9.149437E-3,4.0590605E-3,3.1731916E-3],"categories":[],"categories_nodes":[],"categories_segments":[],"categories_sizes":[],"default_left":[true,true,false,true,true,true,true,true,false,true,true,true,true,true,true,true,true,true,true,true,true,true,true,true,true,false,false,false,false,false,false,false,false,false,false,false,false,false,false,false,false,false,false,false,false,false,false],"id":20,"left_children":[1,3,-1,5,7,9,11,13,-1,15,17,19,21,23,25,27,29,31,33,35,37,39,41,43,45,-1,-1,-1,-1,-1,-1,-1,-1,-1,-1,-1,-1,-1,-1,-1,-1,-1,-1,-1,-1,-1,-1],"loss_changes":[1.0503429E0,1.5282166E0,0E0,1.8103405E0,2.2398047E0,1.5521039E0,1.8584763E0,1.8165055E-1,0E0,1.9587293E0,1.093874E0,3.539379E0,1.9804462E0,1.06086306E-1,9.680614E-3,1.4502469E0,4.046412E0,1.0927658E0,4.597873E-1,5.1095486E-1,3.6790234E-1,1.4650056E0,3.2398956E0,3.4779087E-3,3.5149418E-4,0E0,0E0,0E0,0E0,0E0,0E0,0E0,0E0,0E0,0E0,0E0,0E0,0E0,0E0,0E0,0E0,0E0,0E0,0E0,0E0,0E0,0E0],"parents":[2147483647,0,0,1,1,3,3,4,4,5,5,6,6,7,7,9,9,10,10,11,11,12,12,13,13,14,14,15,15,16,16,17,17,18,18,19,19,20,20,21,21,22,22,23,23,24,24],"right_children":[2,4,-1,6,8,10,12,14,-1,16,18,20,22,24,26,28,30,32,34,36,38,40,42,44,46,-1,-1,-1,-1,-1,-1,-1,-1,-1,-1,-1,-1,-1,-1,-1,-1,-1,-1,-1,-1,-1,-1],"split_conditions":[1.008E3,9.44E2,-1.1624759E-2,1.5E0,2E0,1.12E2,1.5E0,1.5E0,1.26702115E-2,5.6E1,5.28E2,4E2,3.04E2,1.44E2,9.76E2,4E1,2E0,2E0,2E0,1.92E2,4.16E2,5.6E1,3E0,9.76E2,2.4E2,3.0136553E-3,4.6089203E-3,3.826266E-4,-1.9117184E-2,-5.212696E-4,1.2558283E-2,-8.1290054E-4,-5.3680334E-3,-1.4115619E-3,2.743552E-3,1.8625643E-2,8.684184E-3,-4.8441864E-3,3.6409816E-3,9.098134E-4,-7.344033E-4,5.8616684E-3,-6.9856048E-3,-1.7817469E-3,-2.7448311E-3,1.2177182E-3,9.519575E-4],"split_indices":[0,0,0,1,3,0,5,1,0,0,0,4,4,4,0,0,3,3,3,0,0,4,1,0,4,0,0,0,0,0,0,0,0,0,0,0,0,0,0,0,0,0,0,0,0,0,0],"split_type":[0,0,0,0,0,0,0,0,0,0,0,0,0,0,0,0,0,0,0,0,0,0,0,0,0,0,0,0,0,0,0,0,0,0,0,0,0,0,0,0,0,0,0,0,0,0,0],"sum_hessian":[2.772E5,2.76512E5,6.88E2,2.69543E5,6.969E3,5.5822E4,2.13721E5,4.867E3,2.102E3,1.3209E4,4.2613E4,4.2E3,2.09521E5,3.474E3,1.393E3,1.372E3,1.1837E4,2.1723E4,2.089E4,2.104E3,2.096E3,1.96317E5,1.3204E4,1.37E3,2.104E3,6.68E2,7.25E2,6.83E2,6.89E2,9.055E3,2.782E3,6.988E3,1.4735E4,1.8129E4,2.761E3,1.404E3,7E2,1.416E3,6.8E2,9.0376E4,1.05941E5,1.1104E4,2.1E3,6.91E2,6.79E2,1.409E3,6.95E2],"tree_param":{"num_deleted":"0","num_feature":"7","num_nodes":"47","size_leaf_vector":"0"}},{"base_weights":[1.7255096E-4,-1.092321E-2,4.887652E-4,-5.276195E-3,-3.6122173E-2,-3.7055835E-4,5.527229E-3,1.9558072E-2,-8.407378E-3,-2.4856156E-2,-4.719396E-2,-8.047738E-4,1.5120646E-2,6.728518E-3,-6.2963285E-2,-1.54731255E-2,-1.371496E-3,4.1636435E-4,-4.863652E-3,1.9154727E-2,7.010444E-3,4.6562576E-3,4.2938765E-2,-7.850042E-3,-2.3019653E-2,2.5306854E-3,-1.3296928E-2,-3.0955058E-2,8.0072833E-4,-3.8740863E-4,-1.1749081E-2,1.5377711E-2,2.2931615E-2,1.1514516E-2,-3.6248597E-4,7.125847E-3,6.1020702E-2,-9.3535363E-4,4.3395115E-3,-3.7799574E-2,-2.7605865E-2,-1.650919E-3,4.7010947E-3,5.8935317E-3,-4.227783E-3,3.3631556E-2,-1.7053152E-2,1.9836372E-2,6.3614203E-3,2.4250839E-2,2.027551E-2,1.8589383E-2,-2.0534454E-2,-1.1759944E-2,5.3407303E-3,4.339651E-2,7.8231E-2],"categories":[],"categories_nodes":[],"categories_segments":[],"categories_sizes":[],"default_left":[true,true,true,true,true,true,true,false,true,false,false,true,true,true,false,true,true,true,true,true,false,true,true,false,false,true,false,true,true,true,true,true,true,true,true,false,true,false,false,false,false,false,false,false,false,false,false,false,false,false,false,false,